Initial Temperature (K)	0.0198045
Excitation Current (A)	2e-07
Axis 1,2	x,y
Angle	0
Field (T)	Resistance (Ohms)
0.0	-0.004526255
-0.00025	0.00747858
-0.0005	-0.0010151497500000002
-0.00075	-0.0046473255000000005
-0.001	-0.0015460039999999995
-0.00125	-0.0035483525
-0.0015	-0.00201166225
-0.00175	0.0012759174999999998
-0.002	-0.007357493499999999
-0.0022500000000000003	0.0036321749999999996
-0.0025	0.00722710375
-0.00275	-0.005662490250000001
-0.003	-0.0047870205
-0.0032500000000000003	-0.006435467500000002
-0.0035	-0.007459925249999999
-0.00375	-0.015283077499999999
-0.004	-0.0008847555000000003
-0.00425	0.0077579500000000004
-0.0045000000000000005	-0.0048894675
-0.00475	-0.0074692544999999996
-0.005	-0.0087172065
-0.00525	0.0014994502500000001
-0.0055	-0.0035297294999999994
-0.00575	-0.010710258500000003
-0.006	4.6560250000000026e-05
-0.00625	0.0031292656
-0.006500000000000001	-0.004246840000000001
-0.00675	-0.00425616925
-0.007	-0.006360974
-0.00725	-0.008232932250000002
-0.0075	-0.005438950499999999
-0.00775	-0.0019278394999999997
-0.008	0.00800009925
-0.00825	-0.010337720000000002
-0.0085	0.00611881275
-0.00875	-0.006575182500000001
-0.009000000000000001	-0.00393951025
-0.00925	0.00561589825
-0.0095	0.013727765750000002
-0.00975	-0.007664828500000001
-0.01	-0.00017695424999999954
-0.01025	0.012125888250000001
-0.0105	-0.00412578025
-0.010750000000000001	0.010384314750000002
-0.011	0.0046845725
-0.01125	-0.0008847599999999997
-0.0115	0.28454825
-0.01175	0.008503020999999998
-0.012	0.008335383750000001
-0.01225	0.00422823275
-0.0125	0.0033248385000000007
-0.012750000000000001	0.014742926500000001
-0.013000000000000001	0.011688185750000002
-0.01325	0.009425026999999997
-0.0135	0.05182835000000001
-0.01375	0.0115484675
-0.014	0.06814525
-0.01425	0.23055027500000003
-0.0145	0.03622867999999999
-0.014750000000000001	0.5972975
-0.015	0.34141475
-0.01525	0.090152475
-0.0155	0.6734520000000002
-0.01575	0.030780365000000004
-0.016	0.34008325
-0.01625	0.62008675
-0.0165	0.49751575000000003
-0.01675	0.71542625
-0.017	0.327566275
-0.01725	0.06756775000000002
-0.0175	0.09353325000000001
-0.017750000000000002	0.254858025
-0.018000000000000002	0.3562785000000001
-0.01825	0.70683925
-0.0185	0.52698275
-0.01875	0.6331342500000001
-0.019	0.46497499999999997
-0.01925	0.41137775
-0.0195	0.6280777499999999
-0.01975	0.44684250000000003
-0.02	0.7449685000000003
-0.02025	0.6895725
-0.0205	0.7272069999999999
-0.02075	0.3798605
-0.021	0.41608049999999996
-0.02125	0.46524500000000013
-0.021500000000000002	0.7732542499999999
-0.021750000000000002	0.63862925
-0.022	0.51193225
-0.02225	0.7478555000000001
-0.0225	0.7056660000000001
-0.02275	0.54971625
-0.023	0.7553345000000001
-0.02325	0.6920405000000001
-0.0235	0.7471295000000001
-0.02375	0.7760762500000001
-0.024	0.6527202500000001
-0.02425	0.67291125
-0.0245	0.6769997499999999
-0.02475	0.626364
-0.025	0.7704882500000001
-0.02525	0.6908952500000001
-0.025500000000000002	0.775062
-0.025750000000000002	0.76348375
-0.026000000000000002	0.7666040000000001
-0.02625	0.7610994999999999
-0.0265	0.7765335
-0.02675	0.73349375
-0.027	0.6648740000000001
-0.02725	0.7198687500000002
-0.0275	0.7671540000000001
-0.02775	0.7614439999999999
-0.028	0.7561262500000001
-0.02825	0.78228875
-0.0285	0.7746887499999999
-0.02875	0.7894694999999998
-0.029	0.7718565000000001
-0.02925	0.7651702499999999
-0.029500000000000002	0.7802395000000001
-0.029750000000000002	0.7466917500000001
-0.03	0.7652907499999999
-0.03025	0.7759645000000001
-0.0305	0.7589109999999999
-0.03075	0.7849619999999998
-0.031	0.79659425
-0.03125	0.79448925
-0.0315	0.8015020000000002
-0.03175	0.7872895
-0.032	0.7730492500000001
-0.03225	0.7770455
-0.0325	0.7844865
-0.03275	0.78219575
-0.033	0.7802862500000001
-0.03325	0.7825960000000001
-0.0335	0.7922169999999998
-0.03375	0.7925987500000001
-0.034	0.760699
-0.03425	0.7903352499999999
-0.0345	0.7725467500000001
-0.03475	0.7973575
-0.035	0.7747342500000002
-0.035250000000000004	0.7946295000000001
-0.035500000000000004	0.78023025
-0.035750000000000004	0.8076025000000001
-0.036000000000000004	0.8101357500000002
-0.03625	0.7896087499999999
-0.0365	0.7717730000000002
-0.03675	0.7933810000000001
-0.037	0.7991364999999999
-0.03725	0.7997605
-0.0375	0.7926357499999999
-0.03775	0.78903175
-0.038	0.7805842500000001
-0.03825	0.7886215000000001
-0.0385	0.7972364999999999
-0.03875	0.7918625
-0.039	0.7771287500000001
-0.03925	0.7674052500000001
-0.0395	0.80743425
-0.03975	0.80776975
-0.04	0.8069500000000001
-0.04025	0.8014557499999999
-0.0405	0.8047709999999999
-0.04075	0.8012225
-0.041	0.78827725
-0.04125	0.7890502500000001
-0.0415	0.7742607499999999
-0.04175	0.79783225
-0.042	0.8093065000000002
-0.04225	0.7893389999999999
-0.0425	0.78922725
-0.04275	0.8085057500000002
-0.043000000000000003	0.8086917499999999
-0.043250000000000004	0.8043144999999999
-0.043500000000000004	0.8003377500000001
-0.043750000000000004	0.797674
-0.044	0.8097907499999999
-0.04425	0.7952059999999999
-0.0445	0.7998255000000002
-0.04475	0.8002262500000001
-0.045	0.8081422500000001
-0.04525	0.7992387500000001
-0.0455	0.8100515
-0.04575	0.80784425
-0.046	0.8208270000000002
-0.04625	0.79763725
-0.0465	0.7972460000000002
-0.04675	0.80392325
-0.047	0.8005057500000001
-0.04725	0.8007757500000001
-0.0475	0.8247292499999999
-0.04775	0.81480175
-0.048	0.8109830000000001
-0.04825	0.8100887499999999
-0.0485	0.8122400000000002
-0.04875	0.7987545000000001
-0.049	0.799239
-0.04925	0.8107502500000001
-0.0495	0.80892425
-0.04975	0.8078254999999999
-0.05	0.8010175
-0.05025	0.8140560000000001
-0.0505	0.8181537499999999
-0.05075	0.7973015000000001
-0.051000000000000004	0.81563075
-0.051250000000000004	0.8092507500000002
-0.051500000000000004	0.80452
-0.051750000000000004	0.8087105
-0.052000000000000005	0.8072947500000001
-0.05225	0.807742
-0.0525	0.80305725
-0.05275	0.8080957500000002
-0.053	0.8163845000000001
-0.05325	0.8068200000000002
-0.0535	0.8197840000000001
-0.05375	0.8057859999999999
-0.054	0.8150902499999999
-0.05425	0.7988477500000001
-0.0545	0.817642
-0.05475	0.8125565
-0.055	0.80768625
-0.05525	0.81052675
-0.0555	0.8209855
-0.05575	0.8169900000000001
-0.056	0.8131904999999999
-0.05625	0.8111600000000001
-0.0565	0.801288
-0.05675	0.8009055
-0.057	0.80971625
-0.05725	0.8107874999999999
-0.0575	0.8091485
-0.05775	0.80944625
-0.058	0.80965075
-0.05825	0.8063915
-0.0585	0.80858025
-0.058750000000000004	0.8137115
-0.059000000000000004	0.7992292499999999
-0.059250000000000004	0.8139352500000001
-0.059500000000000004	0.818797
-0.059750000000000004	0.8083285000000001
-0.06	0.818992
-0.06025	0.8142892500000001
-0.0605	0.8126964999999999
-0.06075	0.8120724999999999
-0.061	0.81952375
-0.06125	0.811011
-0.0615	0.82174925
-0.06175	0.8158442499999998
-0.062	0.8236305
-0.06225	0.824934
-0.0625	0.807658
-0.06275	0.8174929999999999
-0.063	0.81160725
-0.06325	0.8123985000000001
-0.0635	0.8106474999999999
-0.06375	0.822885
-0.064	0.8119330000000001
-0.06425	0.8085245000000001
-0.0645	0.808468
-0.06475	0.8092320000000002
-0.065	0.81801425
-0.06525	0.8160957500000001
-0.0655	0.805758
-0.06575	0.8103772499999999
-0.066	0.8117372500000001
-0.06625	0.8102560000000001
-0.0665	0.803709
-0.06675	0.8138050000000001
-0.067	0.81672925
-0.06725	0.8117467500000001
-0.0675	0.8188989999999999
-0.06775	0.8153972500000001
-0.068	0.80242375
-0.06825	0.8136
-0.0685	0.8270390000000001
-0.06875	0.81188625
-0.069	0.8158445000000001
-0.06925	0.8136555
-0.0695	0.8143265
-0.06975	0.814131
-0.07	0.8150339999999998
-0.07025	0.8047427500000001
-0.07050000000000001	0.8102752500000001
-0.07075000000000001	0.8087200000000001
-0.07100000000000001	0.8063542500000002
-0.07125000000000001	0.82809125
-0.07150000000000001	0.81135525
-0.07175000000000001	0.8115975
-0.07200000000000001	0.82086425
-0.07225	0.80995875
-0.0725	0.80573025
-0.07275	0.8113745
-0.073	0.82117175
-0.07325	0.816394
-0.0735	0.8139540000000001
-0.07375	0.8223269999999999
-0.074	0.8195695
-0.07425	0.8093625
-0.0745	0.804119
-0.07475	0.7975534999999999
-0.075	0.81570475
-0.07525	0.8136
-0.0755	0.8217865000000001
-0.07575	0.8136185
-0.076	0.8256417500000001
-0.07625	0.8186940000000001
-0.0765	0.81581625
-0.07675	0.80990275
-0.077	0.8092972500000001
-0.07725	0.8099397500000001
-0.0775	0.8186752500000002
-0.07775	0.8258562500000001
-0.078	0.8147735
-0.07825	0.83299025
-0.0785	0.8130505000000001
-0.07875	0.8078445
-0.079	0.8228387500000001
-0.07925	0.8174835
-0.0795	0.8148849999999999
-0.07975	0.8104895000000001
-0.08	0.808748
-0.08025	0.817176
-0.0805	0.8216560000000002
-0.08075	0.8126780000000001
-0.081	0.8244685000000002
-0.08125	0.8163005
-0.0815	0.8016230000000002
-0.08175	0.81336725
-0.082	0.81656125
-0.08225	0.81162575
-0.0825	0.8172135
-0.08275	0.82392825
-0.083	0.8196905
-0.08325	0.821991
-0.0835	0.8088967499999999
-0.08375	0.8123054999999999
-0.084	0.81573275
-0.08425	0.8120354999999999
-0.0845	0.8144007500000001
-0.08475	0.8235462500000001
-0.085	0.8102099999999999
-0.08525	0.8058787500000002
-0.0855	0.8159377500000001
-0.08575	0.81916
-0.08600000000000001	0.8183030000000001
-0.08625000000000001	0.8154345000000001
-0.08650000000000001	0.8288080000000001
-0.08675000000000001	0.8214795000000001
-0.08700000000000001	0.8125285000000001
-0.08725000000000001	0.82004475
-0.08750000000000001	0.8166357500000001
-0.08775000000000001	0.8188615
-0.088	0.8255302499999999
-0.08825	0.8123335000000002
-0.0885	0.8103962500000002
-0.08875	0.8125197500000002
-0.089	0.8109740000000001
-0.08925	0.822885
-0.0895	0.81983975
-0.08975	0.8299072500000001
-0.09	0.8157795
-0.09025	0.8159470000000002
-0.0905	0.8073885
-0.09075	0.8160769999999999
-0.091	0.82142275
-0.09125	0.8153972500000001
-0.0915	0.8232667499999999
-0.09175	0.8277837500000002
-0.092	0.8150154999999999
-0.09225	0.8231835
-0.0925	0.819924
-0.09275	0.8195135000000002
-0.093	0.80939025
-0.09325	0.81449375
-0.0935	0.8120635
-0.09375	0.8154997499999999
-0.094	0.8162262500000002
-0.09425	0.8184517499999999
-0.0945	0.81817275
-0.09475	0.8076862500000002
-0.095	0.8253342499999999
-0.09525	0.8218795000000001
-0.0955	0.8151832500000001
-0.09575	0.82289425
-0.096	0.809595
-0.09625	0.8222055
-0.0965	0.8191507500000001
-0.09675	0.8248967500000001
-0.097	0.80530225
-0.09725	0.81134625
-0.0975	0.8200912499999999
-0.09775	0.82611725
-0.098	0.8214414999999999
-0.09825	0.827095
-0.0985	0.8221585
-0.09875	0.81451275
-0.099	0.8253627500000001
-0.09925	0.81047975
-0.0995	0.8172504999999998
-0.09975	0.8221489999999999
-0.1	0.8167195
-0.10025	0.8109735
-0.1005	0.8115697500000002
-0.10075	0.8115325
-0.101	0.82589325
-0.10125	0.80872925
-0.1015	0.8102380000000001
-0.10175000000000001	0.8159935
-0.10200000000000001	0.8161232500000001
-0.10225000000000001	0.8193925
-0.10250000000000001	0.81346925
-0.10275000000000001	0.824897
-0.10300000000000001	0.8093250000000001
-0.10325000000000001	0.8116629999999999
-0.10350000000000001	0.82678725
-0.10375000000000001	0.8131432500000001
-0.10400000000000001	0.8078350000000001
-0.10425	0.8179862499999999
-0.1045	0.8195977500000001
-0.10475	0.81781875
-0.105	0.811588
-0.10525	0.815006
-0.1055	0.8271785
-0.10575	0.81435425
-0.106	0.8116722500000002
-0.10625	0.8214410000000001
-0.1065	0.81622625
-0.10675	0.8147175000000001
-0.107	0.822336
-0.10725	0.8244215
-0.1075	0.8115885
-0.10775	0.8193090000000001
-0.108	0.8225125
-0.10825	0.8188894999999999
-0.1085	0.81933675
-0.10875	0.8187875
-0.109	0.81681325
-0.10925	0.8163657500000002
-0.1095	0.8245057499999998
-0.10975	0.8166077500000002
-0.11	0.8257537500000001
-0.11025	0.8278772499999999
-0.1105	0.8149595000000001
-0.11075	0.8228012500000002
-0.111	0.82229825
-0.11125	0.8262105
-0.1115	0.8087567500000002
-0.11175	0.8347787500000001
-0.112	0.814671
-0.11225	0.8255952499999999
-0.1125	0.81084325
-0.11275	0.810955
-0.113	0.8202960000000001
-0.11325	0.8092600000000002
-0.1135	0.81689675
-0.11375	0.8263962499999999
-0.114	0.8237137499999999
-0.11425	0.8043702500000001
-0.1145	0.825968
-0.11475	0.81713925
-0.115	0.8226245000000002
-0.11525	0.82465475
-0.1155	0.821507
-0.11575	0.81241725
-0.116	0.8128357500000001
-0.11625	0.8198305
-0.1165	0.8314257500000002
-0.11675	0.8205475000000001
-0.117	0.818387
-0.11725000000000001	0.817502
-0.11750000000000001	0.82023075
-0.11775000000000001	0.8117745
-0.11800000000000001	0.8211247499999998
-0.11825000000000001	0.8247380000000001
-0.11850000000000001	0.8120354999999999
-0.11875000000000001	0.8245522500000001
-0.11900000000000001	0.8234252500000001
-0.11925000000000001	0.8318722500000001
-0.11950000000000001	0.8206685
-0.11975000000000001	0.8261634999999999
-0.12	0.8257445
-0.11975	0.8301495
-0.1195	0.82702025
-0.11925	0.8306520000000001
-0.119	0.82146975
-0.11875	0.8315464999999999
-0.1185	0.8085052500000001
-0.11825	0.8301775
-0.118	0.82257775
-0.11775	0.8209015000000001
-0.1175	0.8115887500000001
-0.11725	0.8296092500000001
-0.11699999999999999	0.8137767500000002
-0.11674999999999999	0.8114767500000001
-0.11649999999999999	0.8232017500000001
-0.11624999999999999	0.80819775
-0.11599999999999999	0.8163385000000001
-0.11574999999999999	0.8126405000000001
-0.11549999999999999	0.81788375
-0.11524999999999999	0.8079655
-0.11499999999999999	0.8159845
-0.11474999999999999	0.8263492500000001
-0.11449999999999999	0.8211155000000001
-0.11424999999999999	0.819281
-0.11399999999999999	0.81134625
-0.11374999999999999	0.805851
-0.11349999999999999	0.8074997500000001
-0.11324999999999999	0.8141775
-0.11299999999999999	0.8099025000000002
-0.11274999999999999	0.8019305
-0.11249999999999999	0.8014930000000001
-0.11224999999999999	0.8123332500000001
-0.11199999999999999	0.8115604999999999
-0.11174999999999999	0.81087075
-0.11149999999999999	0.8196722500000001
-0.11124999999999999	0.81177475
-0.11099999999999999	0.8130127500000001
-0.11074999999999999	0.7985220000000001
-0.11049999999999999	0.80997725
-0.11024999999999999	0.8168037499999999
-0.10999999999999999	0.8117555
-0.10974999999999999	0.803448
-0.10949999999999999	0.8068297499999999
-0.10924999999999999	0.79951825
-0.10899999999999999	0.8071922500000001
-0.10874999999999999	0.8067635000000003
-0.10849999999999999	0.8015672500000001
-0.10824999999999999	0.7989877500000003
-0.10799999999999998	0.8056
-0.10774999999999998	0.8115509999999999
-0.10749999999999998	0.8126779999999999
-0.10724999999999998	0.80326225
-0.10699999999999998	0.8127057500000001
-0.10674999999999998	0.8002352500000001
-0.10649999999999998	0.8082447500000001
-0.10624999999999998	0.8035510000000001
-0.10599999999999998	0.8137587500000001
-0.10574999999999998	0.7998535000000001
-0.10549999999999998	0.8032807499999999
-0.10524999999999998	0.8021259999999999
-0.10499999999999998	0.8079095000000001
-0.10474999999999998	0.8023215
-0.10449999999999998	0.8075090000000001
-0.10424999999999998	0.7987635000000001
-0.10399999999999998	0.80662475
-0.10374999999999998	0.7902237500000001
-0.10349999999999998	0.8051715000000002
-0.10324999999999998	0.8071742500000001
-0.10299999999999998	0.79884825
-0.10274999999999998	0.80935325
-0.10249999999999998	0.80533925
-0.10224999999999998	0.8002634999999999
-0.10199999999999998	0.8039607500000001
-0.10174999999999998	0.793083
-0.10149999999999998	0.7974045
-0.10124999999999998	0.80252625
-0.10099999999999998	0.79881025
-0.10074999999999998	0.8067827500000001
-0.10049999999999998	0.8021072499999999
-0.10024999999999998	0.8103682500000001
-0.09999999999999998	0.8016232500000001
-0.09974999999999998	0.8151457500000001
-0.09949999999999998	0.7998910000000001
-0.09924999999999998	0.7912107499999999
-0.09899999999999998	0.8090734999999998
-0.09874999999999998	0.8037185
-0.09849999999999998	0.8027222500000002
-0.09824999999999998	0.79505675
-0.09799999999999998	0.79882875
-0.09774999999999998	0.80011425
-0.09749999999999998	0.7902237500000001
-0.09724999999999998	0.8001610000000002
-0.09699999999999998	0.797833
-0.09674999999999997	0.8002725
-0.09649999999999997	0.8058792499999999
-0.09624999999999997	0.8104422500000001
-0.09599999999999997	0.8070432500000001
-0.09574999999999997	0.7871690000000001
-0.09549999999999997	0.7980002499999997
-0.09524999999999997	0.7965847500000001
-0.09499999999999997	0.79581175
-0.09474999999999997	0.8024429999999999
-0.09449999999999997	0.8024337499999998
-0.09424999999999997	0.7919837500000001
-0.09399999999999997	0.7845425
-0.09374999999999997	0.8006825000000001
-0.09349999999999997	0.7928875
-0.09324999999999997	0.7955785
-0.09299999999999997	0.8036905000000002
-0.09274999999999997	0.7936229999999999
-0.09249999999999997	0.8008875000000002
-0.09224999999999997	0.78414225
-0.09199999999999997	0.7987172499999999
-0.09174999999999997	0.7952622500000001
-0.09149999999999997	0.7981585
-0.09124999999999997	0.79697575
-0.09099999999999997	0.785185
-0.09074999999999997	0.7929710000000001
-0.09049999999999997	0.7885475
-0.09024999999999997	0.79767425
-0.08999999999999997	0.78609825
-0.08974999999999997	0.7975345
-0.08949999999999997	0.7920307500000001
-0.08924999999999997	0.791248
-0.08899999999999997	0.7884635000000002
-0.08874999999999997	0.8031970000000002
-0.08849999999999997	0.7951597500000002
-0.08824999999999997	0.7867314999999999
-0.08799999999999997	0.7941442500000001
-0.08774999999999997	0.79272875
-0.08749999999999997	0.79336175
-0.08724999999999997	0.79040075
-0.08699999999999997	0.790792
-0.08674999999999997	0.795216
-0.08649999999999997	0.7862185
-0.08624999999999997	0.7880630000000001
-0.08599999999999997	0.79172325
-0.08574999999999997	0.8063822500000001
-0.08549999999999996	0.7987825
-0.08524999999999996	0.7882487499999999
-0.08499999999999996	0.7974505000000001
-0.08474999999999996	0.79677975
-0.08449999999999996	0.8080305000000001
-0.08424999999999996	0.7795409999999999
-0.08399999999999996	0.793083
-0.08374999999999996	0.7978512500000001
-0.08349999999999996	0.7959512500000001
-0.08324999999999996	0.779718
-0.08299999999999996	0.787886
-0.08274999999999996	0.7876529999999999
-0.08249999999999996	0.7973107500000001
-0.08224999999999996	0.7912855000000001
-0.08199999999999996	0.7916017500000001
-0.08174999999999996	0.7963052500000001
-0.08149999999999996	0.7909592499999999
-0.08124999999999996	0.796202
-0.08099999999999996	0.78563225
-0.08074999999999996	0.7787027500000001
-0.08049999999999996	0.8010362500000001
-0.08024999999999996	0.78042575
-0.07999999999999996	0.806587
-0.07974999999999996	0.7945357500000001
-0.07949999999999996	0.7901397500000001
-0.07924999999999996	0.7831180000000001
-0.07899999999999996	0.7850835
-0.07874999999999996	0.79149975
-0.07849999999999996	0.7863402500000002
-0.07824999999999996	0.7886685
-0.07799999999999996	0.794247
-0.07774999999999996	0.7817019999999999
-0.07749999999999996	0.7828377500000001
-0.07724999999999996	0.7879702499999999
-0.07699999999999996	0.784151
-0.07674999999999996	0.7891712500000001
-0.07649999999999996	0.7825685
-0.07624999999999996	0.7934464999999998
-0.07599999999999996	0.8002350000000001
-0.07574999999999996	0.79368825
-0.07549999999999996	0.7796155
-0.07524999999999996	0.7853712499999999
-0.07499999999999996	0.7830895000000001
-0.07474999999999996	0.78736425
-0.07449999999999996	0.7885102500000001
-0.07424999999999995	0.78759725
-0.07399999999999995	0.7901305
-0.07374999999999995	0.78715
-0.07349999999999995	0.7764585
-0.07324999999999995	0.7952625000000001
-0.07299999999999995	0.7871967500000001
-0.07274999999999995	0.7875602500000001
-0.07249999999999995	0.7790665000000001
-0.07224999999999995	0.7819065000000001
-0.07199999999999995	0.78429975
-0.07174999999999995	0.7926825000000001
-0.07149999999999995	0.7827360000000002
-0.07124999999999995	0.7860792499999999
-0.07099999999999995	0.7844030000000001
-0.07074999999999995	0.7747265
-0.07049999999999995	0.7852315
-0.07024999999999995	0.7813942500000001
-0.06999999999999995	0.78786725
-0.06974999999999995	0.7846914999999999
-0.06949999999999995	0.7813017500000001
-0.06924999999999995	0.7623935000000001
-0.06899999999999995	0.7763277500000001
-0.06874999999999995	0.776673
-0.06849999999999995	0.7721924999999998
-0.06824999999999995	0.7789635
-0.06799999999999995	0.7864332500000001
-0.06774999999999995	0.7675077500000002
-0.06749999999999995	0.7571975000000001
-0.06724999999999995	0.7574115
-0.06699999999999995	0.7655980000000001
-0.06674999999999995	0.781404
-0.06649999999999995	0.7547942500000002
-0.06624999999999995	0.766539
-0.06599999999999995	0.7876995
-0.06574999999999995	0.77671925
-0.06549999999999995	0.78539
-0.06524999999999995	0.7774830000000001
-0.06499999999999995	0.7958025
-0.06474999999999995	0.7877465000000001
-0.06449999999999995	0.7965382500000001
-0.06424999999999995	0.7820277500000001
-0.06399999999999995	0.7782182499999999
-0.06374999999999995	0.7868140000000001
-0.06349999999999995	0.77443775
-0.06324999999999995	0.78140425
-0.06299999999999994	0.7825867500000001
-0.06274999999999994	0.7634555000000002
-0.062499999999999944	0.77702575
-0.062249999999999944	0.7691560000000002
-0.061999999999999944	0.77088875
-0.061749999999999944	0.783378
-0.061499999999999944	0.7773337499999999
-0.06124999999999994	0.774279
-0.06099999999999994	0.7614067500000001
-0.06074999999999994	0.77727825
-0.06049999999999994	0.7681875000000002
-0.06024999999999994	0.7736362500000001
-0.05999999999999994	0.7760115000000001
-0.05974999999999994	0.7803795000000001
-0.05949999999999994	0.7850455
-0.05924999999999994	0.7802582500000002
-0.05899999999999994	0.78105925
-0.05874999999999994	0.7766070000000002
-0.05849999999999994	0.787132
-0.05824999999999994	0.75511075
-0.05799999999999994	0.7639585
-0.05774999999999994	0.761808
-0.05749999999999994	0.7494019999999999
-0.05724999999999994	0.7719505
-0.05699999999999994	0.77752025
-0.05674999999999994	0.77615075
-0.05649999999999994	0.7700502500000002
-0.05624999999999994	0.7639592500000001
-0.05599999999999994	0.767508
-0.05574999999999994	0.7505845000000001
-0.05549999999999994	0.7527450000000002
-0.05524999999999994	0.7617052499999999
-0.05499999999999994	0.7664552499999999
-0.05474999999999994	0.73973425
-0.05449999999999994	0.75484925
-0.05424999999999994	0.7633345000000001
-0.05399999999999994	0.7775575
-0.05374999999999994	0.7676470000000001
-0.053499999999999936	0.754319
-0.053249999999999936	0.7436082500000001
-0.052999999999999936	0.7486747499999999
-0.052749999999999936	0.7676197499999999
-0.052499999999999936	0.7672652500000001
-0.052249999999999935	0.7638382500000002
-0.051999999999999935	0.77613225
-0.051749999999999935	0.7701155000000002
-0.051499999999999935	0.76648275
-0.051249999999999934	0.7655519999999999
-0.050999999999999934	0.7734025
-0.050749999999999934	0.759274
-0.050499999999999934	0.768271
-0.050249999999999934	0.70024575
-0.04999999999999993	0.72808325
-0.04974999999999993	0.7731800000000001
-0.04949999999999993	0.762274
-0.04924999999999993	0.75936725
-0.04899999999999993	0.7552875000000001
-0.04874999999999993	0.756489
-0.04849999999999993	0.720716
-0.04824999999999993	0.7222905000000001
-0.04799999999999993	0.69368
-0.04774999999999993	0.725122
-0.04749999999999993	0.75344375
-0.04724999999999993	0.729517
-0.04699999999999993	0.72804525
-0.04674999999999993	0.6726320000000001
-0.04649999999999993	0.688027
-0.04624999999999993	0.6871050000000001
-0.04599999999999993	0.6531017499999998
-0.04574999999999993	0.66091575
-0.04549999999999993	0.65629625
-0.04524999999999993	0.7249629999999999
-0.04499999999999993	0.70527475
-0.04474999999999993	0.700926
-0.04449999999999993	0.7096800000000001
-0.04424999999999993	0.692227
-0.04399999999999993	0.6984205
-0.04374999999999993	0.40815475
-0.04349999999999993	0.371497
-0.04324999999999993	0.40384225
-0.04299999999999993	0.58259175
-0.04274999999999993	0.6996307500000001
-0.04249999999999993	0.6775865
-0.042249999999999927	0.6925535
-0.041999999999999926	0.70236925
-0.041749999999999926	0.68853925
-0.041499999999999926	0.5125005000000001
-0.041249999999999926	0.25745635000000006
-0.040999999999999925	0.221423375
-0.040749999999999925	0.34655575000000005
-0.040499999999999925	0.24402629999999997
-0.040249999999999925	0.2612006250000001
-0.039999999999999925	0.3793855
-0.039749999999999924	0.28094425000000006
-0.039499999999999924	0.46632525
-0.039249999999999924	0.33207375
-0.038999999999999924	0.09432485
-0.03874999999999992	0.2353647
-0.03849999999999992	0.39099049999999996
-0.03824999999999992	0.15698445000000003
-0.03799999999999992	0.55985825
-0.03774999999999992	0.74031125
-0.03749999999999992	0.7463747500000001
-0.03724999999999992	0.69674425
-0.03699999999999992	0.4348190000000001
-0.03674999999999992	0.45559649999999996
-0.03649999999999992	0.36330150000000005
-0.03624999999999992	0.25866715
-0.03599999999999992	0.6704810000000001
-0.03574999999999992	0.6030997499999999
-0.03549999999999992	0.42883950000000015
-0.03524999999999992	0.3759865
-0.03499999999999992	0.321978075
-0.03474999999999992	0.713629
-0.03449999999999992	0.66323475
-0.03424999999999992	0.15279372500000002
-0.03399999999999992	0.41612725000000006
-0.03374999999999992	0.54373725
-0.03349999999999992	0.5851347499999999
-0.03324999999999992	0.656092
-0.03299999999999992	0.6452697500000001
-0.03274999999999992	0.45912625000000007
-0.03249999999999992	0.3536625
-0.03224999999999992	0.30824100000000004
-0.03199999999999992	0.4981951
-0.03174999999999992	0.38190925
-0.03149999999999992	0.5620377500000001
-0.031249999999999917	0.5789130000000001
-0.030999999999999917	0.05950255
-0.030749999999999916	0.16388560000000005
-0.030499999999999916	0.3024957
-0.030249999999999916	0.6384060000000001
-0.029999999999999916	0.4911265000000001
-0.029749999999999915	0.6416282500000001
-0.029499999999999915	0.43990324999999997
-0.029249999999999915	0.46530049999999995
-0.028999999999999915	0.09722132500000001
-0.028749999999999915	0.6116392500000001
-0.028499999999999914	0.44681400000000004
-0.028249999999999914	0.537310825
-0.027999999999999914	0.040047074499999995
-0.027749999999999914	0.24515330000000002
-0.027499999999999913	0.32340325
-0.027249999999999913	0.41432875
-0.026999999999999913	0.6583549999999999
-0.026749999999999913	0.08541207500000002
-0.026499999999999913	0.06808005
-0.026249999999999912	0.1479973
-0.025999999999999912	0.26768247500000003
-0.025749999999999912	0.00820499275
-0.02549999999999991	0.324353725
-0.02524999999999991	0.4225157500000001
-0.02499999999999991	0.0124611475
-0.02474999999999991	0.32537775
-0.02449999999999991	0.3456525000000001
-0.02424999999999991	0.52127325
-0.02399999999999991	0.022426381000000002
-0.02374999999999991	-0.005280617750000001
-0.02349999999999991	-0.006258524700000001
-0.02324999999999991	0.0019930397500000003
-0.02299999999999991	-0.005969815
-0.02274999999999991	-0.0076461975
-0.02249999999999991	-0.0048801585000000005
-0.02224999999999991	-0.008335362499999999
-0.02199999999999991	0.036535985
-0.02174999999999991	-0.007133975
-0.021499999999999908	0.008884871
-0.021249999999999908	0.00033527675000000006
-0.020999999999999908	-0.0019837257499999996
-0.020749999999999907	-0.012358732500000002
-0.020499999999999907	-0.00193717
-0.020249999999999907	-0.009369165250000002
-0.019999999999999907	0.002067555000000001
-0.019749999999999907	0.022286665
-0.019499999999999906	-0.004041962499999999
-0.019249999999999906	0.009536783
-0.018999999999999906	0.002943006750000001
-0.018749999999999906	-0.0028032950000000012
-0.018499999999999905	-0.012032742500000002
-0.018249999999999905	-0.0027474207500000013
-0.017999999999999905	-0.022584712500000003
-0.017749999999999905	-0.006761445000000001
-0.017499999999999905	-0.0004563375000000004
-0.017249999999999904	-0.0102818695
-0.016999999999999904	-0.0020954774999999994
-0.016749999999999904	0.66429675
-0.016499999999999904	0.1323232675
-0.016249999999999903	0.27088666499999997
-0.015999999999999903	0.1424001325
-0.015749999999999903	0.06994275075
-0.015499999999999903	-0.0098720757
-0.015249999999999903	-0.01574876825
-0.014999999999999902	-0.004116473000000001
-0.014749999999999902	0.004507630750000001
-0.014499999999999902	0.0024307650000000005
-0.014249999999999902	-0.00848438625
-0.013999999999999901	-0.0005867332499999998
-0.013749999999999901	-0.0094809175
-0.013499999999999901	-0.0063702817
-0.0132499999999999	0.006100195
-0.0129999999999999	-0.006957025000000001
-0.0127499999999999	-0.014165494749999999
-0.0124999999999999	-0.008670669250000002
-0.0122499999999999	-0.004954656850000001
-0.0119999999999999	-0.008782420999999999
-0.0117499999999999	-0.014519419900000002
-0.0114999999999999	0.001871987750000001
-0.011249999999999899	-0.0013783625000000001
-0.010999999999999899	-0.0029057562499999997
-0.010749999999999899	-0.004842899749999999
-0.010499999999999898	-0.0049267185
-0.010249999999999898	0.004526261249999999
-0.009999999999999898	-0.012591567500000003
-0.009749999999999898	-0.004582148749999999
-0.009499999999999897	0.0005867494999999993
-0.009249999999999897	-0.004954658250000001
-0.008999999999999897	-0.0033062165
-0.008749999999999897	-0.01086860825
-0.008499999999999897	-0.0081677325
-0.008249999999999896	-0.006659012499999999
-0.007999999999999896	-0.014370387750000001
-0.007749999999999896	-0.0005867049999999987
-0.007499999999999896	0.0007264347500000001
-0.007249999999999895	-0.0118185345
-0.006999999999999895	0.005615922500000001
-0.006749999999999895	-0.006556541750000001
-0.006499999999999895	-0.005187492500000001
-0.0062499999999998945	-0.011753345
-0.005999999999999894	-0.00999314565
-0.005749999999999894	0.00331551925
-0.005499999999999894	-0.008214310500000002
-0.005249999999999894	0.0011920997500000005
-0.004999999999999893	-0.013047903999999999
-0.004749999999999893	-0.0060443
-0.004499999999999893	0.0079256025
-0.004249999999999893	0.0013411065000000003
-0.0039999999999998925	-0.0072922924999999994
-0.0037499999999998923	-0.01173472775
-0.003499999999999892	-0.00254252515
-0.003249999999999892	0.0010803367000000001
-0.0029999999999998916	-0.00894072925
-0.0027499999999998914	-0.0030454295
-0.002499999999999891	-0.006668309999999999
-0.002249999999999891	0.00257976725
-0.0019999999999998908	-0.011315645000000001
-0.0017499999999998905	-0.001648449000000001
-0.0014999999999998903	0.00136904475
-0.00124999999999989	-0.0030547524999999993
-0.0009999999999998899	-0.0069756325
-0.0007499999999998896	-0.00898731725
-0.0004999999999998894	-0.011026925000000003
-0.0002499999999998892	-0.004358605000000001
1.1102230246251565e-16	-0.006184010750000001
0.00025000000000011124	-0.017862862500000003
0.0005000000000001115	-0.01016080925
0.0007500000000001117	-0.007124666800000001
0.001000000000000112	-0.0050384915
0.0012500000000001121	0.0334067225
0.0015000000000001124	-0.00883830525
0.0017500000000001126	-0.0035576630000000004
0.002000000000000113	0.00152736225
0.002250000000000113	-0.007944237500000001
0.0025000000000001132	-0.004945352500000001
0.0027500000000001135	-0.00757169825
0.0030000000000001137	-0.00987206475
0.003250000000000114	-0.0016111842499999993
0.003500000000000114	-0.020563742849999997
0.0037500000000001144	-0.008195690500000002
0.004000000000000115	-0.0003073185000000003
0.004250000000000115	-0.0043027355
0.004500000000000115	-0.021373943
0.004750000000000115	-0.006817330000000002
0.0050000000000001155	0.0020209787499999997
0.005250000000000116	0.005029175250000001
0.005500000000000116	0.09948445000000002
0.005750000000000116	-0.00988136925
0.006000000000000116	0.004377240000000001
0.006250000000000117	-0.012992009000000002
0.006500000000000117	-0.0094902245
0.006750000000000117	-0.010961701500000002
0.007000000000000117	0.012042069100000004
0.0072500000000001175	-0.005681096250000001
0.007500000000000118	0.0030175049999999998
0.007750000000000118	-0.008102551
0.008000000000000118	0.03609826675000001
0.008250000000000118	0.17008824999999997
0.008500000000000119	0.0013690402499999998
0.008750000000000119	0.120364825
0.009000000000000119	0.14995300000000003
0.00925000000000012	0.009136337749999997
0.00950000000000012	0.004740465100000001
0.00975000000000012	0.21797747499999998
0.01000000000000012	0.0008754447499999998
0.01025000000000012	0.38896000000000003
0.01050000000000012	0.06809865
0.01075000000000012	0.09859964999999998
0.01100000000000012	0.25309750000000003
0.011250000000000121	0.006407547499999999
0.011500000000000121	0.49586650000000004
0.011750000000000121	0.011222488250000003
0.012000000000000122	0.004647316
0.012250000000000122	0.16279595
0.012500000000000122	0.3536435
0.012750000000000122	0.011259746749999999
0.013000000000000123	0.6543780000000001
0.013250000000000123	0.0014994342500000007
0.013500000000000123	0.05980052
0.013750000000000123	0.0043306875
0.014000000000000123	0.0098906925
0.014250000000000124	0.033294962500000004
0.014500000000000124	0.5582280000000001
0.014750000000000124	0.54338325
0.015000000000000124	0.36502425000000005
0.015250000000000125	0.4453240000000001
0.015500000000000125	0.4078009999999999
0.015750000000000125	0.40377775
0.016000000000000125	0.097593875
0.016250000000000125	0.4682627500000001
0.016500000000000126	0.51405575
0.016750000000000126	0.5340792500000001
0.017000000000000126	0.39446424999999996
0.017250000000000126	0.70290925
0.017500000000000127	0.329327
0.017750000000000127	0.19914592500000006
0.018000000000000127	0.29990574999999997
0.018250000000000127	0.486768
0.018500000000000127	0.7345742499999999
0.018750000000000128	0.6290462499999999
0.019000000000000128	0.5830852500000001
0.019250000000000128	0.7143547500000001
0.01950000000000013	0.71239925
0.01975000000000013	0.54925925
0.02000000000000013	0.53583925
0.02025000000000013	0.7626737499999998
0.02050000000000013	0.604133
0.02075000000000013	0.5909362499999999
0.02100000000000013	0.6594255000000001
0.02125000000000013	0.64334175
0.02150000000000013	0.73309375
0.02175000000000013	0.62592625
0.02200000000000013	0.6537072500000001
0.02225000000000013	0.7188447500000001
0.02250000000000013	0.7277667500000001
0.02275000000000013	0.7698360000000001
0.02300000000000013	0.7541147500000003
0.02325000000000013	0.681405
0.023500000000000132	0.7836850000000001
0.023750000000000132	0.7389982500000001
0.024000000000000132	0.7180249999999999
0.024250000000000133	0.7518602500000001
0.024500000000000133	0.6819272500000001
0.024750000000000133	0.7662415000000001
0.025000000000000133	0.74631825
0.025250000000000133	0.74294725
0.025500000000000134	0.7796810000000001
0.025750000000000134	0.7648620000000002
0.026000000000000134	0.7858280000000002
0.026250000000000134	0.79063375
0.026500000000000135	0.7576072500000001
0.026750000000000135	0.7224389999999999
0.027000000000000135	0.703198
0.027250000000000135	0.7351429999999999
0.027500000000000135	0.7774265
0.027750000000000136	0.7611092500000002
0.028000000000000136	0.7928967500000002
0.028250000000000136	0.78969275
0.028500000000000136	0.78906825
0.028750000000000137	0.7437757500000002
0.029000000000000137	0.744838
0.029250000000000137	0.73238625
0.029500000000000137	0.7861254999999998
0.029750000000000137	0.7928027499999999
0.030000000000000138	0.7996022500000001
0.030250000000000138	0.7827350000000002
0.030500000000000138	0.77831175
0.03075000000000014	0.8031035
0.03100000000000014	0.791872
0.03125000000000014	0.7845612500000001
0.03150000000000014	0.7824285000000001
0.03175000000000014	0.76603575
0.03200000000000014	0.772351
0.03225000000000014	0.774046
0.03250000000000014	0.77078575
0.03275000000000014	0.7686627500000001
0.03300000000000014	0.7886964999999999
0.03325000000000014	0.79989075
0.03350000000000014	0.7906890000000001
0.03375000000000014	0.796892
0.03400000000000014	0.77719425
0.03425000000000014	0.7936322500000002
0.03450000000000014	0.78625625
0.03475000000000014	0.790391
0.03500000000000014	0.7772595000000001
0.03525000000000014	0.78189775
0.03550000000000014	0.7890685000000002
0.03575000000000014	0.7934927500000001
0.03600000000000014	0.7846262499999999
0.03625000000000014	0.79126675
0.03650000000000014	0.78387125
0.036750000000000144	0.7932132500000002
0.037000000000000144	0.7981305000000001
0.037250000000000144	0.783425
0.037500000000000144	0.7878485000000001
0.037750000000000145	0.7844490000000002
0.038000000000000145	0.80333675
0.038250000000000145	0.7967240000000001
0.038500000000000145	0.801009
0.038750000000000145	0.80009575
0.039000000000000146	0.79974175
0.039250000000000146	0.8001604999999999
0.039500000000000146	0.8078540000000001
0.039750000000000146	0.7975625
0.04000000000000015	0.79172325
0.04025000000000015	0.7957927499999999
0.04050000000000015	0.7917510000000001
0.04075000000000015	0.7860235
0.04100000000000015	0.80339275
0.04125000000000015	0.79882925
0.04150000000000015	0.8029179999999999
0.04175000000000015	0.8036722499999999
0.04200000000000015	0.7999375000000001
0.04225000000000015	0.8048365000000001
0.04250000000000015	0.80715525
0.04275000000000015	0.8151550000000001
0.04300000000000015	0.7940514999999999
0.04325000000000015	0.8041097500000001
0.04350000000000015	0.7957464999999999
0.04375000000000015	0.7996582500000001
0.04400000000000015	0.798922
0.04425000000000015	0.8012874999999999
0.04450000000000015	0.802415
0.04475000000000015	0.7979907499999999
0.04500000000000015	0.8061677499999998
0.04525000000000015	0.7966682500000002
0.04550000000000015	0.8028802500000001
0.04575000000000015	0.80727625
0.04600000000000015	0.8080400000000002
0.04625000000000015	0.805013
0.04650000000000015	0.7916205
0.04675000000000015	0.8036530000000001
0.04700000000000015	0.7925059999999999
0.04725000000000015	0.8076304999999999
0.04750000000000015	0.7971527500000002
0.04775000000000015	0.7953457499999999
0.048000000000000154	0.8063919999999999
0.048250000000000154	0.8022284999999999
0.048500000000000154	0.8046872500000001
0.048750000000000154	0.8052272500000001
0.049000000000000155	0.81453125
0.049250000000000155	0.806587
0.049500000000000155	0.8105637500000001
0.049750000000000155	0.8163752500000001
0.050000000000000155	0.81325525
0.050250000000000156	0.81237975
0.050500000000000156	0.8142515
0.050750000000000156	0.8094460000000001
0.051000000000000156	0.79217975
0.05125000000000016	0.80302025
0.05150000000000016	0.8094552500000001
0.05175000000000016	0.8058700000000001
0.05200000000000016	0.80514375
0.05225000000000016	0.821395
0.05250000000000016	0.79479675
0.05275000000000016	0.80680125
0.05300000000000016	0.8018090000000001
0.05325000000000016	0.80759275
0.05350000000000016	0.794303
0.05375000000000016	0.8162725000000001
0.05400000000000016	0.8140005000000001
0.05425000000000016	0.81169075
0.05450000000000016	0.8094932500000002
0.05475000000000016	0.80478025
0.05500000000000016	0.8085985000000001
0.05525000000000016	0.8162727500000001
0.05550000000000016	0.8069505000000001
0.05575000000000016	0.8098372500000001
0.05600000000000016	0.8183215
0.05625000000000016	0.80893375
0.05650000000000016	0.8174370000000001
0.05675000000000016	0.8159655000000001
0.05700000000000016	0.8095395000000001
0.05725000000000016	0.80507875
0.05750000000000016	0.8171295000000001
0.05775000000000016	0.8185730000000001
0.05800000000000016	0.8051992500000001
0.05825000000000016	0.80664225
0.05850000000000016	0.8100890000000001
0.05875000000000016	0.8047062500000002
0.05900000000000016	0.8143915000000002
0.059250000000000164	0.8148012500000001
0.059500000000000164	0.8141124999999999
0.059750000000000164	0.8121470000000001
0.060000000000000164	0.8048547500000002
0.060250000000000165	0.8165425
0.060500000000000165	0.8025352500000001
0.060750000000000165	0.8106012499999999
0.061000000000000165	0.8116724999999999
0.061250000000000165	0.816589
0.061500000000000166	0.8128827500000001
0.061750000000000166	0.8117
0.062000000000000166	0.8063075000000001
0.062250000000000166	0.8028897500000001
0.06250000000000017	0.8050035
0.06275000000000017	0.825726
0.06300000000000017	0.8023775000000001
0.06325000000000017	0.80695025
0.06350000000000017	0.81177425
0.06375000000000017	0.81564875
0.06400000000000017	0.8161052500000001
0.06425000000000017	0.8012969999999998
0.06450000000000017	0.8154627500000001
0.06475000000000017	0.8177070000000001
0.06500000000000017	0.8110385
0.06525000000000017	0.807388
0.06550000000000017	0.8054877500000001
0.06575000000000017	0.8115697500000002
0.06600000000000017	0.8103307500000001
0.06625000000000017	0.8086825000000001
0.06650000000000017	0.81782825
0.06675000000000017	0.81131825
0.06700000000000017	0.80619575
0.06725000000000017	0.8204634999999999
0.06750000000000017	0.8019025000000002
0.06775000000000017	0.8103959999999999
0.06800000000000017	0.82697375
0.06825000000000017	0.8014647499999998
0.06850000000000017	0.81100125
0.06875000000000017	0.82185125
0.06900000000000017	0.8056465
0.06925000000000017	0.80316925
0.06950000000000017	0.814978
0.06975000000000017	0.80714625
0.07000000000000017	0.8106015
0.07025000000000017	0.81255725
0.07050000000000017	0.8126872500000001
0.07075000000000017	0.81127175
0.07100000000000017	0.8170647500000001
0.07125000000000017	0.8046869999999999
0.07150000000000017	0.8032065000000002
0.07175000000000017	0.8122682499999999
0.07200000000000017	0.8135345000000003
0.07225000000000018	0.813116
0.07250000000000018	0.8105172500000001
0.07275000000000018	0.8120632500000002
0.07300000000000018	0.8235555000000002
0.07325000000000018	0.8094557499999999
0.07350000000000018	0.8164124999999999
0.07375000000000018	0.8125940000000001
0.07400000000000018	0.8195700000000001
0.07425000000000018	0.82023125
0.07450000000000018	0.8119887500000001
0.07475000000000018	0.81292
0.07500000000000018	0.8078257499999999
0.07525000000000018	0.80790925
0.07550000000000018	0.8182472500000002
0.07575000000000018	0.8076022500000001
0.07600000000000018	0.8153412499999999
0.07625000000000018	0.81904825
0.07650000000000018	0.80986575
0.07675000000000018	0.81728775
0.07700000000000018	0.8192345000000002
0.07725000000000018	0.8175487500000002
0.07750000000000018	0.8226522500000002
0.07775000000000018	0.8187967500000002
0.07800000000000018	0.8187129999999999
0.07825000000000018	0.81909475
0.07850000000000018	0.8169245
0.07875000000000018	0.80641
0.07900000000000018	0.8203889999999998
0.07925000000000018	0.809316
0.07950000000000018	0.8179955
0.07975000000000018	0.8018560000000001
0.08000000000000018	0.8191320000000001
0.08025000000000018	0.8134322499999999
0.08050000000000018	0.8191225
0.08075000000000018	0.8114115000000001
0.08100000000000018	0.81225925
0.08125000000000018	0.8211712500000001
0.08150000000000018	0.8225314999999999
0.08175000000000018	0.8226617500000001
0.08200000000000018	0.8316580000000002
0.08225000000000018	0.8048734999999999
0.08250000000000018	0.8128077500000002
0.08275000000000018	0.8066057499999999
0.08300000000000018	0.8129572500000001
0.08325000000000018	0.8116815
0.08350000000000019	0.8190667500000001
0.08375000000000019	0.81383275
0.08400000000000019	0.8148760000000002
0.08425000000000019	0.8119234999999999
0.08450000000000019	0.8123240000000002
0.08475000000000019	0.81495025
0.08500000000000019	0.8217114999999999
0.08525000000000019	0.8125477499999999
0.08550000000000019	0.8180705
0.08575000000000019	0.8138047500000001
0.08600000000000019	0.82245675
0.08625000000000019	0.8110947500000001
0.08650000000000019	0.8102937499999999
0.08675000000000019	0.8191787500000001
0.08700000000000019	0.8148015000000001
0.08725000000000019	0.8055067499999999
0.08750000000000019	0.8144475000000001
0.08775000000000019	0.8107312500000002
0.08800000000000019	0.8185175000000001
0.08825000000000019	0.8194860000000002
0.08850000000000019	0.81831275
0.08875000000000019	0.7976552499999999
0.08900000000000019	0.81945775
0.08925000000000019	0.8153412499999999
0.08950000000000019	0.8184147500000001
0.08975000000000019	0.8106565
0.09000000000000019	0.809986
0.09025000000000019	0.8186102500000001
0.09050000000000019	0.826331
0.09075000000000019	0.8213392500000001
0.09100000000000019	0.80456575
0.09125000000000019	0.81634775
0.09150000000000019	0.8225777500000001
0.09175000000000019	0.8119980000000001
0.09200000000000019	0.8153414999999999
0.09225000000000019	0.8127150000000001
0.0925000000000002	0.8179775
0.0927500000000002	0.8163290000000001
0.0930000000000002	0.8137115
0.0932500000000002	0.8260702500000001
0.0935000000000002	0.8110295000000002
0.0937500000000002	0.8154252500000002
0.0940000000000002	0.8214135
0.0942500000000002	0.8153877499999999
0.0945000000000002	0.8142892500000001
0.0947500000000002	0.8224657500000002
0.0950000000000002	0.81606825
0.0952500000000002	0.8195509999999999
0.0955000000000002	0.81468925
0.0957500000000002	0.814317
0.0960000000000002	0.8182285000000001
0.0962500000000002	0.82631225
0.0965000000000002	0.81729725
0.0967500000000002	0.8242355
0.0970000000000002	0.81573225
0.0972500000000002	0.8035697500000001
0.0975000000000002	0.803476
0.0977500000000002	0.8248412500000001
0.0980000000000002	0.81543475
0.0982500000000002	0.81908525
0.0985000000000002	0.81061025
0.0987500000000002	0.8135627500000001
0.0990000000000002	0.8168037499999999
0.0992500000000002	0.8069597500000001
0.0995000000000002	0.8144284999999999
0.0997500000000002	0.8148012499999999
0.1000000000000002	0.8245804999999998
0.1002500000000002	0.81862875
0.1005000000000002	0.8192905
0.1007500000000002	0.8197742499999998
0.1010000000000002	0.82335075
0.1012500000000002	0.8188522500000001
0.1015000000000002	0.8155929999999998
0.1017500000000002	0.8040447500000001
0.1020000000000002	0.8228105000000001
0.1022500000000002	0.8133205000000001
0.1025000000000002	0.8179209999999999
0.1027500000000002	0.8151455000000002
0.1030000000000002	0.8158630000000002
0.1032500000000002	0.82264275
0.1035000000000002	0.8257815000000001
0.1037500000000002	0.80764875
0.1040000000000002	0.82089225
0.1042500000000002	0.8258375
0.1045000000000002	0.8188154999999999
0.1047500000000002	0.8257815000000001
0.1050000000000002	0.80544175
0.1052500000000002	0.80655
0.1055000000000002	0.8138882500000001
0.1057500000000002	0.82761625
0.1060000000000002	0.8143545
0.1062500000000002	0.80597275
0.1065000000000002	0.8155930000000001
0.1067500000000002	0.81111275
0.1070000000000002	0.81764225
0.1072500000000002	0.8241612500000001
0.1075000000000002	0.8168505
0.1077500000000002	0.8247477500000001
0.10800000000000021	0.8188712500000002
0.10825000000000021	0.8116160000000001
0.10850000000000021	0.8162727500000001
0.10875000000000021	0.8212555
0.10900000000000021	0.8210599999999999
0.10925000000000021	0.816189
0.10950000000000021	0.820091
0.10975000000000021	0.8162265000000001
0.11000000000000021	0.80865425
0.11025000000000021	0.8141957500000001
0.11050000000000021	0.81694325
0.11075000000000021	0.8195975000000001
0.11100000000000021	0.8136837500000001
0.11125000000000021	0.8289295000000001
0.11150000000000021	0.8201940000000001
0.11175000000000021	0.8147455000000001
0.11200000000000021	0.8264334999999999
0.11225000000000021	0.8103402500000001
0.11250000000000021	0.8212085
0.11275000000000021	0.8227455
0.11300000000000021	0.82233575
0.11325000000000021	0.8225222500000001
0.11350000000000021	0.816487
0.11375000000000021	0.8110200000000001
0.11400000000000021	0.8224752500000001
0.11425000000000021	0.8274022500000001
0.11450000000000021	0.8153412499999999
0.11475000000000021	0.8163010000000002
0.11500000000000021	0.8341355000000001
0.11525000000000021	0.8133670000000001
0.11550000000000021	0.8120909999999999
0.11575000000000021	0.8171849999999999
0.11600000000000021	0.8248127500000001
0.11625000000000021	0.82345325
0.11650000000000021	0.8169339999999999
0.11675000000000021	0.8159845
0.11700000000000021	0.8192715000000002
0.11725000000000022	0.8160492500000003
0.11750000000000022	0.812063
0.11775000000000022	0.8167479999999999
0.11800000000000022	0.8170830000000001
0.11825000000000022	0.8175857500000001
0.11850000000000022	0.8155834999999999
0.11875000000000022	0.820324
0.11900000000000022	0.8179677500000001
0.11925000000000022	0.8235932500000002
0.11950000000000022	0.8136464999999999
0.11975000000000022	0.8183590000000001
0.12	0.8094090000000002
0.11975	0.8209102500000001
0.1195	0.80932525
0.11925	0.8041280000000002
0.119	0.824785
0.11875	0.8191695000000001
0.1185	0.80923225
0.11825	0.8250550000000001
0.118	0.8135905
0.11775	0.8236022500000001
0.1175	0.82137625
0.11725	0.8125472500000002
0.11699999999999999	0.80500375
0.11674999999999999	0.8158354999999999
0.11649999999999999	0.80902675
0.11624999999999999	0.8185175000000001
0.11599999999999999	0.8102005
0.11574999999999999	0.82090125
0.11549999999999999	0.82147
0.11524999999999999	0.8159095000000001
0.11499999999999999	0.80311325
0.11474999999999999	0.81573275
0.11449999999999999	0.8128455000000001
0.11424999999999999	0.8119607500000001
0.11399999999999999	0.8054880000000001
0.11374999999999999	0.7979725000000001
0.11349999999999999	0.8088872500000001
0.11324999999999999	0.8130600000000001
0.11299999999999999	0.8053767500000001
0.11274999999999999	0.7976835
0.11249999999999999	0.8281750000000001
0.11224999999999999	0.8067637500000001
0.11199999999999999	0.79767425
0.11174999999999999	0.8050320000000001
0.11149999999999999	0.8161610000000001
0.11124999999999999	0.80093425
0.11099999999999999	0.80334625
0.11074999999999999	0.8076115000000001
0.11049999999999999	0.8063539999999999
0.11024999999999999	0.8122774999999999
0.10999999999999999	0.7984094999999999
0.10974999999999999	0.81222125
0.10949999999999999	0.80667975
0.10924999999999999	0.8178375000000001
0.10899999999999999	0.80925075
0.10874999999999999	0.80433325
0.10849999999999999	0.8016235000000002
0.10824999999999999	0.8013712500000001
0.10799999999999998	0.8041564999999999
0.10774999999999998	0.79099675
0.10749999999999998	0.80108325
0.10724999999999998	0.8121655000000001
0.10699999999999998	0.8054602499999999
0.10674999999999998	0.8076762500000001
0.10649999999999998	0.80440775
0.10624999999999998	0.8031692500000002
0.10599999999999998	0.8095297499999999
0.10574999999999998	0.8086080000000001
0.10549999999999998	0.81061075
0.10524999999999998	0.809316
0.10499999999999998	0.809558
0.10474999999999998	0.7869640000000001
0.10449999999999998	0.8048082500000001
0.10424999999999998	0.8014650000000002
0.10399999999999998	0.8032905000000002
0.10374999999999998	0.8053205
0.10349999999999998	0.7887059999999999
0.10324999999999998	0.7969197500000003
0.10299999999999998	0.8129567500000001
0.10274999999999998	0.8070525
0.10249999999999998	0.80107375
0.10224999999999998	0.8056932500000002
0.10199999999999998	0.7998535000000001
