Initial Temperature (K)	0.0214603
Excitation Current (A)	2e-07
Axis 1,2	x,y
Angle	0
Field (T)	Resistance (Ohms)
0.0	-0.004321354
-0.00025	-0.004163032750000001
-0.0005	-0.0005494897499999999
-0.00075	0.003669434000000001
-0.001	0.012349435000000002
-0.00125	0.00229105425
-0.0015	-0.00427480175
-0.00175	0.006239880749999999
-0.002	-0.0020954782500000003
-0.00225	-0.006174699100000002
-0.0025	0.006323729500000001
-0.00275	0.0005401717499999997
-0.003	0.0096578725
-0.00325	0.0017136435000000008
-0.0035	0.01000246175
-0.00375	0.011315620000000002
-0.004	0.010738205
-0.00425	0.005792864000000001
-0.0045	-0.0073016140000000005
-0.00475	0.006081562
-0.005	0.0046287049999999995
-0.00525	0.00104308975
-0.0055	-0.007310926500000001
-0.00575	-0.013439044
-0.006	-0.0058673612500000005
-0.00625	0.555332
-0.0065	0.01121319725
-0.00675	0.004712513350000001
-0.007	-0.003436585
-0.00725	0.00855889675
-0.0075	0.0069104392500000025
-0.00775	-0.0012945549999999998
-0.008	0.01059850225
-0.00825	0.010207364000000002
-0.0085	-0.00287780125
-0.00875	-0.0031571939999999995
-0.009	0.0341425
-0.00925	0.0010151492500000004
-0.0095	0.08824325000000002
-0.00975	0.009276032750000001
-0.01	0.0130665334
-0.01025	0.22981485000000001
-0.0105	0.0063423545
-0.01075	0.024419387500000004
-0.011	0.14851920000000002
-0.01125	0.0036973600000000007
-0.0115	0.05140930000000001
-0.01175	0.211989025
-0.012	0.24808725000000004
-0.01225	0.216403475
-0.0125	0.008074630000000001
-0.01275	0.022202865000000002
-0.013	0.15536397500000002
-0.01325	0.32191275
-0.0135	0.49464699999999995
-0.01375	0.23887625000000004
-0.014	0.5535995
-0.01425	0.31073725
-0.0145	0.21226845000000005
-0.01475	0.6020375
-0.015	0.10115154999999999
-0.01525	0.10108635000000002
-0.0155	0.075744925
-0.01575	0.4182412500000001
-0.016	0.4527655
-0.01625	0.5817905
-0.0165	0.09113040000000001
-0.01675	0.5739860000000001
-0.017	0.33583625
-0.01725	0.7412612500000002
-0.0175	0.771493
-0.01775	0.7636515
-0.018	0.5736047499999999
-0.01825	0.28128875000000003
-0.0185	0.526424
-0.01875	0.7175775
-0.019	0.6876542499999999
-0.01925	0.656399
-0.0195	0.62690425
-0.01975	0.47470775000000004
-0.02	0.68454375
-0.02025	0.7491222500000001
-0.0205	0.6911280000000001
-0.02075	0.7757695000000001
-0.021	0.536808
-0.02125	0.706644
-0.0215	0.618094
-0.02175	0.6485477500000001
-0.022	0.7268817499999999
-0.02225	0.61395875
-0.0225	0.71621775
-0.02275	0.7530707500000001
-0.023	0.7524285000000001
-0.02325	0.5481047499999999
-0.0235	0.6955052500000001
-0.02375	0.632436
-0.024	0.72870725
-0.02425	0.7833595
-0.0245	0.7588924999999999
-0.02475	0.7379175000000001
-0.025	0.7872807500000002
-0.02525	0.789897
-0.0255	0.6309085
-0.02575	0.6774565
-0.026	0.71060175
-0.02625	0.71933775
-0.0265	0.7076309999999999
-0.02675	0.7323485000000002
-0.027	0.745946
-0.02725	0.7769055
-0.0275	0.7804162499999999
-0.02775	0.7617615000000001
-0.028	0.7771845
-0.02825	0.7839095
-0.0285	0.7684105000000002
-0.02875	0.7644065000000001
-0.029	0.72831575
-0.02925	0.8054782500000001
-0.0295	0.7986894999999999
-0.02975	0.7945730000000001
-0.03	0.7749302500000002
-0.03025	0.7865260000000001
-0.0305	0.76560775
-0.03075	0.79073625
-0.031	0.7772592500000001
-0.03125	0.8044910000000002
-0.0315	0.8038957500000001
-0.03175	0.8059442500000001
-0.032	0.8043520000000001
-0.03225	0.8045660000000001
-0.0325	0.7939767500000001
-0.03275	0.7771750000000001
-0.033	0.79247725
-0.03325	0.7905494999999999
-0.0335	0.7952432500000001
-0.03375	0.7827165000000003
-0.034	0.7957280000000001
-0.03425	0.7956715
-0.0345	0.8016044999999999
-0.03475	0.7998997499999999
-0.035	0.7993875
-0.03525	0.7996670000000001
-0.0355	0.81193275
-0.03575	0.8124640000000001
-0.036	0.8033925000000001
-0.03625	0.8024049999999999
-0.0365	0.798159
-0.03675	0.7957834999999999
-0.037	0.80338325
-0.03725	0.82200075
-0.0375	0.7987360000000001
-0.03775	0.8107775
-0.038	0.80346725
-0.03825	0.80926975
-0.0385	0.809539
-0.03875	0.79811175
-0.039	0.8076112499999999
-0.03925	0.8013535
-0.0395	0.7916485000000002
-0.03975	0.8120727500000001
-0.04	0.8188992499999999
-0.04025	0.8143912499999999
-0.0405	0.7992672500000001
-0.04075	0.8096882500000001
-0.041	0.8061865
-0.04125	0.8152112500000002
-0.0415	0.8114582500000002
-0.04175	0.802769
-0.042	0.8066150000000002
-0.04225	0.8024895
-0.0425	0.8025357500000001
-0.04275	0.8112905
-0.043	0.8111040000000002
-0.04325	0.8083472500000001
-0.0435	0.8208917499999999
-0.04375	0.8084960000000001
-0.044	0.81725075
-0.04425	0.8247475
-0.0445	0.80731325
-0.04475	0.8041655
-0.045	0.8063915
-0.04525	0.8144849999999999
-0.0455	0.81156025
-0.04575	0.8169715000000001
-0.046	0.8232577499999999
-0.04625	0.8256140000000001
-0.0465	0.80922275
-0.04675	0.82366775
-0.047	0.8142145000000001
-0.04725	0.8089990000000001
-0.0475	0.8152202500000001
-0.04775	0.8158537500000003
-0.048	0.8214417500000001
-0.04825	0.8146152499999999
-0.0485	0.8164404999999999
-0.04875	0.8203335000000002
-0.049	0.8159097500000001
-0.04925	0.81441025
-0.0495	0.8261355
-0.04975	0.819607
-0.05	0.819188
-0.05025	0.8224379999999999
-0.0505	0.8204452499999999
-0.05075	0.8172975
-0.051	0.8226335000000001
-0.05125	0.81400925
-0.0515	0.82068725
-0.05175	0.8179305000000001
-0.052	0.8276257499999999
-0.05225	0.8108712500000002
-0.0525	0.8217302500000001
-0.05275	0.8209295
-0.053	0.8326545000000002
-0.05325	0.82334125
-0.0535	0.8241517500000001
-0.05375	0.8184242500000001
-0.054	0.82101325
-0.05425	0.825642
-0.0545	0.82393775
-0.05475	0.8255210000000001
-0.055	0.8256795
-0.05525	0.823248
-0.0555	0.825987
-0.05575	0.8303635
-0.056	0.80994925
-0.05625	0.82095725
-0.0565	0.8230715000000001
-0.05675	0.8271504999999999
-0.057	0.8216747500000001
-0.05725	0.8277747500000001
-0.0575	0.8245522500000001
-0.05775	0.82928325
-0.058	0.8342287500000001
-0.05825	0.8224379999999999
-0.0585	0.8228107500000001
-0.05875	0.8380845000000001
-0.059	0.8224847500000001
-0.05925	0.8204357499999999
-0.0595	0.82806375
-0.05975	0.8273462500000001
-0.06	0.8163380000000001
-0.06025	0.811914
-0.0605	0.8210507499999999
-0.06075	0.8248225000000001
-0.061	0.8254745
-0.06125	0.8273277499999999
-0.0615	0.82811925
-0.06175	0.8333529999999999
-0.062	0.8300377499999999
-0.06225	0.82507375
-0.0625	0.8198770000000002
-0.06275	0.82304325
-0.063	0.83111825
-0.06325	0.8325895
-0.0635	0.8276907500000001
-0.06375	0.8215720000000001
-0.064	0.8261445000000001
-0.06425	0.8247570000000001
-0.0645	0.8305317500000002
-0.06475	0.81862875
-0.065	0.8195227500000002
-0.06525	0.8259304999999999
-0.0655	0.8266939999999999
-0.06575	0.8312485000000001
-0.066	0.8257260000000001
-0.06625	0.8232202500000001
-0.0665	0.8291437500000002
-0.06675	0.8263682500000001
-0.067	0.8277187500000001
-0.06725	0.82920875
-0.0675	0.8307640000000001
-0.06775	0.8298885
-0.068	0.8327755
-0.06825	0.82127375
-0.0685	0.83208675
-0.06875	0.82805375
-0.069	0.829926
-0.06925	0.8305315
-0.0695	0.8163567500000002
-0.06975	0.83988175
-0.07	0.8272530000000002
-0.07025	0.8241049999999999
-0.0705	0.8229412500000001
-0.07075	0.8314812500000001
-0.071	0.82869675
-0.07125	0.83346525
-0.0715	0.8332137500000002
-0.07175	0.8270110000000002
-0.072	0.8278210000000001
-0.07225	0.82773775
-0.0725	0.819337
-0.07275	0.8316582500000002
-0.073	0.82912475
-0.07325	0.83401475
-0.0735	0.818322
-0.07375	0.833195
-0.074	0.8225317500000001
-0.07425	0.82539975
-0.0745	0.83984475
-0.07475	0.8294789999999999
-0.075	0.82554875
-0.07525	0.828957
-0.0755	0.8224105
-0.07575	0.836743
-0.076	0.83122975
-0.07625	0.8245340000000002
-0.0765	0.8360167500000002
-0.07675	0.8394072500000002
-0.077	0.8286965000000001
-0.07725	0.823118
-0.0775	0.8314439999999998
-0.07775	0.82460825
-0.078	0.8203425
-0.07825	0.8324314999999999
-0.0785	0.8203055
-0.07875	0.8267037500000001
-0.079	0.82930225
-0.07925	0.83819625
-0.0795	0.83358575
-0.07975	0.8315
-0.08	0.8327760000000001
-0.08025	0.8319095000000002
-0.0805	0.82310875
-0.08075	0.830876
-0.081	0.827542
-0.08125	0.841698
-0.0815	0.8298605000000001
-0.08175	0.8344059999999999
-0.082	0.8282685000000001
-0.08225	0.8314160000000002
-0.0825	0.8233699999999999
-0.08275	0.8385870000000001
-0.083	0.83451725
-0.08325	0.83352125
-0.0835	0.8318347500000002
-0.08375	0.818871
-0.084	0.8314347500000001
-0.08425	0.8299815000000001
-0.0845	0.82869675
-0.08475	0.82973975
-0.085	0.8338565
-0.08525	0.8423219999999999
-0.0855	0.8319
-0.08575	0.837935
-0.086	0.8336885
-0.08625	0.8282500000000002
-0.0865	0.8381025000000001
-0.08675	0.8354860000000001
-0.087	0.8355699999999999
-0.08725	0.8254090000000001
-0.0875	0.8387640000000002
-0.08775	0.840925
-0.088	0.82315575
-0.08825	0.8363984999999999
-0.0885	0.8388202500000002
-0.08875	0.8183685000000002
-0.089	0.8282587499999998
-0.08925	0.8256420000000001
-0.0895	0.83143475
-0.08975	0.8222244999999999
-0.09	0.835197
-0.09025	0.840953
-0.0905	0.8221957499999999
-0.09075	0.8341354999999999
-0.091	0.8229595
-0.09125	0.82378875
-0.0915	0.8340329999999999
-0.09175	0.8350015
-0.092	0.8275045
-0.09225	0.82588425
-0.0925	0.8309220000000002
-0.09275	0.834313
-0.093	0.8356627499999999
-0.09325	0.83241275
-0.0935	0.83258025
-0.09375	0.8271225000000001
-0.094	0.8415954999999999
-0.09425	0.82821225
-0.0945	0.8276815000000001
-0.09475	0.83977
-0.095	0.82613575
-0.09525	0.8307832500000001
-0.0955	0.8331387499999999
-0.09575	0.829693
-0.096	0.8359049999999999
-0.09625	0.8236305
-0.0965	0.833465
-0.09675	0.83166775
-0.097	0.8357000000000001
-0.09725	0.8404312500000001
-0.0975	0.8388202499999999
-0.09775	0.8390345
-0.098	0.8374974999999999
-0.09825	0.8251857499999999
-0.0985	0.8351972499999999
-0.09875	0.8313042499999999
-0.099	0.83725525
-0.09925	0.8320212499999999
-0.0995	0.83834525
-0.09975	0.8339212500000001
-0.1	0.8388390000000001
-0.10025	0.8284547499999999
-0.1005	0.8259029999999999
-0.10075	0.83197475
-0.101	0.82564225
-0.10125	0.82621
-0.1015	0.8325057499999999
-0.10175	0.8399937500000001
-0.102	0.8355045000000001
-0.10225	0.8294135
-0.1025	0.8370320000000001
-0.10275	0.83025225
-0.103	0.8315275
-0.10325	0.83265475
-0.1035	0.8379725
-0.10375	0.8338192499999999
-0.104	0.836231
-0.10425	0.8213205000000001
-0.1045	0.84031975
-0.10475	0.8445292500000001
-0.105	0.8353835
-0.10525	0.8349272500000001
-0.1055	0.8331107499999999
-0.10575	0.8348995000000001
-0.106	0.8336042500000002
-0.10625	0.84630775
-0.1065	0.83327875
-0.10675	0.8301587500000001
-0.107	0.832757
-0.10725	0.82787675
-0.1075	0.8320770000000002
-0.10775	0.8395930000000001
-0.108	0.83437825
-0.10825	0.83936025
-0.1085	0.83670625
-0.10875	0.8246264999999999
-0.109	0.8400029999999999
-0.10925	0.8350857500000001
-0.1095	0.82657375
-0.10975	0.8356912500000001
-0.11	0.8436162500000001
-0.11025	0.8373395000000001
-0.1105	0.8478352499999998
-0.11075	0.8316770000000001
-0.111	0.8378325000000002
-0.11125	0.8385407500000001
-0.1115	0.8262285
-0.11175	0.8345545000000001
-0.112	0.8440635000000001
-0.11225	0.8335487500000002
-0.1125	0.8254745
-0.11275	0.8353740000000001
-0.113	0.8392205
-0.11325	0.8333902499999999
-0.1135	0.83077325
-0.11375	0.84316925
-0.114	0.83846675
-0.11425	0.8402265000000001
-0.1145	0.8425735
-0.11475	0.8329340000000001
-0.115	0.8400682500000001
-0.11525	0.8270294999999999
-0.1155	0.8283800000000001
-0.11575	0.8381119999999999
-0.116	0.8335120000000003
-0.11625	0.8333902500000001
-0.1165	0.83990975
-0.11675	0.8450787499999999
-0.117	0.839379
-0.11725	0.83585875
-0.1175	0.829181
-0.11775	0.84011475
-0.118	0.8392482500000001
-0.11825	0.8274577500000001
-0.1185	0.839789
-0.11875	0.84306725
-0.119	0.8393605
-0.11925	0.8244495000000001
-0.1195	0.837889
-0.11975	0.8295537500000001
-0.12	0.8290505
-0.11975	0.8353275000000001
-0.1195	0.8361564999999999
-0.11925	0.8422847499999999
-0.119	0.83520675
-0.11875	0.8389225000000002
-0.1185	0.8330087499999999
-0.11825	0.8303635
-0.118	0.8293205
-0.11775	0.8303080000000002
-0.1175	0.832012
-0.11725	0.8424987500000001
-0.117	0.83863375
-0.11675	0.8290129999999999
-0.1165	0.8349924999999999
-0.11625	0.82784925
-0.116	0.827542
-0.11575	0.8353462500000001
-0.1155	0.8280449999999999
-0.11525	0.83044775
-0.115	0.8372179999999999
-0.11475	0.83484325
-0.1145	0.8237235000000002
-0.11425	0.8187129999999999
-0.114	0.83042
-0.11375	0.8268342500000001
-0.1135	0.8256512500000001
-0.11325	0.8296835
-0.113	0.8239842500000001
-0.11275	0.8250457499999999
-0.1125	0.8327294999999999
-0.11225	0.8272532500000002
-0.112	0.8279335
-0.11175	0.8238445000000002
-0.1115	0.8205845
-0.11125	0.8292362500000001
-0.111	0.8224565000000001
-0.11075	0.81709175
-0.1105	0.8256140000000001
-0.11025	0.8227830000000002
-0.11	0.82572625
-0.10975	0.8237792500000001
-0.1095	0.8316115
-0.10925	0.81638425
-0.109	0.8276442500000001
-0.10875	0.8262285
-0.1085	0.8255397500000001
-0.10825	0.8205382500000001
-0.108	0.821395
-0.10775	0.8232577500000001
-0.1075	0.82552075
-0.10725	0.8224570000000001
-0.107	0.8222707499999998
-0.10675	0.8229037500000002
-0.1065	0.81748375
-0.10625	0.81801425
-0.106	0.82209375
-0.10575	0.81298525
-0.1055	0.8360077499999999
-0.10525	0.8178934999999999
-0.105	0.81930875
-0.10475	0.82539075
-0.1045	0.8098465000000001
-0.10425	0.822997
-0.104	0.8183217500000001
-0.10375	0.8269367500000001
-0.1035	0.8264985
-0.10325	0.8125197499999999
-0.103	0.8272714999999999
-0.10275	0.8147822500000003
-0.1025	0.8261267499999999
-0.10225	0.8210225
-0.102	0.8165432500000002
-0.10175	0.8268899999999999
-0.1015	0.8211905
-0.10125	0.8127807500000002
-0.101	0.8190014999999999
-0.10075	0.8305687499999999
-0.1005	0.80978125
-0.10025	0.8221215000000001
-0.1	0.8204542499999999
-0.09975	0.82190725
-0.0995	0.81455
-0.09925	0.8093620000000001
-0.099	0.819933
-0.09875	0.8146155000000002
-0.0985	0.82232675
-0.09825	0.8110947500000002
-0.098	0.80960475
-0.09775	0.81394425
-0.0975	0.81468025
-0.09725	0.8179400000000001
-0.097	0.81327375
-0.09675	0.819542
-0.0965	0.8252785
-0.09625	0.8193272500000001
-0.096	0.819784
-0.09575	0.8126125000000001
-0.0955	0.8150617500000001
-0.09525	0.8140189999999998
-0.095	0.8227825
-0.09475	0.8184520000000001
-0.0945	0.8119047500000002
-0.09425	0.80061725
-0.094	0.8147737500000001
-0.09375	0.8169987499999999
-0.0935	0.81435425
-0.09325	0.8115600000000002
-0.093	0.80201425
-0.09275	0.8144382499999999
-0.0925	0.8081797500000001
-0.09225	0.8248972499999999
-0.092	0.8168222499999999
-0.09175	0.8108430000000001
-0.0915	0.8105727500000001
-0.09125	0.8156955
-0.091	0.810638
-0.09075	0.8180330000000001
-0.0905	0.8240959999999998
-0.09025	0.81262225
-0.09	0.8065685
-0.08975	0.8027310000000001
-0.0895	0.8190575000000001
-0.08925	0.81004225
-0.089	0.81415925
-0.08875	0.8147357500000001
-0.0885	0.81956075
-0.08825	0.8128920000000001
-0.088	0.8201005000000001
-0.08775	0.8172697499999999
-0.0875	0.8138887500000002
-0.08725	0.8210877500000001
-0.087	0.8086080000000001
-0.08675	0.8115605000000001
-0.0865	0.8173527499999999
-0.08625	0.8168965
-0.086	0.8126685
-0.08575	0.8080117500000001
-0.0855	0.8138515
-0.08525	0.8116810000000001
-0.085	0.819989
-0.08475	0.8037277500000002
-0.0845	0.8113277500000001
-0.08425	0.80730425
-0.084	0.8047055000000002
-0.08375	0.8114672500000001
-0.0835	0.8075277500000001
-0.08325	0.8140560000000001
-0.083	0.821423
-0.08275	0.81057325
-0.0825	0.8141960000000001
-0.08225	0.8104520000000001
-0.082	0.8097817500000001
-0.08175	0.79865225
-0.0815	0.8067082500000001
-0.08125	0.8039792500000001
-0.081	0.8140652500000001
-0.08075	0.8204825
-0.0805	0.8082730000000001
-0.08025	0.8035325
-0.08	0.8187312500000001
-0.07975	0.8158725000000001
-0.0795	0.8043895000000001
-0.07925	0.8144755
-0.079	0.81201675
-0.07875	0.8030017500000001
-0.0785	0.8044172500000001
-0.07825	0.8106194999999999
-0.078	0.8130037500000001
-0.07775	0.8177070000000001
-0.0775	0.81051675
-0.07725	0.80603775
-0.077	0.8151087500000002
-0.07675	0.8076019999999999
-0.0765	0.8107405
-0.07625	0.8046962499999999
-0.076	0.80251725
-0.07575	0.7999002499999999
-0.0755	0.8097347500000001
-0.07525	0.81647725
-0.075	0.81305025
-0.07475	0.8046592499999999
-0.0745	0.8100892500000001
-0.07425	0.8090737500000003
-0.074	0.8047894999999999
-0.07375	0.803737
-0.0735	0.7978142500000002
-0.07325	0.8023215
-0.073	0.8061775
-0.07275	0.8035505
-0.0725	0.8045755
-0.07225	0.7985499999999999
-0.072	0.8098000000000001
-0.07175	0.80754625
-0.0715	0.7959700000000001
-0.07125	0.79792575
-0.071	0.8083007500000001
-0.07075	0.8005055
-0.0705	0.8022095
-0.07025	0.8014927500000002
-0.07	0.8059722500000001
-0.06975	0.7939305
-0.0695	0.7987545
-0.06925	0.8060375
-0.069	0.8019210000000001
-0.06875	0.78871475
-0.0685	0.8060185000000003
-0.06825	0.8039977500000001
-0.068	0.8015115
-0.06775	0.8014275000000001
-0.0675	0.80556275
-0.06725	0.806438
-0.067	0.798531
-0.06675	0.7934835000000001
-0.0665	0.7969385
-0.06625	0.7875882500000003
-0.066	0.7914625000000001
-0.06575	0.8069035000000001
-0.0655	0.801046
-0.06525	0.7950387499999999
-0.065	0.7966967500000002
-0.06475	0.8037372500000001
-0.0645	0.8074807500000002
-0.06425	0.7908197499999998
-0.064	0.8021445
-0.06375	0.7941817499999999
-0.0635	0.7927194999999999
-0.06325	0.7943405
-0.063	0.79738575
-0.06275	0.800412
-0.0625	0.7966872500000001
-0.06225	0.810722
-0.062	0.7974877499999999
-0.06175	0.7743720000000002
-0.0615	0.7915552499999998
-0.06125	0.7780225000000001
-0.061	0.7929897500000002
-0.06075	0.8003567500000002
-0.0605	0.801353
-0.06025	0.7938095000000002
-0.06	0.80165125
-0.05975	0.7874857499999999
-0.0595	0.7927195000000001
-0.05925	0.79182575
-0.059	0.78780225
-0.05875	0.78871475
-0.0585	0.7877925000000002
-0.05825	0.7756667500000001
-0.058	0.7704507500000001
-0.05775	0.790503
-0.0575	0.7967897500000001
-0.05725	0.792217
-0.057	0.7965654999999999
-0.05675	0.7870662500000001
-0.0565	0.7869825
-0.05625	0.79791625
-0.056	0.8029364999999999
-0.05575	0.7858647499999999
-0.0555	0.7879327500000001
-0.05525	0.80045875
-0.055	0.785576
-0.05475	0.77277
-0.0545	0.7706005000000001
-0.05425	0.7914625
-0.054	0.79134125
-0.05375	0.78016475
-0.0535	0.7897955
-0.05325	0.7828565000000001
-0.053	0.7985122500000001
-0.05275	0.7971255000000003
-0.0525	0.7816832499999999
-0.05225	0.7767564999999998
-0.052	0.7865264999999999
-0.05175	0.7826147499999999
-0.0515	0.7848310000000001
-0.05125	0.7700514999999999
-0.051	0.7589665
-0.05075	0.75648875
-0.0505	0.7306907499999999
-0.05025	0.731259
-0.05	0.7703669999999999
-0.04975	0.76599875
-0.0495	0.76446225
-0.04925	0.7673675
-0.049	0.7660085
-0.04875	0.7618727500000001
-0.0485	0.7491779999999999
-0.04825	0.7745025000000001
-0.048	0.7489545
-0.04775	0.7584455
-0.0475	0.7628777500000001
-0.04725	0.7198685000000001
-0.047	0.74342175
-0.04675	0.7141970000000001
-0.0465	0.7126695000000002
-0.04625	0.7210142500000002
-0.046	0.7190492499999999
-0.04575	0.72312825
-0.0455	0.72195525
-0.04525	0.6491717500000002
-0.045	0.6567065
-0.04475	0.65203125
-0.0445	0.6664202499999999
-0.04425	0.38577525
-0.044	0.33186875
-0.04375	0.33991575000000007
-0.0435	0.6627785000000002
-0.04325	0.6905505000000001
-0.043	0.62833775
-0.04275	0.6338055
-0.0425	0.6765995000000001
-0.04225	0.6521802500000001
-0.042	0.5203515
-0.04175	0.632287
-0.0415	0.7517395000000002
-0.04125	0.68699325
-0.041	0.69606375
-0.04075	0.7076682500000001
-0.0405	0.5202397499999999
-0.04025	0.4903070000000001
-0.04	0.39777
-0.03975	0.5835975
-0.0395	0.65225475
-0.03925	0.675491
-0.039	0.20200507500000003
-0.03875	0.4370635
-0.0385	0.10026674999999999
-0.03825	0.17956
-0.038	0.397435
-0.03775	0.7413730000000001
-0.0375	0.7166275000000002
-0.03725	0.69375425
-0.037	0.6942297500000001
-0.03675	0.6490412499999999
-0.0365	0.6386757500000001
-0.03625	0.63458725
-0.036	0.60051025
-0.03575	0.7577185
-0.0355	0.7141319999999999
-0.03525	0.7479675
-0.035	0.65905325
-0.03475	0.7590604999999999
-0.0345	0.0518005
-0.03425	0.71100275
-0.034	0.6567715000000001
-0.03375	0.67049925
-0.0335	0.5595602500000001
-0.03325	0.6696522500000001
-0.033	0.6493770000000001
-0.03275	0.6422427500000001
-0.0325	0.63835
-0.03225	0.5017625
-0.032	0.71549125
-0.03175	0.57572775
-0.0315	0.73221825
-0.03125	0.6865739999999999
-0.031	0.6624525000000002
-0.03075	0.70672725
-0.0305	0.586382
-0.03025	0.7548220000000001
-0.03	0.28672774999999995
-0.02975	0.23590557500000003
-0.0295	0.45260625000000004
-0.02925	0.3678186
-0.029	0.59411225
-0.02875	0.21001455
-0.0285	0.038724604999999995
-0.02825	0.6986625000000001
-0.028	0.45131225
-0.02775	0.48937600000000003
-0.0275	0.10560322500000002
-0.02725	0.10656260000000001
-0.027	0.047926125
-0.02675	0.128839875
-0.0265	0.027381061249999998
-0.02625	0.67456925
-0.026	0.01945540625
-0.02575	0.38057825
-0.0255	0.233232475
-0.02525	0.6671
-0.025	0.72458125
-0.02475	0.048484927500000004
-0.0245	0.017527575000000004
-0.02425	0.014575283999999999
-0.024	0.00862410675
-0.02375	0.12039277500000001
-0.0235	0.053830800000000005
-0.02325	0.01718302425
-0.023	0.013522895
-0.02275	0.4757690000000001
-0.0225	0.023218002500000005
-0.02225	0.023292532500000004
-0.022	0.004693893
-0.02175	0.0054110107499999996
-0.0215	0.013029282500000003
-0.02125	0.56881775
-0.021	0.5915975000000001
-0.02075	0.60143195
-0.0205	0.015879152500000004
-0.02025	0.013280719749999998
-0.02	0.029970147500000002
-0.01975	0.026151695750000002
-0.0195	0.044033165000000006
-0.01925	0.022361162500000007
-0.019	0.00676144225
-0.01875	0.01290819425
-0.0185	0.008000116250000001
-0.01825	0.013187602500000001
-0.018	0.014640465
-0.01775	0.53343675
-0.0175	0.59325525
-0.01725	0.0092667225
-0.017	0.024112085
-0.01675	0.006211948300000001
-0.0165	0.013588079250000001
-0.01625	0.014221381200000001
-0.016	0.0024028380000000005
-0.01575	0.013420440249999999
-0.0155	0.019772080000000004
-0.01525	0.016400685000000005
-0.015	0.0099745365
-0.01475	0.0081118735
-0.0145	0.01018870425
-0.01425	0.013094469000000003
-0.014	0.015925695000000004
-0.01375	0.010943098500000002
-0.0135	0.011837182499999998
-0.01325	0.012144513
-0.013	0.0111666175
-0.01275	0.007748640000000001
-0.0125	0.005690403249999999
-0.01225	0.019213313500000002
-0.012	0.017238891500000002
-0.01175	0.0073109099999999995
-0.0115	0.01182784225
-0.01125	0.00784177
-0.011	0.0178721625
-0.01075	0.0143703725
-0.0105	0.019557887750000003
-0.01025	0.0144262575
-0.01	0.0077486510000000005
-0.00975	0.01780698525
-0.0095	0.022407727500000005
-0.00925	0.020507834250000002
-0.009	0.017015359999999997
-0.00875	0.0058487325
-0.0085	0.0050571272500000005
-0.00825	0.0150781975
-0.008	0.014239988750000002
-0.00775	0.012219039500000002
-0.0075	-0.0005960562500000006
-0.00725	0.015273783
-0.007	0.009015255
-0.00675	0.010114217500000001
-0.0065	0.0091922325
-0.00625	0.016922245000000006
-0.006	0.0494535275
-0.00575	0.017164345
-0.0055	0.01152053875
-0.00525	0.016121291250000003
-0.005	0.011660218149999999
-0.00475	0.008707915
-0.0045	0.00891281925
-0.00425	0.0073761157499999995
-0.004	0.01175336475
-0.00375	0.010263224999999997
-0.0035	0.00586736575
-0.00325	0.007618275000000001
-0.003	0.008251604249999999
-0.00275	0.009611295750000002
-0.0025	0.007497173749999999
-0.00225	0.024847822500000002
-0.002	0.01465911
-0.00175	0.016111964
-0.0015	0.017210925
-0.00125	0.012135189999999997
-0.001	0.015394857750000001
-0.00075	0.0074971725
-0.0005	0.01141807425
-0.00025	0.010002448399999999
0.0	0.0157953175
0.00025	0.009359852500000002
0.0005	0.012470488249999998
0.00075	0.014882614999999998
0.001	0.0141375625
0.00125	0.019213272500000003
0.0015	0.015273800000000002
0.00175	0.023180745
0.002	0.021588202499999997
0.00225	0.010542633000000001
0.0025	0.013290045899999998
0.00275	0.011539148250000002
0.003	0.01372779
0.00325	0.009331913999999998
0.0035	0.007413369750000001
0.00375	0.0288245625
0.004	0.0259933775
0.00425	0.010849971000000003
0.0045	0.010794095000000002
0.00475	0.017415830000000004
0.005	0.01551590525
0.00525	0.012135197500000002
0.0055	0.01136219975
0.00575	0.01161365525
0.006	0.019772097499999995
0.00625	0.015860525
0.0065	0.012246970000000001
0.00675	0.017657996699999998
0.007	0.056578095
0.00725	0.063684175
0.0075	0.04204014750000001
0.00775	0.014444899750000002
0.008	0.010812717500000003
0.00825	0.014687052499999999
0.0085	0.22778437499999998
0.00875	0.020051479999999997
0.009	0.015329685000000003
0.00925	0.025462511499999996
0.0095	0.11824135000000002
0.00975	0.0867252
0.01	0.24044074999999998
0.01025	0.12183634999999998
0.0105	0.4409095
0.01075	0.17835874000000004
0.011	0.027539332500000003
0.01125	0.4753684999999999
0.0115	0.3490052500000001
0.01175	0.23655727500000004
0.012	0.03282932125000001
0.01225	0.021010770000000005
0.0125	0.6502245000000001
0.01275	0.11188985000000003
0.013	0.29781964999999994
0.01325	0.23165835
0.0135	0.717168
0.01375	0.0382216375
0.014	0.6293722500000001
0.01425	0.6149457500000001
