Initial Temperature (K)	0.0195436
Excitation Current (A)	2e-07
Axis 1,2	x,y
Angle	0
Field (T)	Resistance (Ohms)
0.0	-0.017853532999999998
-0.00025	-0.007534450000000001
-0.0005	-0.030175040000000007
-0.00075	-0.007348173
-0.001	-0.008745185
-0.00125	-0.00718984525
-0.0015	-0.015283067500000002
-0.00175	-0.010849974999999998
-0.002	-0.0043586045
-0.0022500000000000003	-0.017760421499999998
-0.0025	-0.015720822750000002
-0.00275	-0.009695117500000003
-0.003	-0.007990781000000002
-0.0032500000000000003	-0.009192194250000002
-0.0035	0.104010775
-0.00375	0.014277266500000002
-0.004	-0.003939517500000001
-0.00425	-0.00447037225
-0.0045000000000000005	0.0019185458999999999
-0.00475	-0.0077020772500000015
-0.005	-0.011548442750000004
-0.00525	-0.0005215475000000005
-0.0055	0.04828932500000001
-0.00575	-0.00473114175
-0.006	-0.01064508875
-0.00625	-0.0109617275
-0.006500000000000001	-0.0125170364
-0.00675	-0.007692767500000002
-0.007	-0.01900840025
-0.00725	-0.00785108575
-0.0075	-0.008968697500000001
-0.00775	0.11210395000000002
-0.008	-0.009927959750000001
-0.00825	-0.005262016
-0.0085	0.0012386607499999998
-0.00875	0.17915017500000002
-0.009000000000000001	-0.00018626150000000043
-0.00925	-0.007944207500000001
-0.0095	0.023320495000000007
-0.00975	-0.01342979025
-0.01	0.0362007025
-0.01025	0.00958337
-0.0105	0.01368120775
-0.010750000000000001	0.0194181775
-0.011	0.04513215000000001
-0.01125	0.001247985
-0.0115	0.027315822500000003
-0.01175	0.07924665
-0.012	0.030640680000000003
-0.01225	0.08718160000000001
-0.0125	0.2748631
-0.012750000000000001	0.05199605
-0.013000000000000001	0.17996987500000003
-0.01325	0.0220258975
-0.0135	0.015385537500000004
-0.01375	0.11013892500000001
-0.014	0.5170545000000001
-0.01425	0.071842625
-0.0145	0.49151775000000003
-0.014750000000000001	0.031311255
-0.015	0.022845475000000004
-0.01525	0.027716307500000002
-0.0155	0.11473035
-0.01575	0.43494925
-0.016	0.4206155
-0.01625	0.08711645000000001
-0.0165	0.09289057500000002
-0.01675	0.124909675
-0.017	0.15095892500000002
-0.01725	0.31625100000000006
-0.0175	0.38177925
-0.017750000000000002	0.41026925
-0.018000000000000002	0.678434
-0.01825	0.3500670000000001
-0.0185	0.4333005
-0.01875	0.35000125000000004
-0.019	0.35513375
-0.01925	0.32044150000000005
-0.0195	0.2283525
-0.01975	0.5401604999999999
-0.02	0.40117025
-0.02025	0.6688970000000001
-0.0205	0.5093062500000001
-0.02075	0.47044225000000006
-0.021	0.662993
-0.02125	0.47053525
-0.021500000000000002	0.5369565000000001
-0.021750000000000002	0.49285900000000005
-0.022	0.693056
-0.02225	0.578671
-0.0225	0.698802
-0.02275	0.70697
-0.023	0.5790900000000001
-0.02325	0.6829232499999999
-0.0235	0.6688875000000002
-0.02375	0.50286125
-0.024	0.58383075
-0.02425	0.6579262500000002
-0.0245	0.6424199999999999
-0.02475	0.6370370000000001
-0.025	0.7141225
-0.02525	0.6926275000000001
-0.025500000000000002	0.64893
-0.025750000000000002	0.6821130000000001
-0.026000000000000002	0.6247807500000001
-0.02625	0.6598077500000001
-0.0265	0.70878575
-0.02675	0.5684635000000001
-0.027	0.6776517500000001
-0.02725	0.61598875
-0.0275	0.614955
-0.02775	0.7362507500000001
-0.028	0.72785925
-0.02825	0.7326002500000002
-0.0285	0.7153700000000001
-0.02875	0.71468125
-0.029	0.7249165000000001
-0.02925	0.6745317500000002
-0.029500000000000002	0.66845
-0.029750000000000002	0.7189935
-0.03	0.7271979999999999
-0.03025	0.7340620000000001
-0.0305	0.7081802500000001
-0.03075	0.7010557499999999
-0.031	0.7207254999999999
-0.03125	0.73408975
-0.0315	0.70869275
-0.03175	0.73328925
-0.032	0.70095325
-0.03225	0.74320825
-0.0325	0.7395015
-0.03275	0.7410005
-0.033	0.7306625
-0.03325	0.7205017499999999
-0.0335	0.7409162499999999
-0.03375	0.72184325
-0.034	0.7031142500000002
-0.03425	0.7184810000000001
-0.0345	0.7362695000000001
-0.03475	0.7328795000000001
-0.035	0.7183692500000001
-0.035250000000000004	0.7279060000000002
-0.035500000000000004	0.7455732500000001
-0.035750000000000004	0.7477812500000001
-0.036000000000000004	0.7336522500000001
-0.03625	0.7431612500000001
-0.0365	0.74679325
-0.03675	0.736661
-0.037	0.74163375
-0.03725	0.7543190000000002
-0.0375	0.7302810000000002
-0.03775	0.7465230000000002
-0.038	0.7489635000000001
-0.03825	0.75240025
-0.0385	0.7521680000000001
-0.03875	0.7638372499999998
-0.039	0.7305137500000001
-0.03925	0.7479577500000001
-0.0395	0.7400415000000001
-0.03975	0.747492
-0.04	0.7434495
-0.04025	0.73642725
-0.0405	0.74815325
-0.04075	0.7573367499999999
-0.041	0.75860375
-0.04125	0.7645365000000001
-0.0415	0.7639492500000001
-0.04175	0.75381575
-0.042	0.7604567499999999
-0.04225	0.7610717500000002
-0.0425	0.7495787500000002
-0.04275	0.7367075000000001
-0.043000000000000003	0.74751975
-0.043250000000000004	0.7580542500000002
-0.043500000000000004	0.74594575
-0.043750000000000004	0.7592642500000001
-0.044	0.7584822499999998
-0.04425	0.7574854999999999
-0.0445	0.7540395
-0.04475	0.7569640000000001
-0.045	0.7556694999999999
-0.04525	0.74100075
-0.0455	0.7591627500000001
-0.04575	0.752959
-0.046	0.7603630000000001
-0.04625	0.7604197500000001
-0.0465	0.7655235
-0.04675	0.76693025
-0.047	0.764881
-0.04725	0.7430589999999999
-0.0475	0.768681
-0.04775	0.7619185
-0.048	0.7712985
-0.04825	0.7687457500000001
-0.0485	0.7699667500000001
-0.04875	0.7454892500000001
-0.049	0.7658214999999999
-0.04925	0.7685877500000001
-0.0495	0.7657847500000001
-0.04975	0.7632042500000001
-0.05	0.7683837500000001
-0.05025	0.7805932499999999
-0.0505	0.7628885
-0.05075	0.7679640000000001
-0.051000000000000004	0.74656975
-0.051250000000000004	0.7530985
-0.051500000000000004	0.7700225000000002
-0.051750000000000004	0.7694544999999999
-0.052000000000000005	0.7719502500000002
-0.05225	0.7756290000000001
-0.0525	0.75664725
-0.05275	0.7655885000000001
-0.053	0.765421
-0.05325	0.7761510000000001
-0.0535	0.7645925000000001
-0.05375	0.7665760000000001
-0.054	0.7675724999999999
-0.05425	0.7644435000000002
-0.0545	0.7657474999999999
-0.05475	0.7567965000000001
-0.055	0.7794297500000001
-0.05525	0.7602237500000001
-0.0555	0.7598424999999999
-0.05575	0.7656820000000002
-0.056	0.7648632499999999
-0.05625	0.7696035000000001
-0.0565	0.75753175
-0.05675	0.7711772499999999
-0.057	0.7717265000000001
-0.05725	0.7668927499999999
-0.0575	0.7710287499999999
-0.05775	0.7733105
-0.058	0.77385075
-0.05825	0.7680199999999998
-0.0585	0.7690630000000002
-0.058750000000000004	0.7709447500000002
-0.059000000000000004	0.7644437500000001
-0.059250000000000004	0.7714942499999999
-0.059500000000000004	0.7771287500000003
-0.059750000000000004	0.7808919999999999
-0.06	0.7656922500000001
-0.06025	0.76575675
-0.0605	0.76518825
-0.06075	0.7684575000000001
-0.061	0.7762072499999999
-0.06125	0.7722487500000002
-0.0615	0.7731805
-0.06175	0.77111225
-0.062	0.7765335
-0.06225	0.77254675
-0.0625	0.77874025
-0.06275	0.766856
-0.063	0.7748745000000001
-0.06325	0.7775017500000001
-0.0635	0.7784234999999999
-0.06375	0.787346
-0.064	0.7717087499999999
-0.06425	0.7874017500000001
-0.0645	0.7880164999999999
-0.06475	0.7829592500000001
-0.065	0.7730870000000002
-0.06525	0.7862937500000001
-0.0655	0.7705440000000001
-0.06575	0.7830710000000001
-0.066	0.76649225
-0.06625	0.77603
-0.0665	0.783034
-0.06675	0.7641272499999999
-0.067	0.7853344999999998
-0.06725	0.788128
-0.0675	0.7783860000000001
-0.06775	0.7841142499999999
-0.068	0.78563225
-0.06825	0.7735152500000001
-0.0685	0.7884355000000001
-0.06875	0.7757225
-0.069	0.7853805
-0.06925	0.77797675
-0.0695	0.7651232499999999
-0.06975	0.7896460000000001
-0.07	0.78536175
-0.07025	0.7813942500000002
-0.07050000000000001	0.7743435
-0.07075000000000001	0.7822880000000001
-0.07100000000000001	0.7747167500000001
-0.07125000000000001	0.766837
-0.07150000000000001	0.7845239999999998
-0.07175000000000001	0.7785075000000002
-0.07200000000000001	0.79565325
-0.07225	0.7724160000000002
-0.0725	0.7877930000000001
-0.07275	0.7737385
-0.073	0.7856132499999998
-0.07325	0.7748095
-0.0735	0.7876067500000002
-0.07375	0.7798480000000001
-0.074	0.7780324999999999
-0.07425	0.78267025
-0.0745	0.7871222500000001
-0.07475	0.7790562499999999
-0.075	0.77467
-0.07525	0.7742325000000001
-0.0755	0.7778740000000001
-0.07575	0.7792242500000001
-0.076	0.78644225
-0.07625	0.7718565000000001
-0.0765	0.784952
-0.07675	0.78750425
-0.077	0.78111525
-0.07725	0.7754062500000001
-0.0775	0.7756855
-0.07775	0.7907169999999999
-0.078	0.785921
-0.07825	0.7862380000000002
-0.0785	0.7869085
-0.07875	0.7767005
-0.079	0.7889660000000001
-0.07925	0.7921795
-0.0795	0.7783767500000002
-0.07975	0.77840475
-0.08	0.79129425
-0.08025	0.7845240000000001
-0.0805	0.7911550000000002
-0.08075	0.7887425
-0.081	0.7823262500000001
-0.08125	0.792496
-0.0815	0.78227925
-0.08175	0.7827917499999999
-0.082	0.7897580000000001
-0.08225	0.7840585000000001
-0.0825	0.77724975
-0.08275	0.7867315
-0.083	0.7948335
-0.08325	0.7822982500000001
-0.0835	0.7754995
-0.08375	0.7846917499999999
-0.084	0.784999
-0.08425	0.7730587500000001
-0.0845	0.7983915
-0.08475	0.7873645
-0.085	0.7870945000000001
-0.08525	0.782931
-0.0855	0.7926547500000001
-0.08575	0.7907265
-0.08600000000000001	0.7922910000000001
-0.08625000000000001	0.7792987500000002
-0.08650000000000001	0.77820975
-0.08675000000000001	0.7957277500000001
-0.08700000000000001	0.7974045
-0.08725000000000001	0.78141325
-0.08750000000000001	0.779662
-0.08775000000000001	0.7866934999999999
-0.088	0.7762995
-0.08825	0.7895805000000001
-0.0885	0.78268025
-0.08875	0.7907262500000001
-0.089	0.7887427499999998
-0.08925	0.7822975
-0.0895	0.8002265
-0.08975	0.7843005000000001
-0.09	0.7885284999999999
-0.09025	0.7865545
-0.0905	0.7912947499999998
-0.09075	0.7943867500000001
-0.091	0.7767942500000001
-0.09125	0.7838162500000001
-0.0915	0.7792437500000001
-0.09175	0.7882584999999999
-0.092	0.792049
-0.09225	0.7864425
-0.0925	0.7863680000000001
-0.09275	0.7812642500000001
-0.093	0.78201825
-0.09325	0.7880817499999999
-0.0935	0.7842727500000001
-0.09375	0.8042772499999999
-0.094	0.7858554999999999
-0.09425	0.7825402499999998
-0.0945	0.7887802500000001
-0.09475	0.7890599999999999
-0.095	0.7967897500000001
-0.09525	0.7820655
-0.0955	0.7898140000000001
-0.09575	0.7866382499999999
-0.096	0.791919
-0.09625	0.7979535000000001
-0.0965	0.782074
-0.09675	0.7954760000000002
-0.097	0.785119
-0.09725	0.7878022500000001
-0.0975	0.7962117500000001
-0.09775	0.7938187499999999
-0.098	0.7822412500000001
-0.09825	0.7852687500000002
-0.0985	0.7826612500000002
-0.09875	0.78994425
-0.099	0.782391
-0.09925	0.7879039999999999
-0.0995	0.7933530000000001
-0.09975	0.79367875
-0.1	0.7917142500000002
-0.10025	0.7898885000000001
-0.1005	0.78127325
-0.10075	0.8107500000000002
-0.101	0.7889292500000002
-0.10125	0.79027925
-0.1015	0.7987447499999999
-0.10175000000000001	0.7807145000000003
-0.10200000000000001	0.7884077500000001
-0.10225000000000001	0.7824005
-0.10250000000000001	0.7930269999999999
-0.10275000000000001	0.7892179999999999
-0.10300000000000001	0.7893575000000002
-0.10325000000000001	0.791788
-0.10350000000000001	0.801204
-0.10375000000000001	0.774214
-0.10400000000000001	0.7890407500000001
-0.10425	0.7895905000000001
-0.1045	0.7916482499999999
-0.10475	0.7858095
-0.105	0.7880350000000002
-0.10525	0.789674
-0.1055	0.79018625
-0.10575	0.77568475
-0.106	0.79398625
-0.10625	0.7900654999999999
-0.1065	0.8009894999999999
-0.10675	0.7931570000000001
-0.107	0.79293375
-0.10725	0.7912297500000001
-0.1075	0.7871037500000001
-0.10775	0.7774915000000001
-0.108	0.7865354999999999
-0.10825	0.7917232499999999
-0.1085	0.7902330000000001
-0.10875	0.7799045
-0.109	0.7800440000000001
-0.10925	0.7828009999999999
-0.1095	0.7819070000000002
-0.10975	0.7960815
-0.11	0.7899445
-0.11025	0.8051992500000001
-0.1105	0.7810307500000002
-0.11075	0.7950944999999998
-0.111	0.7954205000000001
-0.11125	0.79279425
-0.1115	0.8089525000000001
-0.11175	0.7932412500000001
-0.112	0.7895062499999999
-0.11225	0.7946385
-0.1125	0.7880814999999999
-0.11275	0.7898515000000002
-0.113	0.78804475
-0.11325	0.79014925
-0.1135	0.7826609999999999
-0.11375	0.79111775
-0.114	0.7954765
-0.11425	0.7892175
-0.1145	0.8122405
-0.11475	0.7853987499999999
-0.115	0.79497375
-0.11525	0.7906055000000001
-0.1155	0.7907824999999999
-0.11575	0.7859767500000001
-0.116	0.7903077500000001
-0.11625	0.7972830000000002
-0.1165	0.7894787500000001
-0.11675	0.7868617499999999
-0.117	0.7930174999999999
-0.11725000000000001	0.7873552500000001
-0.11750000000000001	0.7944520000000002
-0.11775000000000001	0.7827912499999999
-0.11800000000000001	0.79862425
-0.11825000000000001	0.7776975000000002
-0.11850000000000001	0.79874575
-0.11875000000000001	0.791248
-0.11900000000000001	0.7858652500000001
-0.11925000000000001	0.7893390000000002
-0.11950000000000001	0.78318325
-0.11975000000000001	0.7947127500000001
-0.12	0.7844865000000002
-0.11975	0.791602
-0.1195	0.787569
-0.11925	0.7848875
-0.119	0.7831537500000002
-0.11875	0.78089175
-0.1185	0.8004122499999999
-0.11825	0.78806275
-0.118	0.7927942499999999
-0.11775	0.785064
-0.1175	0.787886
-0.11725	0.7818975
-0.11699999999999999	0.7847095000000002
-0.11674999999999999	0.7913407500000001
-0.11649999999999999	0.8023587499999999
-0.11624999999999999	0.7945450000000001
-0.11599999999999999	0.7902882500000001
-0.11574999999999999	0.7994064999999999
-0.11549999999999999	0.7925522500000001
-0.11524999999999999	0.784067
-0.11499999999999999	0.795961
-0.11474999999999999	0.78560375
-0.11449999999999999	0.7831457500000001
-0.11424999999999999	0.7840767500000001
-0.11399999999999999	0.7690255000000001
-0.11374999999999999	0.7863585000000001
-0.11349999999999999	0.77883325
-0.11324999999999999	0.77769675
-0.11299999999999999	0.77599275
-0.11274999999999999	0.7873542499999999
-0.11249999999999999	0.7804445
-0.11224999999999999	0.7686902499999999
-0.11199999999999999	0.7817387500000001
-0.11174999999999999	0.779327
-0.11149999999999999	0.7857345000000001
-0.11124999999999999	0.7722107500000002
-0.11099999999999999	0.78285725
-0.11074999999999999	0.777185
-0.11049999999999999	0.775788
-0.11024999999999999	0.7839930000000002
-0.10999999999999999	0.79041925
-0.10974999999999999	0.772714
-0.10949999999999999	0.7682337500000002
-0.10924999999999999	0.7899255000000001
-0.10899999999999999	0.7807142499999999
-0.10874999999999999	0.7849610000000001
-0.10849999999999999	0.7923279999999999
-0.10824999999999999	0.7729377500000001
-0.10799999999999998	0.7826520000000002
-0.10774999999999998	0.76442425
-0.10749999999999998	0.7772497500000002
-0.10724999999999998	0.7862195
-0.10699999999999998	0.7747630000000001
-0.10674999999999998	0.78031425
-0.10649999999999998	0.77662575
-0.10624999999999998	0.7798857499999999
-0.10599999999999998	0.7756387500000002
-0.10574999999999998	0.7729935
-0.10549999999999998	0.7841327499999999
-0.10524999999999998	0.7840210000000001
-0.10499999999999998	0.7643497499999998
-0.10474999999999998	0.776682
-0.10449999999999998	0.7738415000000001
-0.10424999999999998	0.78048125
-0.10399999999999998	0.7739714999999999
-0.10374999999999998	0.7885382500000001
-0.10349999999999998	0.7842530000000002
-0.10324999999999998	0.7809195000000001
-0.10299999999999998	0.7717645000000001
-0.10274999999999998	0.78417
-0.10249999999999998	0.77480925
-0.10224999999999998	0.7825120000000001
-0.10199999999999998	0.7713180000000002
-0.10174999999999998	0.7739992500000001
-0.10149999999999998	0.7733755000000001
-0.10124999999999998	0.78339675
-0.10099999999999998	0.7746232500000001
-0.10074999999999998	0.78276275
-0.10049999999999998	0.7805752499999999
-0.10024999999999998	0.7870112500000002
-0.09999999999999998	0.780882
-0.09974999999999998	0.7780505
-0.09949999999999998	0.7871135000000001
-0.09924999999999998	0.778209
-0.09899999999999998	0.7860607500000001
-0.09874999999999998	0.7810035000000001
-0.09849999999999998	0.7719315
-0.09824999999999998	0.7798290000000001
-0.09799999999999998	0.7837327500000001
-0.09774999999999998	0.7825310000000001
-0.09749999999999998	0.7818415000000002
-0.09724999999999998	0.7866755000000001
-0.09699999999999998	0.77455925
-0.09674999999999997	0.7795785
-0.09649999999999997	0.7710745
-0.09624999999999997	0.7813015000000001
-0.09599999999999997	0.7664182500000001
-0.09574999999999997	0.774791
-0.09549999999999997	0.781395
-0.09524999999999997	0.7750797500000001
-0.09499999999999997	0.770376
-0.09474999999999997	0.7754800000000001
-0.09449999999999997	0.786666
-0.09424999999999997	0.77724075
-0.09399999999999997	0.780109
-0.09374999999999997	0.7709630000000002
-0.09349999999999997	0.7719505000000001
-0.09324999999999997	0.76326075
-0.09299999999999997	0.7775660000000001
-0.09274999999999997	0.7817852500000001
-0.09249999999999997	0.7758997500000001
-0.09224999999999997	0.7801655000000001
-0.09199999999999997	0.7731982500000001
-0.09174999999999997	0.7776505
-0.09149999999999997	0.7785447500000001
-0.09124999999999997	0.77618825
-0.09099999999999997	0.77265875
-0.09074999999999997	0.7725375
-0.09049999999999997	0.7675540000000001
-0.09024999999999997	0.77231375
-0.08999999999999997	0.7662412500000001
-0.08974999999999997	0.7678055
-0.08949999999999997	0.7673492500000002
-0.08924999999999997	0.771969
-0.08899999999999997	0.767275
-0.08874999999999997	0.7717545000000001
-0.08849999999999997	0.771969
-0.08824999999999997	0.7692772499999999
-0.08799999999999997	0.775536
-0.08774999999999997	0.7661845
-0.08749999999999997	0.787662
-0.08724999999999997	0.7611835
-0.08699999999999997	0.7726865
-0.08674999999999997	0.76804775
-0.08649999999999997	0.7718847500000001
-0.08624999999999997	0.7700970000000001
-0.08599999999999997	0.7746235
-0.08574999999999997	0.7778457500000002
-0.08549999999999996	0.7673399999999999
-0.08524999999999996	0.7834527499999999
-0.08499999999999996	0.7658029999999999
-0.08474999999999996	0.7775105000000001
-0.08449999999999996	0.7745677499999999
-0.08424999999999996	0.77744525
-0.08399999999999996	0.7686247500000001
-0.08374999999999996	0.75286675
-0.08349999999999996	0.7749687500000002
-0.08324999999999996	0.7761414999999999
-0.08299999999999996	0.7697802500000002
-0.08274999999999996	0.7752290000000001
-0.08249999999999996	0.7766540000000001
-0.08224999999999996	0.7812075
-0.08199999999999996	0.7581002499999999
-0.08174999999999996	0.770814
-0.08149999999999996	0.7798945000000002
-0.08124999999999996	0.7802957500000002
-0.08099999999999996	0.7672565
-0.08074999999999996	0.7653372500000001
-0.08049999999999996	0.77114925
-0.08024999999999996	0.7789075
-0.07999999999999996	0.77247175
-0.07974999999999996	0.7732730000000001
-0.07949999999999996	0.76704225
-0.07924999999999996	0.7683187499999999
-0.07899999999999996	0.789367
-0.07874999999999996	0.7880352500000001
-0.07849999999999996	0.7798205
-0.07824999999999996	0.7629900000000002
-0.07799999999999996	0.76559825
-0.07774999999999996	0.76672525
-0.07749999999999996	0.7684112500000001
-0.07724999999999996	0.7649005000000001
-0.07699999999999996	0.7714005
-0.07674999999999996	0.7845425
-0.07649999999999996	0.7743062500000001
-0.07624999999999996	0.7724622500000001
-0.07599999999999996	0.77106625
-0.07574999999999996	0.77194175
-0.07549999999999996	0.776738
-0.07524999999999996	0.7655055000000001
-0.07499999999999996	0.777753
-0.07474999999999996	0.7715774999999999
-0.07449999999999996	0.770079
-0.07424999999999995	0.7611095
-0.07399999999999995	0.77561075
-0.07374999999999995	0.76743375
-0.07349999999999995	0.764201
-0.07324999999999995	0.7760765000000001
-0.07299999999999995	0.774213
-0.07274999999999995	0.765822
-0.07249999999999995	0.769752
-0.07224999999999995	0.77051625
-0.07199999999999995	0.7736267499999999
-0.07174999999999995	0.7598982500000001
-0.07149999999999995	0.76134175
-0.07124999999999995	0.7751545
-0.07099999999999995	0.7700132500000001
-0.07074999999999995	0.7690720000000002
-0.07049999999999995	0.7706185000000001
-0.07024999999999995	0.7720162500000001
-0.06999999999999995	0.7732917500000002
-0.06974999999999995	0.7631484999999999
-0.06949999999999995	0.77455825
-0.06924999999999995	0.77617925
-0.06899999999999995	0.7545705000000001
-0.06874999999999995	0.7649932500000002
-0.06849999999999995	0.7501552499999999
-0.06824999999999995	0.7521577500000001
-0.06799999999999995	0.7755737500000001
-0.06774999999999995	0.7752755
-0.06749999999999995	0.7677957499999999
-0.06724999999999995	0.7574487500000001
-0.06699999999999995	0.766446
-0.06674999999999995	0.7683082499999999
-0.06649999999999995	0.7691470000000001
-0.06624999999999995	0.7578402500000001
-0.06599999999999995	0.7471844999999999
-0.06574999999999995	0.7630282500000001
-0.06549999999999995	0.7480969999999999
-0.06524999999999995	0.739725
-0.06499999999999995	0.73980875
-0.06474999999999995	0.7543377500000001
-0.06449999999999995	0.7511525000000002
-0.06424999999999995	0.7576437500000001
-0.06399999999999995	0.7593765
-0.06374999999999995	0.7541519999999999
-0.06349999999999995	0.7620587499999999
-0.06324999999999995	0.7589385000000002
-0.06299999999999994	0.7322087500000001
-0.06274999999999994	0.7576065000000003
-0.062499999999999944	0.7658122500000001
-0.062249999999999944	0.7498944999999999
-0.061999999999999944	0.7282599999999999
-0.061749999999999944	0.7394547500000002
-0.061499999999999944	0.7405345
-0.06124999999999994	0.73015975
-0.06099999999999994	0.7408602499999999
-0.06074999999999994	0.7367630000000002
-0.06049999999999994	0.7602527500000003
-0.06024999999999994	0.76070875
-0.05999999999999994	0.7525307499999999
-0.05974999999999994	0.73689325
-0.05949999999999994	0.71781975
-0.05924999999999994	0.7247490000000001
-0.05899999999999994	0.733643
-0.05874999999999994	0.7302619999999999
-0.05849999999999994	0.76887625
-0.05824999999999994	0.7795964999999999
-0.05799999999999994	0.752913
-0.05774999999999994	0.7582497500000003
-0.05749999999999994	0.7658405
-0.05724999999999994	0.7558469999999999
-0.05699999999999994	0.74655125
-0.05674999999999994	0.7518885000000002
-0.05649999999999994	0.7514787500000001
-0.05624999999999994	0.7719125000000001
-0.05599999999999994	0.7549712500000001
-0.05574999999999994	0.76669725
-0.05549999999999994	0.75418925
-0.05524999999999994	0.7583245000000001
-0.05499999999999994	0.76676225
-0.05474999999999994	0.74989525
-0.05449999999999994	0.761919
-0.05424999999999994	0.757216
-0.05399999999999994	0.7557065000000002
-0.05374999999999994	0.7593482500000002
-0.053499999999999936	0.7678242499999999
-0.053249999999999936	0.7481904999999999
-0.052999999999999936	0.7596370000000001
-0.052749999999999936	0.74996025
-0.052499999999999936	0.7305690000000001
-0.052249999999999935	0.6905129999999999
-0.051999999999999935	0.704977
-0.051749999999999935	0.7508915000000002
-0.051499999999999935	0.739222
-0.051249999999999934	0.7503610000000001
-0.050999999999999934	0.6840965000000001
-0.050749999999999934	0.7108630000000001
-0.050499999999999934	0.6641197500000001
-0.050249999999999934	0.6157189999999999
-0.04999999999999993	0.6458002500000001
-0.04974999999999993	0.74646725
-0.04949999999999993	0.7089070000000001
-0.04924999999999993	0.7136105
-0.04899999999999993	0.69802
-0.04874999999999993	0.6003707500000001
-0.04849999999999993	0.67365625
-0.04824999999999993	0.7060015000000002
-0.04799999999999993	0.39447325000000005
-0.04774999999999993	0.3497317500000001
-0.04749999999999993	0.41853949999999995
-0.04724999999999993	0.4318385
-0.04699999999999993	0.622294
-0.04674999999999993	0.6716080000000001
-0.04649999999999993	0.7142992499999999
-0.04624999999999993	0.7335032500000002
-0.04599999999999993	0.73154775
-0.04574999999999993	0.7447075000000001
-0.04549999999999993	0.7464032500000001
-0.04524999999999993	0.7108165000000001
-0.04499999999999993	0.40065775000000003
-0.04474999999999993	0.657191
-0.04449999999999993	0.6553652500000001
-0.04424999999999993	0.6098607500000001
-0.04399999999999993	0.50630725
-0.04374999999999993	0.52979475
-0.04349999999999993	0.6374185
-0.04324999999999993	0.6567437500000001
-0.04299999999999993	0.6669322500000001
-0.04274999999999993	0.59241725
-0.04249999999999993	0.67144025
-0.042249999999999927	0.27868105
-0.041999999999999926	0.5424055000000001
-0.041749999999999926	0.2712396
-0.041499999999999926	0.16442579999999998
-0.041249999999999926	0.24857162499999996
-0.040999999999999925	0.577283
-0.040749999999999925	0.3866225
-0.040499999999999925	0.57225375
-0.040249999999999925	0.722029
-0.039999999999999925	0.7218245
-0.039749999999999924	0.7339042499999999
-0.039499999999999924	0.73574775
-0.039249999999999924	0.6940155000000001
-0.038999999999999924	0.29983125
-0.03874999999999992	0.03264306
-0.03849999999999992	0.169315175
-0.03824999999999992	0.11801785000000002
-0.03799999999999992	0.5478532500000002
-0.03774999999999992	0.6277975
-0.03749999999999992	0.6700337499999999
-0.03724999999999992	0.3134012500000001
-0.03699999999999992	0.2512722
-0.03674999999999992	0.31530024999999995
-0.03649999999999992	0.196426325
-0.03624999999999992	0.43247150000000006
-0.03599999999999992	0.676218
-0.03574999999999992	0.64165625
-0.03549999999999992	0.16387625000000003
-0.03524999999999992	0.09013387499999999
-0.03499999999999992	0.6293905000000001
-0.03474999999999992	0.58843975
-0.03449999999999992	0.66853375
-0.03424999999999992	0.44682325
-0.03399999999999992	0.39234050000000004
-0.03374999999999992	0.33782025
-0.03349999999999992	0.63384225
-0.03324999999999992	0.5604540000000001
-0.03299999999999992	0.6559052500000001
-0.03274999999999992	0.6537264999999999
-0.03249999999999992	0.6265315000000001
-0.03224999999999992	0.63035925
-0.03199999999999992	0.6258702500000001
-0.03174999999999992	0.650783
-0.03149999999999992	0.6146664999999999
-0.031249999999999917	0.6025404999999999
-0.030999999999999917	0.5928175000000001
-0.030749999999999916	0.6173022499999999
-0.030499999999999916	0.62852425
-0.030249999999999916	0.5864662500000001
-0.029999999999999916	0.6327529999999999
-0.029749999999999915	0.627407
-0.029499999999999915	0.3004832499999999
-0.029249999999999915	0.32779925000000004
-0.028999999999999915	0.592594
-0.028749999999999915	0.14309845000000002
-0.028499999999999914	0.094334175
-0.028249999999999914	0.0838101
-0.027999999999999914	0.3740955
-0.027749999999999914	0.3291122500000001
-0.027499999999999913	0.05493905000000001
-0.027249999999999913	0.46732175
-0.026999999999999913	0.3169585
-0.026749999999999913	0.5510012500000001
-0.026499999999999913	0.127042475
-0.026249999999999912	0.3723165000000001
-0.025999999999999912	0.012703302000000001
-0.025749999999999912	0.086324825
-0.02549999999999991	0.050207875000000006
-0.02524999999999991	0.4503255
-0.02499999999999991	0.447317
-0.02474999999999991	0.3743845
-0.02449999999999991	0.40320950000000005
-0.02424999999999991	0.06657132500000001
-0.02399999999999991	0.00017695414999999964
-0.02374999999999991	0.04192839
-0.02349999999999991	0.020125982500000004
-0.02324999999999991	0.025071335
-0.02299999999999991	0.0081304875
-0.02274999999999991	0.010924462499999999
-0.02249999999999991	0.018729015
-0.02224999999999991	0.006379588500000001
-0.02199999999999991	0.0024587005000000005
-0.02174999999999991	0.0313205125
-0.021499999999999908	0.00046566750000000013
-0.021249999999999908	0.013951296999999998
-0.020999999999999908	0.0051875015
-0.020749999999999907	0.004172348500000001
-0.020499999999999907	0.65030825
-0.020249999999999907	0.01302927175
-0.019999999999999907	0.009266709750000001
-0.019749999999999907	0.05203330000000001
-0.019499999999999906	0.036172715
-0.019249999999999906	0.016763887499999998
-0.018999999999999906	0.0178349525
-0.018749999999999906	0.019492675
-0.018499999999999905	0.01637275625
-0.018249999999999905	0.028051592500000003
-0.017999999999999905	0.006649674099999999
-0.017749999999999905	-0.004973301750000001
-0.017499999999999905	0.0345057275
-0.017249999999999904	0.0050571057500000014
-0.016999999999999904	-0.007851074999999999
-0.016749999999999904	0.009108380000000001
-0.016499999999999904	-0.0008568125
-0.016249999999999903	0.0003539074000000001
-0.015999999999999903	0.0002700649999999998
-0.015749999999999903	0.007217779999999999
-0.015499999999999903	0.02332978
-0.015249999999999903	-0.0016205064999999998
-0.014999999999999902	0.003874320000000001
-0.014749999999999902	0.0060163755
-0.014499999999999902	-0.005243373250000001
-0.014249999999999902	0.00149943625
-0.013999999999999901	-0.007785905000000001
-0.013749999999999901	-0.00514092
-0.013499999999999901	0.0030547475
-0.0132499999999999	0.0069104512500000005
-0.0129999999999999	0.0088383082
-0.0127499999999999	0.009238775
-0.0124999999999999	0.009862760500000001
-0.0122499999999999	-0.0007357516
-0.0119999999999999	0.0042096024999999995
-0.0117499999999999	-0.002179307050000001
-0.0114999999999999	0.007776598850000002
-0.011249999999999899	0.0021606822500000004
-0.010999999999999899	0.008912798750000001
-0.010749999999999899	0.00590461825
-0.010499999999999898	0.00323170475
-0.010249999999999898	0.0003725224999999996
-0.009999999999999898	0.00046568249999999917
-0.009749999999999898	0.009778945800000001
-0.009499999999999897	-0.0042375425
-0.009249999999999897	0.0009778825
-0.008999999999999897	0.0016205205
-0.008749999999999897	5.7500000005816786e-09
-0.008499999999999897	-0.00319445825
-0.008249999999999896	-0.0013876764999999998
-0.007999999999999896	0.0060722527500000015
-0.007749999999999896	-0.0029057363999999996
-0.007499999999999896	0.0029429914499999998
-0.007249999999999895	0.002803294500000001
-0.006999999999999895	-0.0048801555
-0.006749999999999895	-0.0037625640000000004
-0.006499999999999895	0.0037253184999999998
-0.0062499999999998945	0.00395815225
-0.005999999999999894	0.006947700000000001
-0.005749999999999894	0.00854027525
-0.005499999999999894	-0.0018533285
-0.005249999999999894	-0.01208865525
-0.004999999999999893	0.01059851175
-0.004749999999999893	0.0153668975
-0.004499999999999893	-0.0005215350000000004
-0.004249999999999893	0.006239886499999999
-0.0039999999999998925	0.004777714000000001
-0.0037499999999998923	0.00924808775
-0.003499999999999892	-0.00583010575
-0.003249999999999892	0.00032596750000000085
-0.0029999999999998916	0.008102544
-0.0027499999999998914	-0.005951179499999999
-0.002499999999999891	-2.793680000000015e-05
-0.002249999999999891	0.0594746
-0.0019999999999998908	0.0215323135
-0.0017499999999998905	-0.005485517
-0.0014999999999998903	-0.004638012
-0.00124999999999989	0.007655521500000001
-0.0009999999999998899	-0.000800935
-0.0007499999999998896	0.007413375500000001
-0.0004999999999998894	-0.0022538082500000002
-0.0002499999999998892	-0.00213273875
1.1102230246251565e-16	-0.005681095
0.00025000000000011124	0.0029243837500000014
0.0005000000000001115	0.005606595000000001
0.0007500000000001117	0.010561255250000002
0.001000000000000112	-0.0041071647499999996
0.0012500000000001121	0.01369982225
0.0015000000000001124	0.0035856125000000003
0.0017500000000001126	0.007199164250000001
0.002000000000000113	0.0155159175
0.002250000000000113	0.00210479875
0.0025000000000001132	-0.0008475047499999999
0.0027500000000001135	0.013895411
0.0030000000000001137	0.009294639000000002
0.003250000000000114	0.008707908499999998
0.003500000000000114	0.012116571750000001
0.0037500000000001144	0.002654305
0.004000000000000115	0.008093224750000001
0.004250000000000115	-0.0004936007500000003
0.004500000000000115	0.022808210000000006
0.004750000000000115	0.028656949999999997
0.0050000000000001155	0.0031385733999999997
0.005250000000000116	0.031711739999999995
0.005500000000000116	0.04004712500000001
0.005750000000000116	0.0007078149999999991
0.006000000000000116	0.0029616239999999995
0.006250000000000117	0.034403257500000006
0.006500000000000117	0.0927044
0.006750000000000117	0.0095461
0.007000000000000117	0.0095647317
0.0072500000000001175	0.013876785000000003
0.007500000000000118	0.0003539099999999993
0.007750000000000118	0.14792265000000002
0.008000000000000118	0.0061095080000000005
0.008250000000000118	0.0003352822500000006
0.008500000000000119	0.11947075
0.008750000000000119	0.019846615
0.009000000000000119	0.009248069999999999
0.00925000000000012	0.01397923575
0.00950000000000012	0.068787825
0.00975000000000012	0.04463852000000001
0.01000000000000012	0.0434557375
0.01025000000000012	0.07575415000000002
0.01050000000000012	0.05806828750000001
0.01075000000000012	0.40370275
0.01100000000000012	0.06732567499999999
0.011250000000000121	0.29860225
0.011500000000000121	0.148714325
0.011750000000000121	0.26457149999999996
0.012000000000000122	0.22045457500000004
0.012250000000000122	0.144355825
0.012500000000000122	0.07822222499999999
0.012750000000000122	0.3039105
0.013000000000000123	0.3783425
0.013250000000000123	0.21434527499999997
0.013500000000000123	0.191714075
0.013750000000000123	0.05176317500000001
0.014000000000000123	0.45810199999999995
0.014250000000000124	0.2417727
0.014500000000000124	0.46278624999999995
0.014750000000000124	0.29943075
0.015000000000000124	0.53774825
0.015250000000000125	0.43742600000000004
0.015500000000000125	0.213097275
0.015750000000000125	0.24603832500000003
0.016000000000000125	0.36798649999999994
0.016250000000000125	0.3777187500000001
0.016500000000000126	0.43804950000000004
0.016750000000000126	0.16297292499999996
0.017000000000000126	0.16975297500000003
0.017250000000000126	0.34919125
0.017500000000000127	0.42549549999999997
0.017750000000000127	0.62487375
0.018000000000000127	0.49162975000000003
0.018250000000000127	0.6163985000000001
0.018500000000000127	0.5423585000000001
0.018750000000000128	0.37957225
0.019000000000000128	0.48361975000000007
0.019250000000000128	0.42301800000000006
0.01950000000000013	0.679338
0.01975000000000013	0.55786525
0.02000000000000013	0.40920775000000004
0.02025000000000013	0.6630112499999998
0.02050000000000013	0.61312025
0.02075000000000013	0.7451445
0.02100000000000013	0.49861400000000006
0.02125000000000013	0.6317467499999999
0.02150000000000013	0.6814702499999999
0.02175000000000013	0.7243580000000001
0.02200000000000013	0.7177827499999999
0.02225000000000013	0.5688925
0.02250000000000013	0.7633912500000001
0.02275000000000013	0.7174005000000001
0.02300000000000013	0.6949930000000001
0.02325000000000013	0.7019785000000002
0.023500000000000132	0.73346575
0.023750000000000132	0.7265280000000002
0.024000000000000132	0.56832375
0.024250000000000133	0.6392535
0.024500000000000133	0.7391280000000002
0.024750000000000133	0.7201947500000001
0.025000000000000133	0.73541225
0.025250000000000133	0.7484887499999999
0.025500000000000134	0.7231840000000002
0.025750000000000134	0.74430725
0.026000000000000134	0.68132125
0.026250000000000134	0.757505
0.026500000000000135	0.735599
0.026750000000000135	0.7526057500000001
0.027000000000000135	0.732246
0.027250000000000135	0.707622
0.027500000000000135	0.7396772500000001
0.027750000000000136	0.7672570000000001
0.028000000000000136	0.74047025
0.028250000000000136	0.7307560000000001
0.028500000000000136	0.744325
0.028750000000000137	0.7814035
0.029000000000000137	0.7342204999999999
0.029250000000000137	0.7815715
0.029500000000000137	0.77489325
0.029750000000000137	0.7867310000000001
0.030000000000000138	0.7968457500000001
0.030250000000000138	0.7426207499999999
0.030500000000000138	0.7502682500000002
0.03075000000000014	0.7598982500000001
0.03100000000000014	0.7281575000000001
0.03125000000000014	0.7681877500000001
0.03150000000000014	0.771885
0.03175000000000014	0.7783865
0.03200000000000014	0.7630834999999999
0.03225000000000014	0.766064
0.03250000000000014	0.74572225
0.03275000000000014	0.7628037500000001
0.03300000000000014	0.7942932500000002
0.03325000000000014	0.7882025
0.03350000000000014	0.7752005
0.03375000000000014	0.7993412499999999
0.03400000000000014	0.7952809999999999
0.03425000000000014	0.8028059999999999
0.03450000000000014	0.7989132500000001
0.03475000000000014	0.741113
0.03500000000000014	0.74697025
0.03525000000000014	0.781935
0.03550000000000014	0.7744187500000002
0.03575000000000014	0.7748935
0.03600000000000014	0.78427275
0.03625000000000014	0.7946847499999999
0.03650000000000014	0.7910805000000001
0.036750000000000144	0.7996112500000001
0.037000000000000144	0.790727
0.037250000000000144	0.7824562500000001
0.037500000000000144	0.7935672500000002
0.037750000000000145	0.7732362500000001
0.038000000000000145	0.7802770000000001
0.038250000000000145	0.7866575
0.038500000000000145	0.78819375
0.038750000000000145	0.7859022500000001
0.039000000000000146	0.7892457500000001
0.039250000000000146	0.782847
0.039500000000000146	0.80700575
0.039750000000000146	0.8030285
0.04000000000000015	0.81274325
0.04025000000000015	0.8013155000000001
0.04050000000000015	0.7901115000000002
0.04075000000000015	0.7759275000000001
0.04100000000000015	0.7776037499999998
0.04125000000000015	0.7963235000000001
0.04150000000000015	0.806019
0.04175000000000015	0.7947872500000002
0.04200000000000015	0.8088967499999998
0.04225000000000015	0.7973577500000001
0.04250000000000015	0.7903167500000001
0.04275000000000015	0.8061585
0.04300000000000015	0.7889945000000002
0.04325000000000015	0.7778367500000001
0.04350000000000015	0.80196775
0.04375000000000015	0.8065594999999999
0.04400000000000015	0.79999325
0.04425000000000015	0.8127612500000001
0.04450000000000015	0.8075182500000002
0.04475000000000015	0.8027410000000001
0.04500000000000015	0.79928525
0.04525000000000015	0.7920395
0.04550000000000015	0.80331775
0.04575000000000015	0.80693175
0.04600000000000015	0.79860525
0.04625000000000015	0.809418
0.04650000000000015	0.8189085
0.04675000000000015	0.8114115000000001
0.04700000000000015	0.8153972500000001
0.04725000000000015	0.795029
0.04750000000000015	0.8019215
0.04775000000000015	0.80592575
0.048000000000000154	0.8091015000000001
0.048250000000000154	0.80547
0.048500000000000154	0.813647
0.048750000000000154	0.8287617500000001
0.049000000000000155	0.814289
0.049250000000000155	0.8057390000000001
0.049500000000000155	0.8085797499999998
0.049750000000000155	0.81383275
0.050000000000000155	0.8178187500000001
0.050250000000000156	0.80622375
0.050500000000000156	0.8117187500000002
0.050750000000000156	0.8244962500000002
0.051000000000000156	0.8057212499999999
0.05125000000000016	0.8058982499999999
0.05150000000000016	0.8158630000000001
0.05175000000000016	0.8156675000000001
0.05200000000000016	0.80781625
0.05225000000000016	0.81410275
0.05250000000000016	0.8007100000000001
0.05275000000000016	0.8000862500000001
0.05300000000000016	0.818992
0.05325000000000016	0.8133860000000002
0.05350000000000016	0.8180425000000001
0.05375000000000016	0.8132182500000001
0.05400000000000016	0.8140470000000001
0.05425000000000016	0.81400075
0.05450000000000016	0.8109830000000001
0.05475000000000016	0.815835
0.05500000000000016	0.8100422500000001
0.05525000000000016	0.8180237500000002
0.05550000000000016	0.8136094999999999
0.05575000000000016	0.8159002500000001
0.05600000000000016	0.8170087500000001
0.05625000000000016	0.8139075
0.05650000000000016	0.8172225000000001
0.05675000000000016	0.8067452500000001
0.05700000000000016	0.8235932499999999
0.05725000000000016	0.8264615000000001
0.05750000000000016	0.8157792500000001
0.05775000000000016	0.8070060000000001
0.05800000000000016	0.8195790000000001
0.05825000000000016	0.8112805000000001
0.05850000000000016	0.8121380000000002
0.05875000000000016	0.8185917500000001
0.05900000000000016	0.80520875
0.059250000000000164	0.8195420000000001
0.059500000000000164	0.8159934999999998
0.059750000000000164	0.8195232499999999
0.060000000000000164	0.8224567500000001
0.060250000000000165	0.8195417500000001
0.060500000000000165	0.82505525
0.060750000000000165	0.821907
0.061000000000000165	0.8259492500000001
0.061250000000000165	0.8284729999999999
0.061500000000000166	0.81564875
0.061750000000000166	0.813162
0.062000000000000166	0.8316207499999999
0.062250000000000166	0.8021075000000001
0.06250000000000017	0.81858225
0.06275000000000017	0.8201005000000001
0.06300000000000017	0.8184892500000001
0.06325000000000017	0.8206592500000001
0.06350000000000017	0.8144192499999999
0.06375000000000017	0.819905
0.06400000000000017	0.823686
0.06425000000000017	0.8138887500000002
0.06450000000000017	0.8221215
0.06475000000000017	0.8178097500000001
0.06500000000000017	0.8222614999999999
0.06525000000000017	0.8350292500000002
0.06550000000000017	0.8287810000000002
0.06575000000000017	0.82169325
0.06600000000000017	0.8209020000000001
0.06625000000000017	0.8215067500000001
0.06650000000000017	0.82239175
0.06675000000000017	0.8253437500000002
0.06700000000000017	0.8234625000000001
0.06725000000000017	0.8088407500000001
0.06750000000000017	0.8244497500000001
0.06775000000000017	0.8223727500000001
0.06800000000000017	0.8257162499999999
0.06825000000000017	0.81668225
0.06850000000000017	0.8247292500000001
0.06875000000000017	0.82924625
0.06900000000000017	0.8057022500000001
0.06925000000000017	0.81633775
0.06950000000000017	0.80921325
0.06975000000000017	0.8163472500000001
0.07000000000000017	0.81677575
0.07025000000000017	0.8188427500000001
0.07050000000000017	0.8293389999999999
0.07075000000000017	0.8240027499999999
0.07100000000000017	0.8263405
0.07125000000000017	0.8205665000000001
0.07150000000000017	0.8224845000000001
0.07175000000000017	0.8240674999999998
0.07200000000000017	0.81631
0.07225000000000018	0.8233697500000002
0.07250000000000018	0.8184244999999999
0.07275000000000018	0.82329525
0.07300000000000018	0.8397140000000002
0.07325000000000018	0.8231365
0.07350000000000018	0.8173997500000002
0.07375000000000018	0.8172505000000001
0.07400000000000018	0.83215175
0.07425000000000018	0.8277652500000002
0.07450000000000018	0.8285290000000001
0.07475000000000018	0.82367725
0.07500000000000018	0.8269924999999999
0.07525000000000018	0.8283149999999999
0.07550000000000018	0.8219445000000001
0.07575000000000018	0.8164685
0.07600000000000018	0.8176137500000001
0.07625000000000018	0.83654775
0.07650000000000018	0.827653
0.07675000000000018	0.82739275
0.07700000000000018	0.82191625
0.07725000000000018	0.8254835
0.07750000000000018	0.8258097500000001
0.07775000000000018	0.8320402499999999
0.07800000000000018	0.82450525
0.07825000000000018	0.83570975
0.07850000000000018	0.8241237500000002
0.07875000000000018	0.8153972500000001
0.07900000000000018	0.81854525
0.07925000000000018	0.8357654999999999
0.07950000000000018	0.8197279999999999
0.07975000000000018	0.819383
0.08000000000000018	0.8127242500000001
0.08025000000000018	0.8226617500000001
0.08050000000000018	0.8234157500000001
0.08075000000000018	0.8288922499999998
0.08100000000000018	0.8166172500000001
0.08125000000000018	0.8182659999999999
0.08150000000000018	0.8298977500000001
0.08175000000000018	0.83247775
0.08200000000000018	0.8197282500000002
0.08225000000000018	0.81888975
0.08250000000000018	0.8265265
0.08275000000000018	0.8233787499999999
0.08300000000000018	0.82362125
0.08325000000000018	0.8203242500000001
0.08350000000000019	0.8328684999999999
0.08375000000000019	0.8299257500000001
0.08400000000000019	0.8345079999999999
0.08425000000000019	0.822215
0.08450000000000019	0.82786775
0.08475000000000019	0.8294602499999999
0.08500000000000019	0.8226612500000001
0.08525000000000019	0.81624525
0.08550000000000019	0.8348897500000001
0.08575000000000019	0.8358025000000001
0.08600000000000019	0.8316115
0.08625000000000019	0.8224475000000001
0.08650000000000019	0.8307919999999999
0.08675000000000019	0.82710425
0.08700000000000019	0.8281005000000001
0.08725000000000019	0.825828
0.08750000000000019	0.8298792500000001
0.08775000000000019	0.8393977500000002
0.08800000000000019	0.8293207500000002
0.08825000000000019	0.8381030000000002
0.08850000000000019	0.8424709999999999
0.08875000000000019	0.8284825000000001
0.08900000000000019	0.837265
0.08925000000000019	0.83962125
0.08950000000000019	0.8310807500000001
0.08975000000000019	0.8298240000000001
0.09000000000000019	0.8280352500000001
0.09025000000000019	0.8279520000000001
0.09050000000000019	0.82365775
0.09075000000000019	0.8109732500000001
0.09100000000000019	0.8339584999999999
0.09125000000000019	0.8263965
0.09150000000000019	0.8384102500000004
0.09175000000000019	0.8252412499999999
0.09200000000000019	0.82932025
0.09225000000000019	0.8341352500000001
0.0925000000000002	0.82993575
0.0927500000000002	0.8294602499999999
0.0930000000000002	0.8270667500000001
0.0932500000000002	0.837954
0.0935000000000002	0.8337445
0.0937500000000002	0.8335024999999999
0.0940000000000002	0.8432157500000002
0.0942500000000002	0.8300557500000001
0.0945000000000002	0.8357187500000001
0.0947500000000002	0.83284075
0.0950000000000002	0.8358955
0.0952500000000002	0.82929275
0.0955000000000002	0.835868
0.0957500000000002	0.8374137500000002
0.0960000000000002	0.835449
0.0962500000000002	0.83294325
0.0965000000000002	0.8324875
0.0967500000000002	0.8362407500000001
0.0970000000000002	0.8292740000000001
0.0972500000000002	0.8302612500000001
0.0975000000000002	0.82734625
0.0977500000000002	0.8282957500000001
0.0980000000000002	0.8435045
0.0982500000000002	0.8449857499999999
0.0985000000000002	0.84104625
0.0987500000000002	0.849018
0.0990000000000002	0.8320495000000001
0.0992500000000002	0.83878275
0.0995000000000002	0.8230715000000001
0.0997500000000002	0.837954
0.1000000000000002	0.8329995000000001
0.1002500000000002	0.8395375000000002
0.1005000000000002	0.8344335
0.1007500000000002	0.8434764999999999
0.1010000000000002	0.8335957499999997
0.1012500000000002	0.82408625
0.1015000000000002	0.8382705000000001
0.1017500000000002	0.83489
0.1020000000000002	0.8317977499999999
0.1022500000000002	0.8286687500000001
0.1025000000000002	0.8448455
0.1027500000000002	0.8393137500000002
0.1030000000000002	0.8306990000000001
0.1032500000000002	0.8373202499999999
0.1035000000000002	0.8283430000000002
0.1037500000000002	0.8450135000000002
0.1040000000000002	0.8301402500000001
0.1042500000000002	0.8401612500000002
0.1045000000000002	0.8422845000000001
0.1047500000000002	0.8374045000000001
0.1050000000000002	0.83432175
0.1052500000000002	0.84071975
0.1055000000000002	0.8204825000000001
0.1057500000000002	0.83665025
0.1060000000000002	0.8385035000000001
0.1062500000000002	0.8322634999999999
0.1065000000000002	0.83111825
0.1067500000000002	0.8320867500000001
0.1070000000000002	0.8369199999999998
0.1072500000000002	0.8390620000000001
0.1075000000000002	0.841884
0.1077500000000002	0.8383729999999998
0.10800000000000021	0.8381122499999999
0.10825000000000021	0.8436165000000001
0.10850000000000021	0.84847775
0.10875000000000021	0.8344055
0.10900000000000021	0.83331575
0.10925000000000021	0.8350207500000001
0.10950000000000021	0.83484375
0.10975000000000021	0.8312115000000001
0.11000000000000021	0.8342657499999998
0.11025000000000021	0.8197187499999999
0.11050000000000021	0.8381492500000001
0.11075000000000021	0.8538145
0.11100000000000021	0.8330177500000001
0.11125000000000021	0.83313925
0.11150000000000021	0.83242225
0.11175000000000021	0.8388572500000001
0.11200000000000021	0.8353365
0.11225000000000021	0.8430672499999998
0.11250000000000021	0.8330735
0.11275000000000021	0.8358210000000001
0.11300000000000021	0.8471555000000001
0.11325000000000021	0.8320400000000001
0.11350000000000021	0.8324775000000001
0.11375000000000021	0.8414090000000001
0.11400000000000021	0.8329900000000001
0.11425000000000021	0.83042875
0.11450000000000021	0.8411390000000002
0.11475000000000021	0.8345547500000001
0.11500000000000021	0.83416325
0.11525000000000021	0.8345830000000001
0.11550000000000021	0.8358490000000001
0.11575000000000021	0.82970275
0.11600000000000021	0.8325427500000001
0.11625000000000021	0.8355417500000002
0.11650000000000021	0.84194
0.11675000000000021	0.83465725
0.11700000000000021	0.8361102499999999
0.11725000000000022	0.8350572500000001
0.11750000000000022	0.8275044999999999
0.11775000000000022	0.84001225
0.11800000000000022	0.8413627499999999
0.11825000000000022	0.8422472500000001
0.11850000000000022	0.83801925
0.11875000000000022	0.8417347500000001
0.11900000000000022	0.8307362500000001
0.11925000000000022	0.8373580000000002
0.11950000000000022	0.835598
0.11975000000000022	0.8387449999999999
0.12	0.8260050000000001
0.11975	0.8425637500000002
0.1195	0.8268995
0.11925	0.84180975
0.119	0.8270110000000002
0.11875	0.8380935
0.1185	0.8415397500000001
0.11825	0.82881775
0.118	0.8384189999999999
0.11775	0.84777025
0.1175	0.8345919999999998
0.11725	0.8388667500000001
0.11699999999999999	0.8248872500000001
0.11674999999999999	0.827802
0.11649999999999999	0.8287712500000001
0.11624999999999999	0.8360912500000001
0.11599999999999999	0.8381867500000001
0.11574999999999999	0.8361195000000001
0.11549999999999999	0.8369572500000001
0.11524999999999999	0.824459
0.11499999999999999	0.8279330000000001
0.11474999999999999	0.82837975
0.11449999999999999	0.8312014999999999
0.11424999999999999	0.8214692499999998
0.11399999999999999	0.8395279999999999
0.11374999999999999	0.8193834999999998
0.11349999999999999	0.8395465
0.11324999999999999	0.8315560000000002
0.11299999999999999	0.8177257499999999
0.11274999999999999	0.82892925
0.11249999999999999	0.833819
0.11224999999999999	0.8305592499999999
0.11199999999999999	0.8266760000000002
0.11174999999999999	0.8317235000000001
0.11149999999999999	0.8291160000000001
0.11124999999999999	0.8192435
0.11099999999999999	0.8256795
0.11074999999999999	0.8383079999999999
0.11049999999999999	0.8321797500000001
0.11024999999999999	0.8175487499999999
0.10999999999999999	0.8285570000000003
0.10974999999999999	0.820678
0.10949999999999999	0.82709475
0.10924999999999999	0.8348249999999999
0.10899999999999999	0.8306520000000001
0.10874999999999999	0.8297675000000001
0.10849999999999999	0.8326642500000001
0.10824999999999999	0.8266662500000002
0.10799999999999998	0.8149972500000001
0.10774999999999998	0.8184705000000001
0.10749999999999998	0.8164589999999999
0.10724999999999998	0.82871525
0.10699999999999998	0.8309875
0.10674999999999998	0.8280540000000001
0.10649999999999998	0.8203794999999999
0.10624999999999998	0.81490375
0.10599999999999998	0.8313415000000001
0.10574999999999998	0.8241144999999999
0.10549999999999998	0.81333925
0.10524999999999998	0.8175767500000001
0.10499999999999998	0.8192342499999999
0.10474999999999998	0.8322447500000001
0.10449999999999998	0.8246455
0.10424999999999998	0.8204912499999999
0.10399999999999998	0.82539075
0.10374999999999998	0.8218325
0.10349999999999998	0.8159375
0.10324999999999998	0.8165802499999999
0.10299999999999998	0.8178092499999999
0.10274999999999998	0.8280725000000001
0.10249999999999998	0.8209762500000002
0.10224999999999998	0.8108710000000001
0.10199999999999998	0.8131160000000002
0.10174999999999998	0.802927
0.10149999999999998	0.82275525
0.10124999999999998	0.8168595000000002
0.10099999999999998	0.8168687500000001
0.10074999999999998	0.8175767500000001
0.10049999999999998	0.8086175
0.10024999999999998	0.8203987500000001
0.09999999999999998	0.806634
0.09974999999999998	0.8198679999999999
0.09949999999999998	0.814829
0.09924999999999998	0.81454025
0.09899999999999998	0.8128822500000001
0.09874999999999998	0.8066060000000002
0.09849999999999998	0.81562125
0.09824999999999998	0.82436575
0.09799999999999998	0.8186382499999999
0.09774999999999998	0.81777225
0.09749999999999998	0.81658975
0.09724999999999998	0.818247
0.09699999999999998	0.8069877499999998
0.09674999999999997	0.8159840000000002
0.09649999999999997	0.81822875
0.09624999999999997	0.81356275
0.09599999999999997	0.834871
0.09574999999999997	0.8162077500000001
0.09549999999999997	0.8139815000000001
0.09524999999999997	0.8258464999999998
0.09499999999999997	0.8194110000000001
0.09474999999999997	0.8174647500000001
0.09449999999999997	0.8174650000000001
0.09424999999999997	0.81958825
0.09399999999999997	0.81447525
0.09374999999999997	0.803188
0.09349999999999997	0.816403
0.09324999999999997	0.816403
0.09299999999999997	0.7992294999999998
0.09274999999999997	0.8124915
0.09249999999999997	0.8167382499999999
0.09224999999999997	0.81238925
0.09199999999999997	0.8237047499999999
0.09174999999999997	0.819737
0.09149999999999997	0.81331125
0.09124999999999997	0.8336232500000001
0.09099999999999997	0.82074325
0.09074999999999997	0.82141375
0.09049999999999997	0.8170459999999999
0.09024999999999997	0.8265827499999999
0.08999999999999997	0.8255395
0.08974999999999997	0.8078535000000001
0.08949999999999997	0.8078720000000001
0.08924999999999997	0.8222335
0.08899999999999997	0.8082352500000001
0.08874999999999997	0.82407725
0.08849999999999997	0.7988015
0.08824999999999997	0.8033922500000001
0.08799999999999997	0.8087287499999999
0.08774999999999997	0.8087665000000002
0.08749999999999997	0.8119792499999999
0.08724999999999997	0.8146615
0.08699999999999997	0.81237075
0.08674999999999997	0.8089992500000001
0.08649999999999997	0.8156027500000002
0.08624999999999997	0.8235929999999999
0.08599999999999997	0.80740625
0.08574999999999997	0.8070615
0.08549999999999996	0.805721
0.08524999999999996	0.82976775
0.08499999999999996	0.8121657499999999
0.08474999999999996	0.8122215000000002
0.08449999999999996	0.81032175
0.08424999999999996	0.81088025
0.08399999999999996	0.8243475000000001
0.08374999999999996	0.81318125
0.08349999999999996	0.82008175
0.08324999999999996	0.8054415
0.08299999999999996	0.80190275
0.08274999999999996	0.8229872500000001
0.08249999999999996	0.81197975
0.08224999999999996	0.8081050000000001
0.08199999999999996	0.8019397500000001
0.08174999999999996	0.8161612500000001
0.08149999999999996	0.81129025
0.08124999999999996	0.8272812500000001
0.08099999999999996	0.8106099999999999
0.08074999999999996	0.8162915000000001
0.08049999999999996	0.80885925
0.08024999999999996	0.807844
0.07999999999999996	0.8016512500000001
0.07974999999999996	0.81277125
0.07949999999999996	0.8079652500000001
0.07924999999999996	0.8145220000000001
0.07899999999999996	0.8067359999999999
0.07874999999999996	0.8011385000000001
0.07849999999999996	0.8079935000000001
0.07824999999999996	0.8125847500000001
0.07799999999999996	0.8054974999999999
0.07774999999999996	0.8053670000000003
0.07749999999999996	0.81028425
0.07724999999999996	0.80574875
0.07699999999999996	0.8084119999999999
0.07674999999999996	0.8096785
0.07649999999999996	0.80836575
0.07624999999999996	0.80592575
0.07599999999999996	0.8000120000000002
0.07574999999999996	0.8050692500000001
0.07549999999999996	0.8141772500000001
0.07524999999999996	0.80085025
0.07499999999999996	0.8012877499999999
0.07474999999999996	0.8201845
0.07449999999999996	0.8067550000000001
0.07424999999999995	0.8004125000000001
0.07399999999999995	0.8054512500000002
0.07374999999999995	0.8031595000000001
0.07349999999999995	0.808906
0.07324999999999995	0.80818925
0.07299999999999995	0.8147177500000001
0.07274999999999995	0.80912025
0.07249999999999995	0.8082914999999999
0.07224999999999995	0.80269375
0.07199999999999995	0.7964167499999999
0.07174999999999995	0.8160585
0.07149999999999995	0.8013999999999999
0.07124999999999995	0.8079185
0.07099999999999995	0.8058235
0.07074999999999995	0.80316925
0.07049999999999995	0.8077415000000001
0.07024999999999995	0.8082635
0.06999999999999995	0.7977952500000001
0.06974999999999995	0.79438675
0.06949999999999995	0.7969852499999999
0.06924999999999995	0.8042587499999999
0.06899999999999995	0.797702
0.06874999999999995	0.811793
0.06849999999999995	0.80584175
0.06824999999999995	0.8120820000000001
0.06799999999999995	0.7894135
0.06774999999999995	0.7911452499999999
0.06749999999999995	0.791509
0.06724999999999995	0.8006550000000001
0.06699999999999995	0.7987825000000001
0.06674999999999995	0.8105454999999999
0.06649999999999995	0.8045752500000001
0.06624999999999995	0.7909967499999999
0.06599999999999995	0.8036905
0.06574999999999995	0.78689875
0.06549999999999995	0.78821225
0.06524999999999995	0.7914534999999999
0.06499999999999995	0.79962975
0.06474999999999995	0.794759
0.06449999999999995	0.8013902499999999
0.06424999999999995	0.80069175
0.06399999999999995	0.794321
0.06374999999999995	0.8050970000000003
0.06349999999999995	0.7926355000000003
0.06324999999999995	0.7894137500000002
0.06299999999999994	0.7888829999999999
0.06274999999999994	0.7910802499999999
0.062499999999999944	0.7901957500000001
0.062249999999999944	0.8062707500000001
0.061999999999999944	0.7882775000000001
0.061749999999999944	0.7926357499999999
0.061499999999999944	0.7965284999999999
0.06124999999999994	0.791062
0.06099999999999994	0.7788792500000001
0.06074999999999994	0.786293
0.06049999999999994	0.7921792500000001
0.06024999999999994	0.79576575
0.05999999999999994	0.7828752499999999
0.05974999999999994	0.7938187500000001
0.05949999999999994	0.78397425
0.05924999999999994	0.7648720000000001
0.05899999999999994	0.7504165
0.05874999999999994	0.7540767500000001
0.05849999999999994	0.764518
0.05824999999999994	0.7559492499999999
0.05799999999999994	0.7892920000000001
0.05774999999999994	0.79181625
0.05749999999999994	0.7863957500000001
0.05724999999999994	0.799379
0.05699999999999994	0.7953457500000001
0.05674999999999994	0.78879875
0.05649999999999994	0.7866752499999998
0.05624999999999994	0.77751075
0.05599999999999994	0.7652810000000001
0.05574999999999994	0.7658312500000001
0.05549999999999994	0.7640702500000001
0.05524999999999994	0.7986429999999999
0.05499999999999994	0.7696780000000001
0.05474999999999994	0.762637
0.05449999999999994	0.7597492500000002
0.05424999999999994	0.7775292500000001
0.05399999999999994	0.7851570000000001
0.05374999999999994	0.7821115000000001
0.053499999999999936	0.7887149999999999
0.053249999999999936	0.776049
0.052999999999999936	0.7932320000000002
0.052749999999999936	0.77786525
0.052499999999999936	0.7823165
0.052249999999999935	0.75663875
0.051999999999999935	0.7651792500000001
0.051749999999999935	0.7890132500000001
0.051499999999999935	0.7512082499999999
0.051249999999999934	0.7605782499999999
0.050999999999999934	0.7657102499999999
0.050749999999999934	0.7854740000000001
0.050499999999999934	0.7394545000000001
0.050249999999999934	0.7231187500000001
0.04999999999999993	0.7459552500000001
0.04974999999999993	0.7440180000000001
0.04949999999999993	0.72663
0.04924999999999993	0.73207825
0.04899999999999993	0.7291912500000001
0.04874999999999993	0.6863502500000002
0.04849999999999993	0.771242
0.04824999999999993	0.7491965000000002
0.04799999999999993	0.73583175
0.04774999999999993	0.74277925
0.04749999999999993	0.738989
0.04724999999999993	0.6635979999999999
0.04699999999999993	0.6490785
0.04674999999999993	0.5933017500000001
0.04649999999999993	0.6458657500000001
0.04624999999999993	0.6669974999999999
0.04599999999999993	0.66133525
0.04574999999999993	0.6737867500000001
0.04549999999999993	0.53780475
0.04524999999999993	0.36223025
0.04499999999999993	0.3932722500000001
0.04474999999999993	0.40482075
0.04449999999999993	0.48437425000000006
0.04424999999999993	0.5354385
0.04399999999999993	0.5991317500000001
0.04374999999999993	0.58362575
0.04349999999999993	0.7431802500000001
0.04324999999999993	0.70830175
0.04299999999999993	0.719375
0.04274999999999993	0.7377597500000002
0.04249999999999993	0.7548312500000002
0.042249999999999927	0.72400425
0.041999999999999926	0.73768475
0.041749999999999926	0.539397
0.041499999999999926	0.5732599999999999
0.041249999999999926	0.57343725
0.040999999999999925	0.6051202500000001
0.040749999999999925	0.71524925
0.040499999999999925	0.6318215
0.040249999999999925	0.329168
0.039999999999999925	0.641144
0.039749999999999924	0.65085775
0.039499999999999924	0.4171142500000001
0.039249999999999924	0.3387512500000001
0.038999999999999924	0.1870013
0.03874999999999992	0.32435282500000007
0.03849999999999992	0.12282350000000002
0.03824999999999992	0.166633125
0.03799999999999992	0.3734255000000001
0.03774999999999992	0.5073597500000001
0.03749999999999992	0.3025695
0.03724999999999992	0.20776075000000002
0.03699999999999992	0.30371475
0.03674999999999992	0.636944
0.03649999999999992	0.7524940000000001
0.03624999999999992	0.538019
0.03599999999999992	0.3942685
0.03574999999999992	0.24284374999999997
0.03549999999999992	0.24390545
0.03524999999999992	0.21531392500000002
0.03499999999999992	0.36056375
0.03474999999999992	0.4718017500000001
0.03449999999999992	0.24506037499999997
0.03424999999999992	0.35079375
0.03399999999999992	0.6386852500000001
0.03374999999999992	0.5389870000000001
0.03349999999999992	0.6734700000000001
0.03324999999999992	0.7128652500000001
0.03299999999999992	0.5540092500000001
0.03274999999999992	0.5798625000000001
0.03249999999999992	0.316307
0.03224999999999992	0.26290430000000004
0.03199999999999992	0.7361205
0.03174999999999992	0.4853895000000001
0.03149999999999992	0.20313210000000004
0.031249999999999917	0.49141525
0.030999999999999917	0.11426464999999998
0.030749999999999916	0.06282732500000002
0.030499999999999916	0.2920085
0.030249999999999916	0.23230127500000003
0.029999999999999916	0.18642370000000003
0.029749999999999915	0.19343672500000003
0.029499999999999915	0.58628
0.029249999999999915	0.673647
0.028999999999999915	0.7264905
0.028749999999999915	0.17468902500000003
0.028499999999999914	0.5579397500000001
0.028249999999999914	0.24489282499999998
0.027999999999999914	0.205842325
0.027749999999999914	0.19348337500000004
0.027499999999999913	0.6279475
0.027249999999999913	0.46355025
0.026999999999999913	0.34956400000000004
0.026749999999999913	0.5851247500000001
0.026499999999999913	0.5202585
0.026249999999999912	0.2373676
0.025999999999999912	0.200337875
0.025749999999999912	0.537674
0.02549999999999991	0.043418495
0.02524999999999991	0.040987745
0.02499999999999991	0.071674975
0.02474999999999991	0.0054855220000000005
0.02449999999999991	0.0165590275
0.02424999999999991	0.0105891855
0.02399999999999991	0.019269194
0.02374999999999991	0.47360850000000015
0.02349999999999991	0.717019
0.02324999999999991	0.66247125
0.02299999999999991	0.06770750000000002
0.02274999999999991	0.08102545000000001
0.02249999999999991	0.0157953015
0.02224999999999991	0.013755733
0.02199999999999991	0.01396062925
0.02174999999999991	0.01602814
0.021499999999999908	0.019716232499999996
0.021249999999999908	0.011464635
0.020999999999999908	0.010673014250000001
0.020749999999999907	0.2614513
0.020499999999999907	0.04597037500000001
0.020249999999999907	0.0064913453
0.019999999999999907	0.053616550000000006
0.019749999999999907	0.158707375
0.019499999999999906	0.144551325
0.019249999999999906	0.112727975
0.018999999999999906	0.013588054999999998
0.018749999999999906	0.009452983500000001
0.018499999999999905	0.30880899999999994
0.018249999999999905	0.006714862500000001
0.017999999999999905	0.0031385765
0.017749999999999905	0.01007697075
0.017499999999999905	-0.0019092274999999998
0.017249999999999904	0.0091735675
0.016999999999999904	0.018971137500000002
0.016749999999999904	0.0071339509999999995
0.016499999999999904	0.0085123334
0.016249999999999903	0.00667761775
0.015999999999999903	0.008139813249999999
0.015749999999999903	0.004414494999999999
0.015499999999999903	0.0018067825000000002
0.015249999999999903	0.020563704250000002
0.014999999999999902	0.0120141225
0.014749999999999902	0.01298270075
0.014499999999999902	0.01817951025
0.014249999999999902	0.011455347000000003
0.013999999999999901	0.004954680750000001
0.013749999999999901	0.0020768634999999997
0.013499999999999901	0.020768612500000002
0.0132499999999999	0.016251675
0.0129999999999999	0.021876895000000004
0.0127499999999999	0.018449614500000003
0.0124999999999999	0.0160188385
0.0122499999999999	0.013932661750000004
0.0119999999999999	0.014724291599999996
0.0117499999999999	0.01171610325
0.0114999999999999	0.02058235
0.011249999999999899	0.0154693675
0.010999999999999899	0.009750995
0.010749999999999899	-0.0016111847499999995
0.010499999999999898	0.017825624999999998
0.010249999999999898	0.008549604
0.009999999999999898	0.010607838500000001
0.009749999999999898	0.0152085975
0.009499999999999897	0.018021205000000002
0.009249999999999897	0.008251552500000002
0.008999999999999897	0.013327305499999999
0.008749999999999897	0.0038184417500000006
0.008499999999999897	0.016195780000000003
0.008249999999999896	0.0047777075000000006
0.007999999999999896	0.030817647500000003
0.007749999999999896	0.0117906092
0.007499999999999896	0.00867066375
0.007249999999999895	0.009732403000000002
0.006999999999999895	0.015972280749999998
0.006749999999999895	0.0079349285
0.006499999999999895	0.00990932975
0.0062499999999998945	0.020209807750000003
0.005999999999999894	0.01151119
0.005749999999999894	0.014426267999999997
0.005499999999999894	0.0159815825
0.005249999999999894	0.020302960000000002
0.004999999999999893	0.01852410175
0.004749999999999893	0.012703322499999998
0.004499999999999893	0.0038557007500000006
0.004249999999999893	0.012312169
0.0039999999999998925	0.019716197249999998
0.0037499999999998923	0.0244380665
0.003499999999999892	0.005746300000000001
0.003249999999999892	0.012954767499999999
0.0029999999999998916	0.01636341675
0.0027499999999998914	0.01966964
0.002499999999999891	0.0168756645
0.002249999999999891	0.0028126005
0.0019999999999998908	0.01550658825
0.0017499999999998905	0.0047683924999999995
0.0014999999999998903	0.00881968525
0.00124999999999989	0.0160374725
0.0009999999999998899	0.0077672675
0.0007499999999998896	0.01437037925
0.0004999999999998894	0.012870957750000002
0.0002499999999998892	0.010859285250000001
-1.1102230246251565e-16	0.00962992025
-0.00025000000000011124	0.022072492500000002
-0.0005000000000001115	0.0128616425
-0.0007500000000001117	0.004991910700000001
-0.001000000000000112	0.0010617025000000005
-0.0012500000000001121	0.03519488
-0.0015000000000001124	0.0038929597499999993
-0.0017500000000001126	0.0155438625
-0.002000000000000113	0.018868695
-0.002250000000000113	0.01578601255
-0.0025000000000001132	0.0269340385
-0.0027500000000001135	0.024596365
-0.0030000000000001137	0.019343670000000004
-0.003250000000000114	0.012256266500000002
-0.003500000000000114	0.014444867499999998
-0.0037500000000001144	0.015189974100000002
-0.004000000000000115	0.013019982749999999
-0.004250000000000115	0.00916425825
-0.004500000000000115	0.02522971375
-0.004750000000000115	0.01347631925
-0.0050000000000001155	0.0136532475
-0.005250000000000116	0.0060908922499999995
-0.005500000000000116	0.010971027749999999
-0.005750000000000116	0.091121125
-0.006000000000000116	0.01034704155
-0.006250000000000117	0.019502014999999998
-0.006500000000000117	0.017210955000000007
-0.006750000000000117	0.0206848
-0.007000000000000117	0.001993039000000001
-0.0072500000000001175	0.13575965
-0.007500000000000118	0.0806437
-0.007750000000000118	0.1319039
-0.008000000000000118	0.041183315
-0.008250000000000118	0.05374687499999999
-0.008500000000000119	0.01144601475
-0.008750000000000119	0.019688264500000004
-0.009000000000000119	0.01941818
-0.00925000000000012	0.05156762499999999
-0.00950000000000012	0.09535860000000002
-0.00975000000000012	0.27424785
-0.01000000000000012	0.050869174999999996
-0.01025000000000012	0.15270967500000002
-0.01050000000000012	0.178004525
-0.01075000000000012	0.06116027500000001
-0.01100000000000012	0.119033075
-0.011250000000000121	0.37593024999999997
-0.011500000000000121	0.253339475
-0.011750000000000121	0.16327095000000003
-0.012000000000000122	0.35464974999999993
-0.012250000000000122	0.3831022
-0.012500000000000122	0.591756
-0.012750000000000122	0.59524875
-0.013000000000000123	0.44526825
-0.013250000000000123	0.38480625
-0.013500000000000123	0.13035795000000003
-0.013750000000000123	0.23597977500000003
-0.014000000000000123	0.3100393
-0.014250000000000124	0.3508675
-0.014500000000000124	0.26809220000000006
-0.014750000000000124	0.24363545000000003
-0.015000000000000124	0.7550832500000001
-0.015250000000000125	0.37639575000000003
-0.015500000000000125	0.48505475000000003
-0.015750000000000125	0.11005500000000001
-0.016000000000000125	0.3162972500000001
-0.016250000000000125	0.35932400000000003
-0.016500000000000126	0.20197720000000005
-0.016750000000000126	0.2884975
-0.017000000000000126	0.4694827500000001
-0.017250000000000126	0.5215435
-0.017500000000000127	0.584855
-0.017750000000000127	0.6671652500000002
-0.018000000000000127	0.240822875
-0.018250000000000127	0.46612075000000003
-0.018500000000000127	0.48378825
-0.018750000000000128	0.40828525
-0.019000000000000128	0.4464325
-0.019250000000000128	0.5126775
-0.01950000000000013	0.5690219999999999
-0.01975000000000013	0.7270399999999999
-0.02000000000000013	0.5697955
-0.02025000000000013	0.40943075
-0.02050000000000013	0.7266855000000001
-0.02075000000000013	0.4994712500000001
-0.02100000000000013	0.57282225
-0.02125000000000013	0.6029875
-0.02150000000000013	0.7284835000000001
-0.02175000000000013	0.50320575
-0.02200000000000013	0.61085725
-0.02225000000000013	0.5940935
-0.02250000000000013	0.5806269999999999
-0.02275000000000013	0.7587244999999999
-0.02300000000000013	0.69372625
-0.02325000000000013	0.59698975
-0.023500000000000132	0.6652
-0.023750000000000132	0.6313747500000001
-0.024000000000000132	0.7128745000000001
-0.024250000000000133	0.7334200000000002
-0.024500000000000133	0.6054835
-0.024750000000000133	0.590843
-0.025000000000000133	0.592752
-0.025250000000000133	0.59290125
-0.025500000000000134	0.7685690000000001
-0.025750000000000134	0.7838720000000001
-0.026000000000000134	0.8018185
-0.026250000000000134	0.8090922500000001
-0.026500000000000135	0.7011680000000001
-0.026750000000000135	0.6872167500000002
-0.027000000000000135	0.78342525
-0.027250000000000135	0.7842724999999998
-0.027500000000000135	0.76182625
-0.027750000000000136	0.773366
-0.028000000000000136	0.7898982499999999
-0.028250000000000136	0.7610435
-0.028500000000000136	0.79145325
-0.028750000000000137	0.72205725
-0.029000000000000137	0.6970795000000001
-0.029250000000000137	0.7821397500000002
-0.029500000000000137	0.769268
-0.029750000000000137	0.7621429999999998
-0.030000000000000138	0.7175685
-0.030250000000000138	0.7887145000000001
-0.030500000000000138	0.7841327499999999
-0.03075000000000014	0.7835740000000001
-0.03100000000000014	0.8130035000000001
-0.03125000000000014	0.7933807500000001
-0.03150000000000014	0.7813385
-0.03175000000000014	0.7484235000000001
-0.03200000000000014	0.783844
-0.03225000000000014	0.7930922500000002
-0.03250000000000014	0.7829220000000001
-0.03275000000000014	0.7938647499999999
-0.03300000000000014	0.747427
-0.03325000000000014	0.7798390000000002
-0.03350000000000014	0.7682899999999999
-0.03375000000000014	0.8091107500000001
-0.03400000000000014	0.7900750000000002
-0.03425000000000014	0.8013435000000001
-0.03450000000000014	0.7750985
-0.03475000000000014	0.8069782499999999
-0.03500000000000014	0.79154625
-0.03525000000000014	0.8074902499999999
-0.03550000000000014	0.7786465000000001
-0.03575000000000014	0.7813665000000001
-0.03600000000000014	0.82297825
-0.03625000000000014	0.7887525000000001
-0.03650000000000014	0.8073037500000001
-0.036750000000000144	0.8079374999999999
-0.037000000000000144	0.8279890000000001
-0.037250000000000144	0.8160589999999999
-0.037500000000000144	0.8052647500000001
-0.037750000000000145	0.7828655000000001
-0.038000000000000145	0.79325975
-0.038250000000000145	0.81753
-0.038500000000000145	0.8156300000000001
-0.038750000000000145	0.81604925
-0.039000000000000146	0.8038957500000001
-0.039250000000000146	0.81080625
-0.039500000000000146	0.80992125
-0.039750000000000146	0.82827775
-0.04000000000000015	0.80828225
-0.04025000000000015	0.8190665
-0.04050000000000015	0.8111317499999999
-0.04075000000000015	0.8141495000000001
-0.04100000000000015	0.81549025
-0.04125000000000015	0.8129945000000001
-0.04150000000000015	0.8084870000000001
-0.04175000000000015	0.8146525000000001
-0.04200000000000015	0.81704575
-0.04225000000000015	0.82031475
-0.04250000000000015	0.8312577499999999
-0.04275000000000015	0.8306620000000001
-0.04300000000000015	0.8153970000000001
-0.04325000000000015	0.82209375
-0.04350000000000015	0.8145497500000001
-0.04375000000000015	0.806764
-0.04400000000000015	0.8098185000000001
-0.04425000000000015	0.8168317500000001
-0.04450000000000015	0.81442875
-0.04475000000000015	0.81721375
-0.04500000000000015	0.8186295
-0.04525000000000015	0.8206312500000001
-0.04550000000000015	0.8196069999999999
-0.04575000000000015	0.8231462500000001
-0.04600000000000015	0.8205102500000001
-0.04625000000000015	0.82640525
-0.04650000000000015	0.8264615000000001
-0.04675000000000015	0.8190480000000001
-0.04700000000000015	0.8117187500000002
-0.04725000000000015	0.8174742500000001
-0.04750000000000015	0.82454325
-0.04775000000000015	0.8160305000000001
-0.048000000000000154	0.8093622500000001
-0.048250000000000154	0.80763925
-0.048500000000000154	0.8141495000000001
-0.048750000000000154	0.833167
-0.049000000000000155	0.8286505
-0.049250000000000155	0.81919675
-0.049500000000000155	0.83257125
-0.049750000000000155	0.826173
-0.050000000000000155	0.81860125
-0.050250000000000156	0.81205375
-0.050500000000000156	0.8117375000000001
-0.050750000000000156	0.8214785
-0.051000000000000156	0.8273280000000001
-0.05125000000000016	0.82031475
-0.05150000000000016	0.8249715000000001
-0.05175000000000016	0.81674775
-0.05200000000000016	0.82539975
-0.05225000000000016	0.81960725
-0.05250000000000016	0.8236302500000001
-0.05275000000000016	0.82217725
-0.05300000000000016	0.8309592499999999
-0.05325000000000016	0.8185827499999999
-0.05350000000000016	0.8203612499999999
-0.05375000000000016	0.83038225
-0.05400000000000016	0.82937675
-0.05425000000000016	0.824189
-0.05450000000000016	0.8179585
-0.05475000000000016	0.8319842500000001
-0.05500000000000016	0.8159842500000001
-0.05525000000000016	0.8184242500000001
-0.05550000000000016	0.83060625
-0.05575000000000016	0.81913225
-0.05600000000000016	0.82852925
-0.05625000000000016	0.8162542500000001
-0.05650000000000016	0.8146615000000001
-0.05675000000000016	0.8294415
-0.05700000000000016	0.8312299999999999
-0.05725000000000016	0.8263217500000001
-0.05750000000000016	0.8264335000000002
-0.05775000000000016	0.8275605
-0.05800000000000016	0.8262847499999999
-0.05825000000000016	0.82558625
-0.05850000000000016	0.81870375
-0.05875000000000016	0.8354762500000001
-0.05900000000000016	0.8244685000000002
-0.059250000000000164	0.8246917500000001
-0.059500000000000164	0.82504575
-0.059750000000000164	0.8257632500000001
-0.060000000000000164	0.8329155
-0.060250000000000165	0.8309690000000001
-0.060500000000000165	0.8274487500000002
-0.060750000000000165	0.82637775
-0.061000000000000165	0.82692725
-0.061250000000000165	0.8314067500000002
-0.061500000000000166	0.8227455
-0.061750000000000166	0.8363425
-0.062000000000000166	0.8220000000000002
-0.062250000000000166	0.8260330000000002
-0.06250000000000017	0.8334
-0.06275000000000017	0.8350015000000001
-0.06300000000000017	0.8261544999999999
-0.06325000000000017	0.8221585
-0.06350000000000017	0.83217975
-0.06375000000000017	0.8368829999999999
-0.06400000000000017	0.8291997500000001
-0.06425000000000017	0.8267500000000001
-0.06450000000000017	0.82042675
-0.06475000000000017	0.8297207499999999
-0.06500000000000017	0.83777725
-0.06525000000000017	0.8347965000000002
-0.06550000000000017	0.8311370000000002
-0.06575000000000017	0.8351320000000001
-0.06600000000000017	0.83346525
-0.06625000000000017	0.8339775
-0.06650000000000017	0.8296092500000001
-0.06675000000000017	0.82078975
-0.06700000000000017	0.8253625
-0.06725000000000017	0.842601
-0.06750000000000017	0.8435515000000001
-0.06775000000000017	0.8195319999999999
-0.06800000000000017	0.833586
-0.06825000000000017	0.83393975
-0.06850000000000017	0.8325242500000001
-0.06875000000000017	0.8229225
-0.06900000000000017	0.8346107500000001
-0.06925000000000017	0.8359145000000001
-0.06950000000000017	0.8294327500000002
-0.06975000000000017	0.8333905
-0.07000000000000017	0.8321612500000001
-0.07025000000000017	0.840282
-0.07050000000000017	0.8280165000000003
-0.07075000000000017	0.82780275
-0.07100000000000017	0.83639925
-0.07125000000000017	0.82564225
-0.07150000000000017	0.831202
-0.07175000000000017	0.8333532500000002
-0.07200000000000017	0.8261260000000001
-0.07225000000000018	0.827728
-0.07250000000000018	0.8323659999999999
-0.07275000000000018	0.83986325
-0.07300000000000018	0.8350295000000001
-0.07325000000000018	0.83404225
-0.07350000000000018	0.831509
-0.07375000000000018	0.8304287499999999
-0.07400000000000018	0.8345450000000001
-0.07425000000000018	0.8341259999999999
-0.07450000000000018	0.83261675
-0.07475000000000018	0.83540225
-0.07500000000000018	0.82999075
-0.07525000000000018	0.8170642499999999
-0.07550000000000018	0.83543925
-0.07575000000000018	0.82720675
-0.07600000000000018	0.8219537500000001
-0.07625000000000018	0.832776
-0.07650000000000018	0.8296000000000001
-0.07675000000000018	0.8366967500000001
-0.07700000000000018	0.82335075
-0.07725000000000018	0.82767225
-0.07750000000000018	0.8290687499999998
-0.07775000000000018	0.8314159999999999
-0.07800000000000018	0.8278490000000001
-0.07825000000000018	0.83242225
-0.07850000000000018	0.8312390000000001
-0.07875000000000018	0.8302610000000001
-0.07900000000000018	0.83128625
-0.07925000000000018	0.8352905000000002
-0.07950000000000018	0.821777
-0.07975000000000018	0.8303357500000002
-0.08000000000000018	0.833912
-0.08025000000000018	0.8302240000000001
-0.08050000000000018	0.8345545000000001
-0.08075000000000018	0.8388942500000001
-0.08100000000000018	0.8557235
-0.08125000000000018	0.8351135000000001
-0.08150000000000018	0.8352347499999999
-0.08175000000000018	0.8335952499999999
-0.08200000000000018	0.83342775
-0.08225000000000018	0.8258470000000001
-0.08250000000000018	0.83109
-0.08275000000000018	0.8440262499999999
-0.08300000000000018	0.8224382500000001
-0.08325000000000018	0.82513925
-0.08350000000000019	0.832645
-0.08375000000000019	0.8227545
-0.08400000000000019	0.8335675
-0.08425000000000019	0.8287802500000001
-0.08450000000000019	0.8287435000000001
-0.08475000000000019	0.8374230000000001
-0.08500000000000019	0.8399937500000001
-0.08525000000000019	0.83255225
-0.08550000000000019	0.8229040000000001
-0.08575000000000019	0.81950475
-0.08600000000000019	0.8324587500000001
-0.08625000000000019	0.8302235
-0.08650000000000019	0.8294137500000002
-0.08675000000000019	0.8303450000000001
-0.08700000000000019	0.8332692499999999
-0.08725000000000019	0.8348340000000001
-0.08750000000000019	0.8284077500000001
-0.08775000000000019	0.8365290000000001
-0.08800000000000019	0.8392392500000001
-0.08825000000000019	0.84109275
-0.08850000000000019	0.8470345
-0.08875000000000019	0.8399657500000001
-0.08900000000000019	0.838271
-0.08925000000000019	0.8381399999999999
-0.08950000000000019	0.8267410000000001
-0.08975000000000019	0.831742
-0.09000000000000019	0.8252970000000001
-0.09025000000000019	0.82879925
-0.09050000000000019	0.8341170000000001
-0.09075000000000019	0.8299725000000001
-0.09100000000000019	0.8303642500000001
-0.09125000000000019	0.837246
-0.09150000000000019	0.831928
-0.09175000000000019	0.8327292500000002
-0.09200000000000019	0.8437842500000001
-0.09225000000000019	0.8377867500000002
-0.0925000000000002	0.83550425
-0.0927500000000002	0.8359335000000001
-0.0930000000000002	0.84243375
-0.0932500000000002	0.8372740000000002
-0.0935000000000002	0.8281565000000001
-0.0937500000000002	0.8401890000000001
-0.0940000000000002	0.8434860000000001
-0.0942500000000002	0.8344892500000001
-0.0945000000000002	0.8332695000000001
-0.0947500000000002	0.8457495000000002
-0.0950000000000002	0.8484687500000002
-0.0952500000000002	0.8387547500000001
-0.0955000000000002	0.83597975
-0.0957500000000002	0.8289945000000002
-0.0960000000000002	0.8310159999999999
-0.0962500000000002	0.8416889999999999
-0.0965000000000002	0.82966525
-0.0967500000000002	0.8336792500000001
-0.0970000000000002	0.8338559999999999
-0.0972500000000002	0.82976775
-0.0975000000000002	0.8337442500000001
-0.0977500000000002	0.8370415
-0.0980000000000002	0.835458
-0.0982500000000002	0.8306807500000001
-0.0985000000000002	0.838699
-0.0987500000000002	0.8377859999999999
-0.0990000000000002	0.8289852500000001
-0.0992500000000002	0.8341260000000001
-0.0995000000000002	0.8378695
-0.0997500000000002	0.8342195
-0.1000000000000002	0.8189455000000001
-0.1002500000000002	0.8350485000000001
-0.1005000000000002	0.8422380000000002
-0.1007500000000002	0.84094325
-0.1010000000000002	0.8402542500000001
-0.1012500000000002	0.8264150000000001
-0.1015000000000002	0.8396302500000001
-0.1017500000000002	0.84812425
-0.1020000000000002	0.8375255000000001
-0.1022500000000002	0.8357285000000002
-0.1025000000000002	0.84410025
-0.1027500000000002	0.8304382499999999
-0.1030000000000002	0.8343592500000001
-0.1032500000000002	0.8317330000000002
-0.1035000000000002	0.83140675
-0.1037500000000002	0.8169339999999999
-0.1040000000000002	0.8335117500000001
-0.1042500000000002	0.8338004999999999
-0.1045000000000002	0.8358307500000001
-0.1047500000000002	0.8347315000000001
-0.1050000000000002	0.8365292500000001
-0.1052500000000002	0.83829875
-0.1055000000000002	0.8390625000000003
-0.1057500000000002	0.83175125
-0.1060000000000002	0.8240770000000001
-0.1062500000000002	0.84257325
-0.1065000000000002	0.8347220000000002
-0.1067500000000002	0.8459729999999999
-0.1070000000000002	0.8283892500000001
-0.1072500000000002	0.82243825
-0.1075000000000002	0.83258025
-0.1077500000000002	0.8245987499999999
-0.10800000000000021	0.8356537499999999
-0.10825000000000021	0.82519475
-0.10850000000000021	0.8301592500000001
-0.10875000000000021	0.8344334999999999
-0.10900000000000021	0.83772125
-0.10925000000000021	0.8353274999999999
-0.10950000000000021	0.8345545000000001
-0.10975000000000021	0.83489025
-0.11000000000000021	0.854187
-0.11025000000000021	0.8376740000000001
-0.11050000000000021	0.8414835
-0.11075000000000021	0.8374787499999999
-0.11100000000000021	0.8388665000000001
-0.11125000000000021	0.8303727500000001
-0.11150000000000021	0.8333437499999999
-0.11175000000000021	0.8309502500000001
-0.11200000000000021	0.8392020000000001
-0.11225000000000021	0.8425082500000001
-0.11250000000000021	0.8342007499999999
-0.11275000000000021	0.8345455000000002
-0.11300000000000021	0.8386150000000001
-0.11325000000000021	0.83545825
-0.11350000000000021	0.8310715000000002
-0.11375000000000021	0.8280352499999999
-0.11400000000000021	0.8384477499999999
-0.11425000000000021	0.8330552499999999
-0.11450000000000021	0.8323750000000003
-0.11475000000000021	0.8376465000000001
-0.11500000000000021	0.8373297499999999
-0.11525000000000021	0.83747
-0.11550000000000021	0.83134175
-0.11575000000000021	0.82752325
-0.11600000000000021	0.84068325
-0.11625000000000021	0.8457674999999999
-0.11650000000000021	0.8501545000000001
-0.11675000000000021	0.82622875
-0.11700000000000021	0.8272815
-0.11725000000000022	0.8330550000000001
-0.11750000000000022	0.8296000000000001
-0.11775000000000022	0.8347592500000001
-0.11800000000000022	0.83714325
-0.11825000000000022	0.8304385
-0.11850000000000022	0.8275230000000002
-0.11875000000000022	0.8348715000000001
-0.11900000000000022	0.8424707499999999
-0.11925000000000022	0.8295812500000003
-0.11950000000000022	0.835616
-0.11975000000000022	0.82843575
-0.12	0.8157047500000002
-0.11975	0.8423962500000001
-0.1195	0.8293575000000001
-0.11925	0.8256142500000001
-0.119	0.8355140000000002
-0.11875	0.8291347499999999
-0.1185	0.83277625
-0.11825	0.844054
-0.118	0.8368365
-0.11775	0.8389132499999999
-0.1175	0.8297960000000002
-0.11725	0.8204825
-0.11699999999999999	0.831835
-0.11674999999999999	0.8333165
-0.11649999999999999	0.8375815000000002
-0.11624999999999999	0.8316767500000001
-0.11599999999999999	0.8256417500000001
-0.11574999999999999	0.8378607500000002
-0.11549999999999999	0.82429175
-0.11524999999999999	0.8180145
-0.11499999999999999	0.8202872500000001
-0.11474999999999999	0.8282125
-0.11449999999999999	0.8176230000000001
-0.11424999999999999	0.8096422500000001
-0.11399999999999999	0.8323845
-0.11374999999999999	0.8124452500000001
-0.11349999999999999	0.8233695
-0.11324999999999999	0.82025875
-0.11299999999999999	0.82458
-0.11274999999999999	0.820147
-0.11249999999999999	0.8209762500000001
-0.11224999999999999	0.8263495000000001
-0.11199999999999999	0.8196717500000001
-0.11174999999999999	0.8268527499999999
-0.11149999999999999	0.8081517500000001
-0.11124999999999999	0.8292090000000001
-0.11099999999999999	0.8142797499999999
-0.11074999999999999	0.8209757500000001
-0.11049999999999999	0.817893
-0.11024999999999999	0.8181162500000002
-0.10999999999999999	0.8155277500000001
-0.10974999999999999	0.8215347500000001
-0.10949999999999999	0.8199327500000001
-0.10924999999999999	0.81348825
-0.10899999999999999	0.8147732499999999
-0.10874999999999999	0.8241612500000001
-0.10849999999999999	0.8147175
-0.10824999999999999	0.8179395
-0.10799999999999998	0.8177535
-0.10774999999999998	0.81409375
-0.10749999999999998	0.8146242499999999
-0.10724999999999998	0.81855475
-0.10699999999999998	0.8252882499999998
-0.10674999999999998	0.8055252500000001
-0.10649999999999998	0.81626325
-0.10624999999999998	0.82373275
-0.10599999999999998	0.819551
-0.10574999999999998	0.8213017499999998
-0.10549999999999998	0.81649625
-0.10524999999999998	0.8034575
-0.10499999999999998	0.8176697500000002
-0.10474999999999998	0.8101447499999999
-0.10449999999999998	0.82003575
-0.10424999999999998	0.8158540000000002
-0.10399999999999998	0.80805875
-0.10374999999999998	0.8108340000000002
-0.10349999999999998	0.818527
-0.10324999999999998	0.8101445000000002
-0.10299999999999998	0.8212085
-0.10274999999999998	0.80642875
-0.10249999999999998	0.8084127500000001
-0.10224999999999998	0.803616
-0.10199999999999998	0.8200632500000001
-0.10174999999999998	0.819542
-0.10149999999999998	0.8104242500000001
-0.10124999999999998	0.804259
-0.10099999999999998	0.8012135
-0.10074999999999998	0.8137765
-0.10049999999999998	0.81056375
-0.10024999999999998	0.7998442500000001
-0.09999999999999998	0.8044165000000001
-0.09974999999999998	0.8003285000000001
-0.09949999999999998	0.7966310000000001
-0.09924999999999998	0.80822575
-0.09899999999999998	0.807714
-0.09874999999999998	0.8051154999999999
-0.09849999999999998	0.8122032500000002
-0.09824999999999998	0.8169807500000001
-0.09799999999999998	0.805488
-0.09774999999999998	0.80730425
-0.09749999999999998	0.7948152499999999
-0.09724999999999998	0.7968729999999999
-0.09699999999999998	0.80531125
-0.09674999999999997	0.81562975
-0.09649999999999997	0.7991550000000001
-0.09624999999999997	0.8087010000000001
-0.09599999999999997	0.8198022500000002
-0.09574999999999997	0.8050132499999998
-0.09549999999999997	0.8007942499999998
-0.09524999999999997	0.8024522500000002
-0.09499999999999997	0.81272425
-0.09474999999999997	0.8033457499999999
-0.09449999999999997	0.8096790000000001
-0.09424999999999997	0.8141495000000001
-0.09399999999999997	0.8076205000000001
-0.09374999999999997	0.8049567500000001
-0.09349999999999997	0.808468
-0.09324999999999997	0.80122225
-0.09299999999999997	0.7972272499999999
-0.09274999999999997	0.7951875000000002
-0.09249999999999997	0.8042682499999999
-0.09224999999999997	0.8141397500000003
-0.09199999999999997	0.7937255000000002
-0.09174999999999997	0.80148375
-0.09149999999999997	0.8067825000000001
-0.09124999999999997	0.8087472499999998
-0.09099999999999997	0.81378625
-0.09074999999999997	0.81238925
-0.09049999999999997	0.79296175
-0.09024999999999997	0.8146145000000001
-0.08999999999999997	0.80607475
-0.08974999999999997	0.7994625000000001
-0.08949999999999997	0.79303625
-0.08924999999999997	0.8025172500000001
-0.08899999999999997	0.7993690000000001
-0.08874999999999997	0.8095955
-0.08849999999999997	0.8001705000000001
-0.08824999999999997	0.8065032500000001
-0.08799999999999997	0.802508
-0.08774999999999997	0.802806
-0.08749999999999997	0.8025635000000001
-0.08724999999999997	0.8084775000000001
-0.08699999999999997	0.8057770000000002
-0.08674999999999997	0.802061
-0.08649999999999997	0.803439
-0.08624999999999997	0.7954672500000001
-0.08599999999999997	0.80154875
-0.08574999999999997	0.7874202500000002
-0.08549999999999996	0.81055425
-0.08524999999999996	0.8075460000000001
-0.08499999999999996	0.791434
-0.08474999999999996	0.7889010000000001
-0.08449999999999996	0.7908195000000002
-0.08424999999999996	0.8042212499999999
-0.08399999999999996	0.7951600000000001
-0.08374999999999996	0.8024612499999999
-0.08349999999999996	0.7923845000000002
-0.08324999999999996	0.8028150000000001
-0.08299999999999996	0.7997042499999999
-0.08274999999999996	0.7974222500000002
-0.08249999999999996	0.7906334999999999
-0.08224999999999996	0.8026752499999997
-0.08199999999999996	0.7915552500000002
-0.08174999999999996	0.8046497499999999
-0.08149999999999996	0.7875047500000001
-0.08124999999999996	0.80095275
-0.08099999999999996	0.7971247500000002
-0.08074999999999996	0.7949550000000001
-0.08049999999999996	0.7967145000000001
-0.08024999999999996	0.7853437500000001
-0.07999999999999996	0.8067359999999999
-0.07974999999999996	0.8066612500000001
-0.07949999999999996	0.8023122500000001
-0.07924999999999996	0.7899164999999999
-0.07899999999999996	0.78918075
-0.07874999999999996	0.8012130000000001
-0.07849999999999996	0.7998815000000001
-0.07824999999999996	0.7978325
-0.07799999999999996	0.8026292500000001
-0.07774999999999996	0.7903167499999999
-0.07749999999999996	0.7940332500000001
-0.07724999999999996	0.79224425
-0.07699999999999996	0.7831922499999999
-0.07674999999999996	0.80016075
-0.07649999999999996	0.7926169999999999
-0.07624999999999996	0.7914715000000001
-0.07599999999999996	0.7923285000000001
-0.07574999999999996	0.80332775
-0.07549999999999996	0.79575575
-0.07524999999999996	0.8009155
-0.07499999999999996	0.7830334999999999
-0.07474999999999996	0.7904937500000001
-0.07449999999999996	0.8036249999999999
-0.07424999999999995	0.784552
-0.07399999999999995	0.7842724999999998
-0.07374999999999995	0.7905679999999999
-0.07349999999999995	0.78739275
-0.07324999999999995	0.7912387500000001
-0.07299999999999995	0.8000115
-0.07274999999999995	0.795188
-0.07249999999999995	0.7898324999999999
-0.07224999999999995	0.78701025
-0.07199999999999995	0.7788239999999998
-0.07174999999999995	0.7728630000000001
-0.07149999999999995	0.7944612500000002
-0.07124999999999995	0.7937537499999999
-0.07099999999999995	0.7933709999999999
-0.07074999999999995	0.7976185000000001
-0.07049999999999995	0.7811060000000001
-0.07024999999999995	0.7975625
-0.06999999999999995	0.7793644999999999
-0.06974999999999995	0.7937535
-0.06949999999999995	0.7884264999999999
-0.06924999999999995	0.7911822500000001
-0.06899999999999995	0.7943305
-0.06874999999999995	0.7935205000000001
-0.06849999999999995	0.7881842500000001
-0.06824999999999995	0.7909030000000001
-0.06799999999999995	0.79130375
-0.06774999999999995	0.7892647500000001
-0.06749999999999995	0.7834247500000001
-0.06724999999999995	0.78306175
-0.06699999999999995	0.7897487500000001
-0.06674999999999995	0.7716059999999999
-0.06649999999999995	0.7796805000000002
-0.06624999999999995	0.7712429999999999
-0.06599999999999995	0.7818885000000002
-0.06574999999999995	0.7843932499999999
-0.06549999999999995	0.7723229999999998
-0.06524999999999995	0.7901677500000003
-0.06499999999999995	0.78042575
-0.06474999999999995	0.7731142500000001
-0.06449999999999995	0.776374
-0.06424999999999995	0.783881
-0.06399999999999995	0.7767932499999999
-0.06374999999999995	0.7759185000000001
-0.06349999999999995	0.7836487500000001
-0.06324999999999995	0.77250075
-0.06299999999999994	0.7866195
-0.06274999999999994	0.7751362499999999
-0.062499999999999944	0.7765599999999999
-0.062249999999999944	0.7821954999999999
-0.061999999999999944	0.7872900000000002
-0.061749999999999944	0.7969015000000002
-0.061499999999999944	0.79358575
-0.06124999999999994	0.7828195000000001
-0.06099999999999994	0.77172675
-0.06074999999999994	0.7607180000000001
-0.06049999999999994	0.77085175
-0.06024999999999994	0.75999075
-0.05999999999999994	0.7872159999999999
-0.05974999999999994	0.7791967500000001
-0.05949999999999994	0.7916207499999999
-0.05924999999999994	0.7425845
-0.05899999999999994	0.7442045
-0.05874999999999994	0.7811052500000001
-0.05849999999999994	0.7608105
-0.05824999999999994	0.7836765
-0.05799999999999994	0.7731615
-0.05774999999999994	0.7738510000000001
-0.05749999999999994	0.7593115000000004
-0.05724999999999994	0.781329
-0.05699999999999994	0.7638195
-0.05674999999999994	0.7506965
-0.05649999999999994	0.75466375
-0.05624999999999994	0.7329442500000002
-0.05599999999999994	0.74056275
-0.05574999999999994	0.764685
-0.05549999999999994	0.7281482499999999
-0.05524999999999994	0.74832975
-0.05499999999999994	0.7819817499999999
-0.05474999999999994	0.7672560000000002
-0.05449999999999994	0.7666692500000001
-0.05424999999999994	0.7472679999999999
-0.05399999999999994	0.7699847500000001
-0.05374999999999994	0.7691657500000001
-0.053499999999999936	0.77207175
-0.053249999999999936	0.7572810000000001
-0.052999999999999936	0.7436357499999999
-0.052749999999999936	0.747325
-0.052499999999999936	0.7320595
-0.052249999999999935	0.7211725
-0.051999999999999935	0.7619194999999999
-0.051749999999999935	0.7502489999999998
-0.051499999999999935	0.7426675
-0.051249999999999934	0.7636707500000003
-0.050999999999999934	0.73917475
-0.050749999999999934	0.70488375
-0.050499999999999934	0.71749375
-0.050249999999999934	0.73866275
-0.04999999999999993	0.7029557500000001
-0.04974999999999993	0.7510589999999999
-0.04949999999999993	0.7490942500000002
-0.04924999999999993	0.7689509999999999
-0.04899999999999993	0.7610162499999998
-0.04874999999999993	0.7538820000000002
-0.04849999999999993	0.7698085
-0.04824999999999993	0.66381225
-0.04799999999999993	0.667165
-0.04774999999999993	0.6688232500000001
-0.04749999999999993	0.675882
-0.04724999999999993	0.70305825
-0.04699999999999993	0.7077337500000002
-0.04674999999999993	0.7175309999999999
-0.04649999999999993	0.7251772500000001
-0.04624999999999993	0.748433
-0.04599999999999993	0.7529035000000002
-0.04574999999999993	0.7207350000000001
-0.04549999999999993	0.6820197499999999
-0.04524999999999993	0.6089289999999999
-0.04499999999999993	0.6456142500000002
-0.04474999999999993	0.6272022500000001
-0.04449999999999993	0.67110475
-0.04424999999999993	0.582918
-0.04399999999999993	0.6300802500000001
-0.04374999999999993	0.6996032499999998
-0.04349999999999993	0.7351427499999998
-0.04324999999999993	0.61052225
-0.04299999999999993	0.7253262500000001
-0.04274999999999993	0.74528475
-0.04249999999999993	0.43806000000000006
-0.042249999999999927	0.4643415
-0.041999999999999926	0.233530575
-0.041749999999999926	0.5276807499999999
-0.041499999999999926	0.38069925
-0.041249999999999926	0.372382
-0.040999999999999925	0.4603185000000001
-0.040749999999999925	0.49910825000000003
-0.040499999999999925	0.736819
-0.040249999999999925	0.6954305000000001
-0.039999999999999925	0.30833375
-0.039749999999999924	0.274248
-0.039499999999999924	0.156006575
-0.039249999999999924	0.1633363
-0.038999999999999924	0.7096427500000001
-0.03874999999999992	0.5228100000000001
-0.03849999999999992	0.2992355
-0.03824999999999992	0.5396017500000001
-0.03799999999999992	0.25657150000000006
-0.03774999999999992	0.22316512500000002
-0.03749999999999992	0.35186500000000004
-0.03724999999999992	0.03582814
-0.03699999999999992	0.13644882500000002
-0.03674999999999992	0.7017639999999998
-0.03649999999999992	0.7539745000000001
-0.03624999999999992	0.478414
-0.03599999999999992	0.19262647500000005
-0.03574999999999992	0.24542365000000005
-0.03549999999999992	0.5090072500000001
-0.03524999999999992	0.52428175
-0.03499999999999992	0.5037647500000001
-0.03474999999999992	0.5545494999999999
-0.03449999999999992	0.46694024999999995
-0.03424999999999992	0.5874625000000001
-0.03399999999999992	0.731575
-0.03374999999999992	0.63397225
-0.03349999999999992	0.38955599999999996
-0.03324999999999992	0.31101695
-0.03299999999999992	0.60887375
-0.03274999999999992	0.234936875
-0.03249999999999992	0.6973215
-0.03224999999999992	0.7292845000000001
-0.03199999999999992	0.49349175
-0.03174999999999992	0.6264475
-0.03149999999999992	0.587239
-0.031249999999999917	0.524542
-0.030999999999999917	0.31840235
-0.030749999999999916	0.13122405
-0.030499999999999916	0.54817025
-0.030249999999999916	0.67547275
-0.029999999999999916	0.30689025000000003
-0.029749999999999915	0.37146975000000004
-0.029499999999999915	0.3770482500000001
-0.029249999999999915	0.09932612500000002
-0.028999999999999915	0.48756925
-0.028749999999999915	0.0312181225
-0.028499999999999914	0.028330960000000002
-0.028249999999999914	0.0513068
-0.027999999999999914	0.58755575
-0.027749999999999914	0.7056665000000001
-0.027499999999999913	0.6920500000000002
-0.027249999999999913	0.031795522500000006
-0.026999999999999913	0.178516725
-0.026749999999999913	0.21295765
-0.026499999999999913	0.08897912499999999
-0.026249999999999912	0.311594
-0.025999999999999912	0.34259775000000003
-0.025749999999999912	0.044135615
-0.02549999999999991	0.00157393725
-0.02524999999999991	0.307189
-0.02499999999999991	0.6067877500000001
-0.02474999999999991	0.4868517500000001
-0.02449999999999991	0.5879095
-0.02424999999999991	0.6627322500000001
-0.02399999999999991	0.6141540000000001
-0.02374999999999991	0.33712125
-0.02349999999999991	0.34311985
-0.02324999999999991	0.00332483725
-0.02299999999999991	0.5933765000000001
-0.02274999999999991	0.028349609999999997
-0.02249999999999991	0.018393715000000005
-0.02224999999999991	0.014742914999999999
-0.02199999999999991	0.01571149725
-0.02174999999999991	-0.010067657
-0.021499999999999908	-0.008689261249999998
-0.021249999999999908	-0.0014621817500000002
-0.020999999999999908	0.017266825
-0.020749999999999907	-0.00458213675
-0.020499999999999907	-0.004861527499999999
-0.020249999999999907	0.005606601500000002
-0.019999999999999907	0.318793
-0.019749999999999907	0.003278278
-0.019499999999999906	0.265763325
-0.019249999999999906	0.24760237499999999
-0.018999999999999906	0.24217332500000005
-0.018749999999999906	0.37646074999999996
-0.018499999999999905	0.42263725
-0.018249999999999905	0.181525
-0.017999999999999905	-0.010365694749999998
-0.017749999999999905	0.0025332165000000006
-0.017499999999999905	0.5982752499999999
-0.017249999999999904	0.00998385175
-0.016999999999999904	0.0014342452499999997
-0.016749999999999904	-0.0008754425000000004
-0.016499999999999904	0.0013876679999999997
-0.016249999999999903	0.01202342875
-0.015999999999999903	-0.0005122250000000012
-0.015749999999999903	0.006286463000000001
-0.015499999999999903	-0.00958336355
-0.015249999999999903	-0.007031522499999999
-0.014999999999999902	-0.007115332500000003
-0.014749999999999902	0.004777705
-0.014499999999999902	-0.0108406625
-0.014249999999999902	-0.01185578375
-0.013999999999999901	0.014454205000000003
-0.013749999999999901	-0.006211951749999999
-0.013499999999999901	0.0019464769999999998
-0.0132499999999999	0.0002048859999999997
-0.0129999999999999	-0.0029057435000000003
-0.0127499999999999	-0.006416840750000001
-0.0124999999999999	-0.005019867500000001
-0.0122499999999999	-0.00190921975
-0.0119999999999999	-0.0101701
-0.0117499999999999	0.00014901724999999977
-0.0114999999999999	-0.011501917499999998
-0.011249999999999899	-0.0007171244999999996
-0.010999999999999899	-0.0018440295
-0.010749999999999899	0.00372531
-0.010499999999999898	0.005327199499999999
-0.010249999999999898	-0.005131621750000001
-0.009999999999999898	0.008260872250000002
-0.009749999999999898	0.010691629250000001
-0.009499999999999897	-0.0095647205
-0.009249999999999897	-0.00456349925
-0.008999999999999897	-0.006528620000000001
-0.008749999999999897	-0.0009965233
-0.008499999999999897	-0.0092574
-0.008249999999999896	0.003566987250000001
-0.007999999999999896	-0.009024559
-0.007749999999999896	0.0042002835000000014
-0.007499999999999896	-0.0037811992499999993
-0.007249999999999895	0.0026542950000000005
-0.006999999999999895	0.00391157275
-0.006749999999999895	0.0064261625
-0.006499999999999895	0.004721823500000001
-0.0062499999999998945	0.007432012250000002
-0.005999999999999894	0.0010896495
-0.005749999999999894	0.007050145000000001
-0.005499999999999894	-0.005299260749999999
-0.005249999999999894	-0.0037066805
-0.004999999999999893	0.0037253150000000003
-0.004749999999999893	0.0007264362500000002
-0.004499999999999893	-0.012274902500000002
-0.004249999999999893	0.00918289
-0.0039999999999998925	0.015515915
-0.0037499999999998923	-0.0035390432500000003
-0.003499999999999892	-0.001983738250000001
-0.003249999999999892	0.00018627750000000108
-0.0029999999999998916	0.00302681575
-0.0027499999999998914	-0.007301597499999999
-0.002499999999999891	0.008018736250000002
-0.002249999999999891	-0.00084750675
-0.0019999999999998908	0.00117347775
-0.0017499999999998905	-0.004908095
-0.0014999999999998903	0.004200302
-0.00124999999999989	0.0002048724999999999
-0.0009999999999998899	0.0044983105
